751 100
of -0.69168454 -0.2094266 -0.44566703 0.096887 0.43817398 -0.006945265 -0.24603754 -0.06871357 0.26224133 -0.52871287 -0.37555054 0.28516164 0.4080213 0.32024458 -0.12768531 0.12075991 -0.22231022 -0.08261682 -0.6338049 -0.21675983 -0.21415916 -0.39475018 0.32070503 -0.058879055 0.08542381 0.70439976 0.0373798 -0.266753 0.031735018 0.4232952 0.40080386 -0.46108085 -0.0003824311 -0.37642112 0.14824659 0.010027816 0.13678347 -0.3474882 0.24698363 -0.22220844 0.0229581 -0.24012133 -0.008204609 -0.06660786 0.5617098 -0.27271566 -0.1678278 -0.08601889 0.030750873 -0.025896206 -0.21711789 -0.02689695 -0.64410865 -0.065752424 -0.295045 0.31307214 -0.078622244 0.41044885 0.127566 -0.07241346 -0.14732158 0.27665898 -0.10099674 -0.0047889496 0.11579323 0.53136516 0.015178226 0.14215985 0.11032672 0.054411657 -0.15735926 0.16067511 0.22359443 0.48602343 -0.1198534 0.02712479 0.04045541 -0.012017799 0.21422149 -0.32186237 0.23708485 0.24974573 -0.19046676 -0.51198906 0.14918546 0.42711863 -0.59373224 0.089201905 0.0795867 0.16138001 0.0107331 0.32997715 -0.43941295 -0.44432363 -0.26840165 0.18207833 -0.30600387 0.4539238 -0.2030113 0.38941875
subclassof -0.85609394 -0.40347096 -0.20806836 0.2636161 0.29620096 0.10161756 -0.63308483 0.21543206 0.20705809 -0.55779195 -0.066577874 0.26040637 0.85305357 0.3412046 0.34816152 0.15210994 -0.0023516978 -0.07105595 -0.37234092 0.03881969 -0.42838967 -0.2226743 0.507152 -0.43323523 0.40173706 0.5554545 0.2080487 -0.34281957 -0.38927296 0.52951175 0.38311625 -0.22391267 -0.28067526 -0.1635588 -0.068851516 0.0550527 0.24073385 -0.28029582 0.52335227 -0.5716075 -0.20088682 -0.016924854 0.17319235 -0.27371836 0.5655633 -0.27293685 0.042779446 -0.14528297 -0.15915984 -0.2224612 0.30939233 -0.13184184 -0.050666347 -0.32020882 -0.28322738 0.28196442 0.14720118 0.1508582 0.27299687 0.019674752 -0.1306778 0.21395579 0.18929623 -0.06596001 -0.0059815655 0.4451574 -0.46834975 0.59825546 0.442793 0.41299355 0.10735225 0.22313266 0.16916953 0.20997782 -0.15680899 -0.018619614 0.015747998 0.086010925 -0.14699693 -0.19483939 -0.08315292 -0.26873738 -0.08115539 -0.45157817 -0.15538022 0.23804162 -0.0791778 0.020921314 -0.0008955594 -0.0034472845 0.11050091 0.4108887 -0.54545766 -0.42183232 -0.09749376 0.08600861 -0.455851 0.25781298 0.16422848 -0.06917235
class -0.24993046 0.20688109 -0.28527266 0.039473005 0.43253118 -0.1628403 -0.24067353 0.26984924 0.14102705 -0.67528874 -0.37620825 0.33814734 0.3782662 0.23069306 0.13306156 0.12516162 0.21288362 0.117205136 -0.15739568 0.060489547 -0.31917253 -0.19367182 0.30404603 -0.54137564 0.36917242 0.6108766 0.23414128 -0.5552382 -0.3911856 0.55715424 0.24841408 -0.109131224 -0.07318321 0.20581587 -0.0863585 0.06427311 -0.052615266 -0.45351872 0.3707383 -0.21066539 -0.2871992 0.11619512 -0.09496919 0.04599578 0.56473875 -0.44225538 0.034237955 -0.17665987 -0.04643917 -0.19237672 0.31646892 -0.16800997 -0.48995408 -0.09586389 -0.16309586 0.7350369 0.029947354 0.28190973 0.10501597 -0.26249254 -0.17786168 0.22340605 0.15117124 -0.040819947 0.06158874 0.5721268 -0.60505337 0.37097257 0.50898004 0.2548655 -0.083458535 -0.16994911 0.52034885 0.63215977 0.21121135 -0.34771472 -0.014224818 -0.18722476 -0.11016191 -0.36663342 0.0352835 0.044162814 0.029069724 -0.5565266 0.12776421 0.68097025 -0.1913377 0.0910648 -0.0936352 -0.27500677 0.07132475 0.6163349 -0.47154132 -0.52384084 -0.29659796 -0.10823726 0.2334833 0.111914575 0.11269435 -0.23417062
super -0.3252507 -0.15208456 -0.19488434 0.08505786 0.62556815 -0.01177868 -0.35427496 -0.12571241 0.14630954 -0.38393807 0.12846014 0.15947752 0.7040802 0.26852018 0.18623225 0.15376729 0.036006097 -0.06236044 -0.29504517 -0.16286916 -0.1866914 0.010472953 0.70704716 -0.3127784 0.3877523 0.051279355 -0.17181914 0.1442775 -0.088592365 0.27191648 0.13524148 -0.23281948 -0.068016976 -0.01671082 -0.101682365 -0.2529594 0.16962953 -0.5126864 0.27316627 -0.41233295 -0.49303693 -0.009850865 0.3841706 0.24001403 0.6367772 -0.4147944 -0.2148117 -0.095465675 0.12082967 -0.04240208 0.093972936 -0.12633327 -0.5250493 -0.27658603 -0.37441963 0.46916136 -0.10656653 0.5862165 0.048642084 -0.025423713 -0.4989328 0.4199093 0.2782578 0.14458711 -0.0042513637 0.8503581 -0.5329095 0.3936726 0.09136773 0.1623355 -0.032595374 0.17575045 0.052599408 0.12071646 -0.04740002 -0.39289117 0.036538836 -0.17233351 -0.32813078 -0.16134061 0.100227654 -0.31387314 0.03404309 -0.7311004 -0.084682845 0.47115216 -0.2163243 0.19522536 -0.05052123 -0.1005323 -0.093076006 0.36785862 -0.12444904 -0.6624723 -0.107431985 0.4595879 -0.05579956 0.4214184 0.2532259 -0.21550073
topping -0.28758174 -0.07472373 -0.43843678 0.33184832 0.06529356 -0.28299466 -0.32339054 -0.3099276 0.32946965 -0.66951776 -0.2061337 0.47908115 0.59268063 0.33339307 -0.042889044 0.2329887 -0.044794034 0.26102158 -0.5228522 -0.3671912 -0.27416456 -0.6417853 0.35380766 -0.26493323 0.41677913 0.4565373 -0.2791411 -0.19542111 -0.03888528 -0.15997925 0.42757517 -0.2284091 -0.23009321 0.062226973 0.071948886 -0.06699774 0.023458203 -0.016578363 0.24499024 -0.2866952 -0.5178398 -0.05605074 0.28493297 -0.31912658 0.6386353 -0.33544287 -0.34765348 -0.032782897 -0.05315139 -0.29235145 0.30696827 0.24261367 -0.46896452 0.004898278 0.109956086 0.48971257 -0.19740562 -0.41976482 -0.41917917 0.3449115 -0.14375524 -0.043796126 -0.06595412 0.12848717 -0.26729238 0.3232969 -0.29968056 0.30708802 0.20518872 0.15537271 -0.51426226 -0.13722073 -0.022760555 0.104895696 0.0293348 0.11847241 0.07478951 0.09908912 0.27344823 0.021270782 0.2406359 -0.24804278 -0.20088573 0.12357865 -0.24733387 0.70585454 -0.31906232 0.1494476 0.13941978 -0.30599704 -0.10673711 0.21041152 -0.11836964 -0.5583048 -0.032787994 0.26235658 0.05779475 0.01536494 0.023807604 0.39730698
pizza -0.39837852 0.19220088 0.09449641 0.29032338 0.24912356 -0.088851854 -0.12503201 -0.45638406 0.011758346 0.00035812598 -0.42042452 -0.039567534 0.119748905 0.37255618 0.17322737 0.22785795 -0.08952801 0.11728277 -0.16244586 -0.22519982 -0.10546141 0.002749795 0.016693167 0.03702723 0.41077304 0.5668725 0.1377399 -0.27104354 -0.2601471 0.573163 0.2103458 -0.51152045 -0.59739155 -0.4125012 -0.31001338 -0.052245747 0.9389289 -0.52807647 0.6858748 -0.41500127 0.05147074 0.06600103 0.31837627 -0.31617832 0.672121 -0.33924025 -0.31487918 0.24686745 -0.10391655 -0.41543922 0.024743794 -0.1943824 -0.35336176 0.0664455 -0.012412528 0.60477704 -0.014186158 0.32988596 0.012032282 -0.08278209 -0.20682134 0.27538067 0.35531703 0.44192886 -0.2821475 0.3088377 -0.3453439 0.34783152 0.081637844 -0.18861721 -0.26803026 0.002274901 0.4608861 0.3681026 0.10123926 -0.23912229 0.0010548366 0.098121926 0.5679147 -0.13772134 0.10980209 -0.31459537 -0.027943585 -0.5478389 -0.02166242 0.33209765 -0.19200005 0.32676423 -0.2806408 -0.06998136 -0.3170395 0.33232784 -0.40673918 -0.66297555 -0.25217333 0.03569619 0.24794102 0.4526885 0.11629475 0.074550495
http://www.semanticweb.org/owl2vec#superClassOf -0.08188497 -0.15076719 -0.27449876 -0.07698272 0.32244956 -0.0044598975 -0.2475227 0.27097982 0.07912941 -0.5943747 -0.150351 0.34375307 0.05819959 0.31591648 0.18625228 0.083929844 0.10922606 0.045321364 -0.21181093 -0.012536442 -0.39142853 -0.38723755 0.50745964 -0.228508 -0.0497385 -0.049445976 0.33871123 -0.20852593 0.019237166 0.27400163 -0.19173184 0.0650403 0.014218204 -0.077416725 -0.36602616 -0.038281493 -0.07628332 -0.24652933 0.16990912 0.08978276 -0.5154637 0.2905728 -0.106680445 0.23058587 0.24983518 -0.34208107 0.12560108 -0.21122357 -0.006295504 -0.058488138 0.02746113 -0.23619011 -0.65073025 -0.43967256 -0.032836415 0.76636386 -0.04719293 0.576315 0.4297714 -0.108610354 -0.42954078 0.2066629 -0.09079118 -0.039658632 0.24749777 0.5914559 -0.48555732 0.24725269 -0.041293114 -0.0061404095 -0.07081129 0.28491995 -0.17780738 0.30958718 -0.3581087 -0.094541 0.20492221 -0.3693382 -0.40977883 0.04456327 0.40582207 0.011859599 -0.17349832 -0.5174012 0.5183142 0.75696796 -0.13540424 0.459053 0.1465319 0.042272225 0.0060146353 0.4280411 -0.531276 -0.6248253 -0.61423916 0.18322404 0.076290414 0.37831214 0.39410707 0.017201629
http://www.w3.org/2000/01/rdf-schema#subClassOf -0.69252074 -0.43685898 0.002984465 0.118685424 0.113611385 -0.060965747 -0.70183796 0.20270963 0.20672892 -0.36903515 0.107768826 0.5461947 0.51195335 0.23707907 0.26103336 0.08107322 -0.2059813 0.015176493 -0.26216036 0.076034054 -0.43459752 -0.42595994 0.51651484 -0.36889362 -0.06893101 0.07376264 0.5994962 -0.26069415 -0.3009703 0.7731176 0.01021015 -0.079429045 -0.16023733 -0.030563049 -0.13104066 0.015649857 0.39473358 -0.18882993 0.4524697 0.03236617 -0.4438454 0.21226129 -0.124283455 -0.268514 -0.025232807 -0.35000923 0.09825755 -0.2970815 -0.005715234 -0.037233364 -0.01575966 -0.3110989 0.07341428 -0.40577334 -0.19021255 0.41034964 0.101808056 0.253721 0.39464596 -0.18729769 -0.40629175 0.35570282 0.31301433 -0.13813923 0.050836053 0.43740714 -0.21317564 0.81063116 0.27987865 -0.050378896 0.11969134 0.49042234 -0.1979902 -0.032401767 -0.47303104 0.01987482 0.006928577 -0.1837211 -0.6042916 0.30670446 0.05074963 -0.18974555 -0.4288284 -0.28792393 0.22274664 0.29646114 -0.1136698 0.36265036 0.10158511 0.039207976 0.0226962 0.54181653 -0.8278828 -0.61337095 -0.3768738 0.120465256 -0.11949714 0.41038382 0.464792 -0.36430138
has -0.78339815 -0.04736519 -0.7687977 0.7997261 0.39844555 -0.17036548 -0.35596335 0.21513057 0.5495987 -0.2907565 -0.2189695 0.42880723 0.39732015 0.27682647 0.23957838 0.35108012 -0.29209098 0.24218279 -0.25941497 -0.097741015 -0.43112835 -0.50634146 0.45525804 -0.35318264 0.0523791 0.6326976 -0.29253483 -0.32132438 -0.14079484 0.064452484 0.5698996 -0.23333232 0.027522484 -0.36138946 -0.11261406 -0.3121018 0.06662125 -0.1266872 0.25650406 -0.039966878 0.109675914 0.048837855 0.22665386 0.12228821 0.50527024 -0.0037869331 -0.603967 -0.2237661 0.21586423 -0.13583356 0.46213493 -0.20663781 -0.4413027 -0.10564849 0.23827808 0.31219977 -0.10936609 -0.20540045 -0.41832232 0.4284263 -0.52477413 -0.075203195 0.077442214 0.09462457 -0.4471627 0.4045365 -0.116937235 0.7037564 0.22670804 0.61798847 -0.14576283 0.09044751 0.25564027 0.16291727 0.04339472 -0.10117926 -0.09424112 0.18258849 -0.14492732 0.18596578 -0.06647585 0.10257286 -0.36676294 -0.17501381 0.38125753 0.39158043 -0.35541293 -0.09216026 0.29909232 -0.22550799 -0.101749904 0.22664614 0.10512488 -0.36286724 -0.27665338 0.051033575 -0.1887149 0.12575877 -0.1473275 -0.03499599
pizzatopping -0.6396905 -0.14292498 -0.1678492 0.36768022 0.38693762 -0.08833859 -0.67636424 0.2685151 -0.040488005 -0.88310623 -0.047498453 0.46759292 0.63858944 0.22794166 -0.16830543 -0.16546029 -0.13924164 -0.29184797 -0.5739287 -0.17877917 -0.18374354 -0.6229244 0.3752831 -0.36632487 0.08864617 0.106825456 -0.0022952629 -0.1943935 -0.40354285 0.10985929 0.21283948 -0.18885861 0.07124125 -0.06976085 0.2919406 0.017115582 0.054914597 -0.20622145 0.23293132 -0.26670945 -0.6241097 -0.091767214 0.15345976 -0.09011429 0.7699494 -0.7985826 -0.16952339 0.005107956 -0.2695659 -0.027168402 -0.06124713 -0.49253982 -0.50082546 -0.30752298 -0.26250026 0.80243903 -0.38891706 0.31747165 -0.27407482 -0.17749235 -0.17820017 -0.3556677 0.27465832 0.41572335 0.31452346 0.5342231 -0.19680217 0.29359517 0.10647793 -0.16914776 0.22523178 0.40581316 0.49919844 0.3412331 -0.045377515 0.041285597 -0.060784575 -0.3877578 0.5925615 -0.13163665 -0.06774291 0.28201863 -0.010648236 0.093944944 -0.1332874 0.03813054 -0.04742359 0.18203743 0.20368743 -0.5613981 0.19213703 0.26604763 0.10260462 0.0032586406 0.060993724 0.36890453 -0.045407835 0.0028566918 -0.11972848 -0.26570857
is -0.35494426 0.28085706 -0.5769045 0.6121707 -0.04209041 -0.30253482 -0.0015938221 -0.28282934 -0.16403878 -0.32648522 -0.1300207 0.5350553 0.50285655 0.2280949 0.32285732 0.24795358 0.05219811 -0.08585982 -0.15357961 -0.57127476 -0.11434979 -0.72926056 0.23993802 -0.5291627 0.51722455 0.26750374 -0.25076494 -0.27050725 -0.07795353 0.532835 0.14301641 -0.17819989 -0.09372 -0.07184434 0.16023733 -0.14433691 0.04145019 -0.2843868 0.35563928 -0.23719627 -0.36293277 -0.13538983 0.09385981 -0.2840257 0.77444524 -0.6355504 -0.3238352 0.14069927 -0.052999076 0.048614487 0.11455144 0.021365466 -0.6251914 0.43714327 0.14885804 0.464851 0.18912359 -0.095589735 -0.49286085 -0.05114043 -0.4405406 0.053563394 -0.06604183 0.17978987 0.027209196 0.19460277 0.30098483 0.5943547 -0.38901246 -0.21247447 -0.36700675 -0.018526375 0.25345346 0.012231306 0.36663023 -0.08273102 -0.06955065 0.0994899 0.28329456 0.06102554 -0.31657282 -0.4430025 0.12594251 -0.23250005 0.019121563 0.7570299 -0.10773807 -0.067763545 -0.0038134893 -0.16348033 0.08749228 0.16949691 -0.19184352 -0.24434029 -0.6264724 0.36334285 -0.13223578 0.07409763 0.08866876 -0.25113133
http://www.co-ode.org/ontologies/pizza/pizza.owl#PizzaTopping -0.26143506 -0.24191965 -0.06679472 0.330475 0.27021012 -0.21117134 -0.6487002 0.40207347 -0.25335658 -0.8254518 0.17910431 0.61781675 0.2998211 -0.094596 -0.13090537 -0.38505092 -0.27339026 -0.22291705 -0.7110953 -0.045716356 -0.43759128 -0.68904054 0.21998623 -0.21117254 0.014921903 -0.19835922 0.32403612 -0.36591557 -0.5302651 0.16078563 0.026542533 -0.023020482 -0.041490518 0.012598112 0.15473537 -0.036410294 0.22576031 0.005886799 0.030861871 -0.089293025 -0.8188663 0.090181984 0.14258717 -0.13162042 0.51511943 -0.84047425 0.09474067 0.023078129 -0.51437336 -0.053984225 -0.27784666 -0.75821364 -0.054071695 -0.4367194 0.022558603 0.88828486 -0.505383 0.4068447 -0.19880274 -0.0686319 -0.30578226 -0.30218163 0.18187152 0.33822757 0.5372669 0.43849555 -0.050983123 0.36054516 -0.2557127 -0.41284007 0.24669847 0.8556486 0.009635516 0.12505901 -0.26739123 0.095217 -0.0056674876 -0.519347 0.18736684 0.5071936 -0.03878869 0.0850084 -0.35682738 0.23171213 0.22715797 0.15654196 -0.047309913 0.28038627 0.1756555 -0.51513726 0.18522428 0.20373821 -0.049912818 -0.27558908 -0.37921116 0.08552434 0.040308837 -0.010598052 0.19547138 -0.21192488
http://www.co-ode.org/ontologies/pizza/pizza.owl#hasTopping -0.39338174 0.03917993 -0.36082044 0.69996464 0.13466416 -0.35834607 -0.5468151 0.15441263 0.46541733 -0.33875594 -0.08578047 0.34105167 -0.016077997 0.13778129 -0.07074981 0.22282849 -0.19773683 0.26105115 -0.42139676 0.022472704 -0.6178013 -0.58189005 0.42150682 -0.016940346 -0.04458194 0.09108678 0.012109916 -0.14260907 -0.18564254 -0.34289938 0.25090206 -0.097335495 -0.27772197 0.034638405 -0.31068483 -0.011875035 0.012472951 -0.054735653 0.44138283 0.10665545 -0.3102857 0.2963766 -0.067092076 -0.14191118 0.20032886 -0.4744273 -0.48634577 -0.24085662 0.18083498 -0.58580625 0.4045904 -0.16817358 -0.44566762 -0.41643074 0.4787941 0.6524088 -0.33332434 -0.33288482 -0.18895544 0.44646853 -0.58357185 -0.038388766 0.11498017 0.05606424 -0.20336947 0.2648348 -0.23851582 0.63637 0.22770034 0.31431928 -0.04951169 0.36707857 -0.15807413 -0.18815163 -0.29145193 0.22374117 0.17783827 0.054276854 -0.34471527 0.49124768 0.25482154 -0.12553121 -0.7869298 0.23842743 0.29476303 0.54746234 -0.24511161 0.3998507 0.4795116 0.013096995 -0.10623237 0.03159918 -0.29504013 -0.589933 -0.52300876 0.17631353 0.06641526 0.045375593 0.09779199 -0.086791314
http://www.co-ode.org/ontologies/pizza/pizza.owl#isToppingOf -0.3422414 -0.13309212 -0.20556608 0.3494422 -0.13597527 -0.34756067 0.014042014 -0.21671294 -0.25881794 -0.6603177 -0.2552595 0.8677768 0.19264337 0.45182154 -0.19294956 0.2252348 0.24095976 -0.062342737 -0.49274674 -0.24524571 -0.13234895 -0.969988 0.12249547 -0.27881747 0.277057 -0.076633655 0.2545574 -0.16715454 0.017835492 0.36756557 -0.16864942 -0.08436072 -0.2076801 -0.23141067 0.04929404 -0.13560803 -0.097040445 -0.05507154 0.2618367 0.22523607 -0.55411816 -0.044875696 -0.18412735 -0.43250197 0.25589567 -0.70485204 -0.032917447 0.098872654 -0.2653872 -0.12421582 -0.03615958 -0.03183261 -0.54603165 0.052890517 0.15521333 0.71741116 -0.00984278 -0.1277548 -0.13174732 -0.116994 -0.191167 -0.09896679 0.03743021 0.15257531 0.15448615 0.17231822 0.059444536 0.15071404 -0.29617578 -0.67460155 -0.6277408 0.10744565 -0.534091 -0.073822424 -0.26449263 0.14792956 -0.07277294 -0.15289456 0.07755142 0.22000813 0.31789792 -0.45240977 -0.19107386 0.25230348 -0.0038801471 0.78253585 -0.3316431 -0.09307652 0.2963428 0.12352053 0.030794065 0.28993505 -0.82668966 -0.58994246 -0.5833938 0.33439976 -0.115498155 0.14883591 0.31108484 0.2045858
http://www.co-ode.org/ontologies/pizza/pizza.owl#Pizza -0.27035844 0.010378651 0.47925094 0.4679629 0.12491973 -0.4217573 -0.0030320152 -0.051000047 -0.09610245 0.12863387 -0.3675331 0.32580978 -0.0638053 0.5272053 0.20876603 0.46033522 0.043779414 -0.1435334 -0.292092 -0.22577877 -0.24186894 -0.27917203 0.19155495 0.41829377 -0.11915976 0.124630935 0.6605296 -0.11375147 -0.08450323 0.49721125 0.03104822 -0.50023705 -0.68647075 -0.08437254 -0.38605347 0.056607626 0.88729095 -0.33423263 0.4698535 -0.087037414 -0.30616918 0.3897698 0.021350324 -0.5580408 0.355711 -0.3382011 -0.43495762 0.29044285 -0.03944927 -0.32596347 -0.20010386 -0.2919178 -0.33098838 -0.20555827 0.34549022 0.8185539 -0.511084 -0.006855444 0.41520953 -0.09984804 -0.7059729 0.1688177 0.29672626 0.22754304 -0.03342979 -0.10802169 0.009381179 0.10100662 -0.36724222 -0.3167117 -0.36451307 0.3821262 0.023860093 0.08042051 -0.08039114 -0.07181591 0.22176376 0.30944425 0.11576235 0.19912201 0.09840128 -0.20598066 -0.32642967 -0.54324776 0.44151875 0.42998913 0.1940112 -0.073432155 -0.39654756 -0.2963793 -0.36243904 0.34063658 -0.7857215 -0.793127 -0.422221 -0.15243304 0.20766129 0.2152175 0.3911691 -0.042940073
tomatotopping -0.516591 -0.43967816 -0.72804517 0.5141093 0.090162426 -0.3402545 -0.40905747 -0.3328071 0.49155435 -0.2973044 0.17272057 0.2091258 0.39565137 0.008353821 -0.38266903 0.47895613 -0.10992809 0.1526594 -0.28978088 0.12890947 -0.5220973 -0.67775124 0.5319963 -0.9948505 0.36117724 0.12720315 0.15094158 -0.6217462 -0.19731618 0.30554926 0.0832573 -0.46217373 -0.21192952 -0.28300092 -0.15243745 0.3162787 0.048991036 -0.47129303 0.30125692 -0.4971272 -0.064843 -0.27919185 0.3998375 -0.23004119 0.35391814 0.13762386 -0.89342475 0.14840816 0.043756444 -0.24492384 0.016926015 0.253741 -0.5475287 0.36082178 -0.1116985 0.29659706 -0.14572008 -0.60722625 -0.44169387 0.090242416 -0.44183525 -0.091466285 -0.29549375 0.14978668 -0.28444755 0.27027977 -0.23565733 0.041860443 -0.034909595 -0.11196494 -0.34837762 -0.064135365 -0.1025355 -0.0015490766 -0.008381296 -0.24082261 0.48698765 0.8081201 0.20290901 -0.1986613 0.4802097 0.120858386 -0.35208136 -0.052296717 -0.1678791 0.12563118 -0.31212008 0.14841956 -0.20932043 -0.3081959 0.15502927 -0.026279723 0.13079613 -0.4519674 -0.15982768 0.45066336 0.29142925 -0.026100619 0.56833386 0.36308002
mozzarella -0.5624219 -0.2150515 -0.6230398 0.46256232 0.23123221 -0.33837357 -0.13885601 -0.4807107 0.14370765 -0.63242 -0.05529016 -0.04095883 0.51414436 0.20021155 -0.15519324 0.114588246 -0.28036183 0.5580863 -0.37791094 -0.046837825 -0.2441642 -0.50873566 0.9397769 -0.6018336 -0.23706761 0.5182731 -0.17888798 -0.4475482 -0.121388815 0.05050308 0.53025466 -0.11963271 0.020255227 -0.1514344 0.12741649 -0.10505398 0.08954239 -0.100490965 0.3990046 -0.4004029 -0.18312633 0.024214491 0.39743054 -0.2973658 0.28192896 0.11442431 -0.64024204 0.2113077 -0.21279004 -0.5505403 0.5308754 -0.1423557 -0.33981308 -0.045633912 0.12064632 0.059138585 0.036873158 -0.33937952 -0.49639338 -0.35135236 -0.4248374 0.10153651 -0.054566946 0.49875137 -0.36362523 -0.01846424 -0.09376958 0.2517749 -0.07921418 0.07020267 -0.42061615 -0.38512027 0.24602042 -0.1526675 -0.21440418 -0.30705336 0.22282034 0.40056458 0.1534956 -0.19099306 0.30972534 -0.19198076 -0.11345925 0.023955788 0.10870564 0.3273797 -0.60334927 -0.2960355 0.27505535 0.0043710866 -0.13102016 -0.23407356 0.16304816 -1.0032942 -0.88714075 0.28293765 0.19996002 0.31187108 -0.074741036 0.45704502
named -0.1306873 -0.2471072 -0.20692326 0.28545946 0.27096465 -0.036273837 -0.079710186 -0.23457253 0.29429737 0.11416467 -0.03176938 -0.060004696 0.433182 0.44123423 -0.5505398 0.31575665 -0.25891098 0.050570168 -0.28948665 -0.17213276 -0.48315728 -0.29341277 0.012082092 -0.6336847 0.56220144 0.38453552 0.16260174 -0.26350433 -0.051004395 0.21236135 0.6880247 -0.44061044 -0.06161837 -0.46649832 -0.35815507 0.19834228 0.34626594 -0.6390024 0.365281 -0.63372105 -0.3215809 0.16549328 0.02055158 -0.17909174 0.5612293 -0.965269 -0.5462508 -0.18886915 0.08694468 -0.60484695 0.058182202 -0.16799414 -0.84982073 0.34933797 0.15589987 0.5736961 -0.37921384 -0.008237458 -0.27668104 -0.6461263 -0.45780003 -0.2309449 0.36562952 -0.26680145 -0.537185 0.46692586 -0.12048951 -0.0029203773 0.259035 -0.60976744 -0.368295 -0.047752056 0.16314368 0.20375144 -0.060530365 -0.45804644 0.115256995 0.46850637 0.5560251 -0.19728215 0.20718375 0.08714399 0.012262497 0.25655797 -0.13554211 0.1199083 0.07078812 -0.20425896 -0.06427237 0.13107376 -0.044661958 0.2514333 -0.39334062 -0.40889952 -0.13441956 0.31216034 -0.13434225 0.58452976 0.2096303 0.11277385
http://www.co-ode.org/ontologies/pizza/pizza.owl#TomatoTopping -0.29612878 -0.5124686 -0.39067808 0.4998872 0.09412516 -0.3951108 -0.3863114 -0.257599 0.32450792 -0.44130096 0.13237816 0.43063197 0.068255305 0.03746455 -0.26916802 0.56551534 -0.24221174 0.22058636 -0.38868707 0.2851896 -0.6663673 -0.9674792 0.30802965 -0.71104765 0.18089406 -0.251754 0.5795808 -0.606161 -0.10684756 0.10322017 -0.1338535 -0.34734145 -0.19368248 -0.13173713 -0.42359263 0.448137 -0.049314365 -0.31507576 0.27325448 -0.29233342 -0.2944475 -0.031030059 0.18608066 -0.38081443 -0.056361016 0.09765459 -0.58554304 0.11844241 -0.072411224 -0.37335283 0.114014424 0.15331395 -0.2774368 0.15910429 0.22877881 0.6002855 -0.49567387 -0.47594702 -0.23446693 0.118872136 -0.5472184 -0.3610227 -0.2580047 0.14833336 -0.25608 0.10893774 -0.16623953 -0.20696284 -0.41580623 -0.41012162 -0.3542772 0.24854496 -0.35684493 -0.015698448 0.05770639 -0.042788778 0.88456905 0.56178063 -0.07568433 0.22163665 0.65348715 -0.05503489 -0.5593769 0.19332404 0.15919378 0.07081652 -0.12203105 0.23403403 0.028943187 -0.13252218 0.22858478 0.00034209646 -0.23282316 -0.6579143 -0.36533538 0.50689507 0.31755283 0.021547098 0.9169995 0.25741464
http://www.co-ode.org/ontologies/pizza/pizza.owl#MozzarellaTopping -0.25002715 -0.2346118 -0.39661828 0.45161235 0.14912277 -0.55583555 -0.10930174 -0.33236042 0.21137692 -0.5333063 0.012532098 0.113688745 -0.026924279 0.19014089 0.085001476 0.11290284 -0.37915617 0.5025119 -0.44595155 0.056650624 -0.48906174 -0.6144388 0.74447125 -0.3534616 -0.32473546 0.123399764 0.35015973 -0.25686836 0.016232893 -0.08523085 0.11999234 -0.05768414 0.097042836 0.012613934 -0.22137275 0.01815073 0.17053434 0.028699333 0.28017983 -0.17782657 -0.3516872 0.2816486 0.27626824 -0.3845882 -0.18492693 -0.06275025 -0.5209459 0.26005402 -0.40428716 -0.55594206 0.2886882 -0.20669504 -0.20150998 -0.22242157 0.23020095 0.20528448 -0.13896438 -0.5435007 -0.28411123 -0.25951245 -0.66265357 -0.03742731 0.06976126 0.5353358 -0.27360743 -0.13059004 0.059515957 0.12997097 -0.48910466 -0.02638166 -0.42073292 -0.04473311 0.039594095 -0.30997005 -0.24615 -0.061617516 0.5222599 0.22712943 -0.010215618 0.2978761 0.5916731 -0.36838642 -0.24343492 0.21868907 0.43539298 0.20218842 -0.41135374 -0.23177539 0.3069128 0.064300895 -0.27325046 0.076284125 -0.092797846 -0.95479167 -0.9570497 0.21198039 0.113656856 0.36219892 0.46311748 0.52598786
http://www.co-ode.org/ontologies/pizza/pizza.owl#NamedPizza -0.2922096 -0.34939778 0.115411684 0.4406888 0.05497148 -0.12657447 -0.019171529 -0.2583166 0.23203741 0.10702319 -0.14840797 0.11038222 -0.032926217 0.29968256 -0.66498667 0.2937659 -0.28834027 0.0112051675 -0.44842044 -0.024659088 -0.48116246 -0.52988386 0.023899062 -0.38297263 0.1651487 0.069775425 0.5962793 -0.17538649 -0.19679585 0.13116275 0.24887337 -0.077593274 -0.26240927 -0.48120818 -0.4869215 0.10841008 0.3767031 -0.39381784 0.5265578 -0.19561926 -0.42803016 0.41536853 -0.22513953 0.0012033776 0.05816765 -0.88831544 -0.4189963 -0.020112226 -0.124920875 -0.66260844 -0.27491525 -0.2749329 -0.53575504 0.0059758537 0.33841836 0.82617843 -0.4159593 0.04041568 -0.18512718 -0.36775243 -0.624314 -0.37672526 0.25729793 -0.009146246 -0.43678805 0.40254793 -0.16625379 -0.1050949 -0.023174457 -1.0562613 -0.48290643 0.16246879 -0.26642606 -0.09210804 -0.18311375 -0.42564055 0.28123695 0.26258716 0.2723499 0.42014328 0.2583871 -0.081465125 -0.24736007 0.42715913 -0.07974238 0.17934643 -0.15062264 0.09976233 0.0059981593 0.396152 -0.015547041 0.30355203 -0.63114846 -0.39042765 -0.3868642 -0.00080149935 0.18591629 0.3413165 0.58553165 0.03390284
label -0.45185497 -0.33549383 -0.57776636 -0.30200216 0.055920355 -0.56483006 -0.32538 0.47484818 -0.027340619 -0.34218663 0.12940496 -0.38469222 0.67043495 0.030810717 -0.011039312 -0.061395112 0.10335609 0.68269074 -0.39881006 -0.9913817 0.7593822 -0.8041004 0.2659129 -0.62312484 0.55450857 0.1120612 0.10462966 -0.23464505 0.07421493 0.104829706 0.62230086 -0.26708424 -0.0067259506 -0.5114555 -0.5339926 -0.03867327 -0.049181413 -0.11668365 -0.21716177 -0.11989939 -0.25159207 -0.032668415 0.18789682 0.09102961 0.6689983 -0.28170192 0.044752304 -0.124051124 0.472395 0.97462404 -0.10348423 0.06537111 -0.5354969 -0.09237911 -0.46378788 0.07499747 0.06018026 -0.57520396 -0.27843744 0.43261382 0.28216153 0.1527221 0.21964611 -0.109628126 -0.08978723 0.13764705 -0.22932792 0.08530003 -0.1566687 -0.38962215 0.3477202 0.05252738 0.09824812 0.23432863 -0.28129128 0.14846157 -0.12029493 0.5841864 -0.3446058 0.31044903 -0.5525043 0.4106211 0.27749583 -0.5209846 0.6583072 0.7937084 -0.7221165 -0.38041735 -0.22810096 0.17178586 -0.38503593 0.35029072 0.0026286705 -0.6432996 -0.045930296 -0.18587221 0.47039813 -0.09867378 -0.019445758 -0.09186687
preflabel -0.9764771 -0.27543312 -0.28141016 0.40980223 0.07388916 -0.35466883 -0.42864007 0.7415477 0.51660746 -0.64708847 0.16086772 0.14914723 0.32575998 0.16067854 -0.018379016 -0.20521386 -0.16266744 -0.07765375 -0.2400393 -0.3838183 0.30869234 -0.18155503 -0.26092565 -0.3414009 0.46262658 -0.048828065 -0.13406357 -0.49776626 0.10974295 -0.057153884 0.17776647 -0.37068573 -0.18623376 -0.64359486 -0.25605223 -0.6788534 -0.6479587 0.117242195 0.2147715 0.4614924 0.037022136 -0.08240779 0.6426318 0.406317 0.35967705 -0.3748686 -0.10241847 -0.07352723 -0.08218716 0.14636903 0.11693641 -0.032874297 -0.83074284 0.64720404 -0.7234455 0.30439886 0.39203477 -0.37099174 -0.6525981 -0.17347796 0.2648145 -0.32060933 0.2384813 0.3525236 0.037718855 -0.0797452 -0.06665154 0.40344232 -0.58792317 -0.1603313 0.54213583 -0.22040598 0.38096863 0.45128942 0.36976728 -0.47462863 0.32392514 0.28849083 -0.1955838 0.16053101 0.3715756 -0.017928975 0.5849675 -0.5337928 0.15991159 0.5603585 0.20268807 0.100020684 -0.5333471 0.2899748 -0.062324595 0.4964249 0.0049042283 -0.17968196 0.33913118 -0.07162768 0.20996147 0.03518304 0.8707916 0.6992237
vegetabletopping -0.5051271 -0.14580974 0.15232024 0.17295898 -0.097992145 -0.20876293 -0.5618337 -0.4134144 0.2629904 -0.08918625 -0.21689117 -0.036570776 0.514683 0.20288368 -0.31823644 -0.38873956 0.12525907 -0.24328549 -0.513756 0.21217106 0.46629062 -0.25316608 0.030955158 -1.1008587 0.39247575 0.37335303 -0.3026834 -0.62049687 -0.13307436 0.000120222874 -0.011061858 -0.17426294 0.007974171 -0.07908426 -0.10726626 -0.061545614 0.63375574 0.16998315 -0.0907357 -0.028588006 0.033999342 -0.30412194 0.4503927 -0.049410827 0.4847861 -0.9048388 -0.94641495 0.10227025 0.396926 -0.08190413 -0.10332251 -0.6301423 -0.5813249 -0.66498953 -0.11248407 0.7216277 0.10856463 0.12450696 0.021457866 -0.3097482 0.12739934 -0.06023594 0.091953546 0.39911762 0.07945341 0.26603165 -0.34112424 0.2086757 0.35193187 0.015869003 0.05642115 0.21610025 0.4845356 -0.0781951 0.4364915 0.07122601 0.3287512 0.5030308 0.21285458 0.13488209 0.35640204 0.26800668 -0.015103475 0.08480796 -0.23909223 0.5975383 -0.51848674 -0.28985298 0.49190685 0.015443694 -0.26584676 0.24394198 0.018948136 -0.3450871 0.09834736 0.5615488 -0.26385212 -0.006120542 0.6308104 0.2649106
cajun -0.76775193 -0.024559109 -0.09670792 0.48066896 0.4467948 -0.47319198 -0.25277048 -0.15617077 0.3152962 -0.27354926 0.3135564 0.33220097 0.49562487 -0.14439271 0.07898456 0.33547208 0.036698546 0.49090928 -0.2844489 -0.40034634 -0.018383034 -0.27853903 0.222507 -0.47649348 0.86555725 0.64516026 0.022361355 0.2984943 -0.062041957 0.18162824 0.21935187 -0.09180437 -0.38501087 -0.39503407 0.04446905 -0.2038516 0.21135506 -0.36336908 -0.06461916 -0.90029097 -0.048232615 0.28639254 -0.15478477 0.011731549 0.62226677 -0.35330468 -0.36508963 -0.38197896 -0.5262914 -0.01588316 0.038870968 0.05851145 -0.79264987 -0.15571721 0.13145153 0.4072088 -0.26043582 0.07216262 0.69852495 -0.45682278 -0.48130113 -0.07008603 0.14412954 0.36475182 -0.077455275 0.094577804 -0.08524444 0.09603541 0.009694679 0.24595279 -0.19885069 -0.13936625 0.6733717 0.26478633 0.029737929 -0.06730607 0.048531175 0.06495263 0.43604413 0.20454232 0.3434953 -0.26733685 -0.052507456 -0.22928394 -0.22516693 0.2920388 -0.5226294 0.18896292 0.17025585 -0.3512053 0.12170405 -0.39121515 -0.3252346 -0.01843638 -0.31083152 -0.29320696 0.11432333 -0.028254438 0.101037465 0.43707666
spiciness -0.30272934 -0.38170272 -0.19653732 -0.37033013 -0.09840617 -0.33889776 -0.32828733 0.11295012 0.54046756 -0.18904297 0.044704355 0.41677305 1.124633 0.47478133 0.11238208 0.0076607643 0.03916926 -0.18363853 -0.56481934 0.23875575 -0.2196155 0.019443505 -0.05157917 -0.8451908 0.6724446 -0.0058746557 0.40284872 -0.2528437 -0.27887434 -0.18133189 0.54335153 -0.05839171 0.23545219 -0.16031669 0.11192433 0.2342989 -0.11582969 -0.3417609 0.339163 -0.53571284 0.14929011 0.14632897 0.035974003 0.13632351 0.9685282 -0.36303407 -1.1520147 0.7155628 -0.101923555 0.15491082 -0.05084806 -0.30114493 -0.24256328 0.37957528 0.124861814 0.49055934 0.27664208 0.20244405 -0.25437605 -0.007760257 0.14682695 -0.26398784 0.34813517 0.2419535 0.004675669 0.57804585 -0.6996317 0.65253913 0.34118032 -0.09981381 0.03188916 -0.023271255 0.4330514 0.07610555 -0.6938378 -0.42616293 0.6555942 0.13639529 0.12681508 0.22954528 -0.117457494 -0.3938752 -0.27438876 -0.15445168 0.29439375 0.22431082 -0.8342057 -0.23052433 0.23143935 -0.7775463 0.38483924 0.04278257 -0.104753695 -0.16658755 -0.07276505 0.2056875 -0.32585573 0.22493376 -0.13063873 0.37741026
olive -0.40362683 -0.5180164 -0.32724044 0.86885095 -0.11885974 -0.09670355 -0.19824058 0.080673575 0.1054665 -0.5242881 -0.37811992 0.03576112 0.55963314 -0.43994495 -0.041029856 -0.3561142 0.16673255 0.30568737 -0.33615917 -0.11065671 -0.11389387 -0.45438957 0.25444764 -0.25270352 0.12861712 0.7793188 -0.55526024 -0.4865876 0.113531396 -0.052905884 -0.2103977 -0.24145167 0.51909846 -0.35792965 0.024130024 0.12838015 -0.04080748 0.078703694 0.17013834 -0.43682835 -0.19820005 -0.2792277 0.35268515 0.080115095 0.4283162 -0.2713612 -0.68924457 0.17397033 -0.13669518 0.15617162 -0.11571441 -0.4799332 -0.05582841 -0.21123642 -0.03195402 0.54092443 -0.30779672 -0.3243689 -0.38908523 -0.19621904 0.14549038 0.11228865 0.43477046 0.46596244 -0.38280055 -0.31055182 -0.4361756 0.3528538 0.4700364 -0.660211 -0.28815424 0.0324644 0.17904824 0.13032375 0.22536287 0.066472486 0.64869255 0.31620157 0.17434822 -0.31433183 0.17657575 -0.24722451 -0.379902 -0.44393435 0.13215546 0.23835057 -0.8260783 -0.12504636 0.55551505 -0.7405133 0.10305606 -0.11412929 0.04558693 -0.8254603 -0.06274209 0.7413259 -0.09653726 -0.05672636 0.37132192 0.047431126
giardiniera -0.39265582 0.28814638 0.028619109 0.604083 0.32993934 -0.6491966 -0.47897854 -0.30060622 0.30001995 0.314267 -0.508244 0.37852132 0.30816677 0.42267698 0.5123077 -0.273812 0.23132241 0.80561906 0.13587531 -0.15159823 0.21391103 -0.20100792 0.4121678 -0.9939448 0.53240126 0.6317316 0.11998919 -0.43938628 -0.073472075 0.36714047 0.50283897 -0.38888672 0.505413 -0.37591547 0.33969966 -0.34946224 0.85688424 -0.23506275 0.19380787 -0.32676983 -0.05146183 -0.020633964 0.17296134 -0.12508227 0.7218886 -0.38234296 -0.4882954 0.072181135 -0.048127506 -0.72596127 -0.37560743 0.2800299 -0.22510268 -0.0445678 -0.20803441 0.1511383 -0.8128524 -0.08527314 -0.57880324 0.08194817 -0.055505488 0.3454691 -0.40353104 0.3595862 0.00047575327 0.17673767 -0.49053234 -0.060328018 -0.06459688 -0.31694373 -0.26001635 0.45538124 0.36535048 -0.020132907 -0.23747836 -0.108623214 0.5042451 0.52661264 0.47511584 -0.34048638 0.12567648 -0.2999969 -0.32574248 0.07495339 0.19801588 0.55600274 -0.0523738 0.7069465 0.34106216 -0.31572646 -0.050346103 -0.28530803 -0.08301411 0.16941598 -0.11975079 -0.0032261794 0.044953782 0.24617551 0.42442352 0.4170605
capricciosa -0.49431017 0.12252883 -0.0024034088 0.8128008 0.29787982 0.15311162 -0.6351069 -0.13314855 0.029631164 0.2016514 -0.34479865 0.49645928 0.50357753 -0.117478006 -0.04345432 -0.05715056 0.09317194 0.66561705 -0.31309485 -0.036851373 -0.009274412 -0.4036353 -0.0018377652 -0.13004993 0.5133538 1.0701712 0.33352825 -0.1924268 0.20530263 0.16784123 0.24208084 0.035525117 -0.24802884 -0.45139673 0.30046666 -0.6748417 0.31865883 -0.17275025 -0.088330716 -0.59373295 -0.22149126 0.08439006 0.46927866 -0.060719866 1.0917213 -0.6000852 -0.50416225 0.3363964 -0.18821727 -0.568228 0.09683725 -0.11825106 -0.5305424 0.49708438 -0.2971373 0.14494029 -0.4323253 -0.31630698 0.1189254 -0.13200423 -0.2561799 0.026247952 0.22199787 -0.061270334 -0.22077186 0.22188003 0.14850175 0.1605974 -0.06365102 -0.030199291 -0.5296149 0.07463327 0.033277337 -0.04919639 -0.22896309 -0.4905548 0.2707768 0.32142365 0.45253068 -0.2751258 -0.06600137 -0.051461328 -0.009889219 0.076821886 0.17495276 0.27540278 -0.07074807 0.8807805 0.07380934 -0.114493266 0.13927017 -0.13343677 -0.0041762902 -0.683272 -0.2726893 -0.43428397 0.41927108 0.043673713 0.37041396 -0.037187554
http://www.w3.org/2000/01/rdf-schema#label -0.44040328 -0.1224242 -0.5146117 -0.08201674 -0.36818844 -0.375155 -0.10414154 0.74390465 0.27965686 -0.29685724 0.35743827 -0.44408616 0.3045996 0.42206705 0.284696 -0.021712633 0.20076622 0.57702917 -0.4023119 -1.3286536 0.8739898 -0.9783137 0.20998439 -0.10723143 0.40298903 -0.69589424 0.42432496 0.0991724 0.2054742 0.19544317 0.22899504 0.10249056 0.07520488 -0.1926532 -0.6814917 0.020161815 -0.13018507 0.027499082 -0.10820558 0.32367876 -0.67776364 0.28810105 0.14464872 -0.016474348 0.1409312 -0.13177136 0.065370575 -0.1567352 0.5038825 0.7710145 0.039685138 -0.19173285 -0.36212355 -0.41973653 -0.6007771 0.44712305 -0.15503047 -0.67622423 -0.5505482 0.6443942 0.039762273 -0.101381205 -0.1874639 0.08734012 0.031825665 0.106306694 -0.10838343 -0.07158354 -0.42045102 -0.6393464 -0.038485162 0.42629713 -0.2975297 -0.24039224 -0.49907047 0.056711454 0.30782357 0.09616591 -0.8514077 0.6998525 -0.35012966 0.10333068 0.36720663 -0.2729872 0.94386274 0.52973664 -0.63830316 -0.49838567 0.038313743 0.18060586 -0.52237105 0.31070438 -0.22147664 -0.6391264 -0.2400792 0.064402476 0.4646157 0.34162974 0.38465336 -0.477643
http://www.w3.org/2004/02/skos/core#prefLabel -0.9431444 -0.3274262 -0.21137035 0.4712367 0.16373809 -0.17659321 -0.35844007 0.9707698 0.5059086 -0.48955122 0.4132088 0.6568196 -0.1037188 0.5084043 0.1936416 -0.15394385 -0.015845364 0.012277432 -0.0223377 -0.23433863 0.066620484 -0.66606224 -0.35440415 -0.18549891 0.2838193 -0.4307331 0.14328656 -0.15009516 0.44247472 -0.16193381 -0.1041879 -0.45216548 -0.03651384 -0.30081445 -0.6203892 -0.61310357 -0.6967795 0.44982588 0.37915006 0.79830754 0.047210917 0.17003004 0.18839955 0.11398938 -0.17697448 -0.5350945 -0.16999677 -0.089030236 0.0034871465 0.25502858 -0.022984408 -0.11036198 -0.5118773 0.06159102 -0.43179268 0.3582678 0.084317505 -0.064821914 0.0050272667 -0.33884406 0.37871882 -0.7258909 0.36996406 0.37509272 -0.07088633 -0.1811428 -0.012138021 0.67686874 -0.71516794 -0.3796677 0.34657624 -0.033627734 -0.081638955 0.022968069 0.05779588 -0.2794189 0.14244558 0.4688485 -0.6262797 0.64387816 0.44412738 -0.09675438 0.55022234 -0.3052933 0.73589647 0.5025703 0.3499972 0.4362258 -0.15643916 0.24655573 0.026944155 0.76676893 -0.06705229 -0.012730766 0.14137964 0.22107968 0.42734542 0.2687538 1.1295104 0.64118254
siciliana -0.3208385 -0.2820198 -0.22209981 0.5225658 0.06526251 -0.27421147 -0.60569304 -0.5074699 -0.013293128 0.0967485 -0.24313478 0.012339217 0.31605828 -0.0019066138 -0.40996563 -0.17549802 0.21297435 0.2614302 0.022203475 -0.021713711 0.1900013 -0.8145479 0.21079066 0.32946122 0.44925883 1.1373044 0.19449817 -0.4452837 0.1976435 0.6299244 0.3943484 0.31441873 0.027523443 0.008070957 0.20080863 -0.41164556 0.3764541 0.055892516 0.4117512 -0.6601711 -0.42395604 0.23457809 0.5783865 0.25724363 0.72715366 -0.36943936 -0.33767074 0.56539583 0.25082824 -0.5005992 0.5748004 0.1192733 -0.6599533 -0.12380413 -0.43520427 0.51190513 -0.2557459 0.29595646 0.071399875 0.4126768 -0.09668794 -0.11382158 0.19122328 -0.15757231 -0.26968986 -0.020475306 0.62265545 0.26668692 0.16637823 -0.05331009 -0.61472327 0.15546058 0.1795204 0.43487543 -0.18044275 -0.7392365 0.035771325 0.5401783 0.23265909 0.27264827 0.27983168 -0.09493302 -0.03747338 0.09407052 -0.026154913 0.30764014 -0.2969216 0.099381864 0.07488043 -0.4207805 0.069913134 0.30074167 0.24650444 -0.52585715 -0.18324256 -0.11378256 -0.16147426 0.23911771 0.30262515 0.18217824
veneziana -0.12315063 0.108831316 -0.94151455 0.37338817 0.370855 0.3315054 -0.005923435 -0.30456832 -0.037369985 0.12068432 -0.07428144 0.070333526 0.43991348 -0.37056634 -0.018689957 0.6746547 0.12321102 0.19398345 -0.5840435 -0.23477688 0.208568 -0.27904305 0.10410103 -0.2955565 0.52935565 0.7750867 0.44310254 -0.23281018 0.25647858 0.11650618 0.32292336 -0.024596998 -0.018653937 -0.13318147 -0.18169932 -0.2234422 0.391336 -0.36916545 0.27624595 0.06571015 -0.08156513 -0.2397224 0.61731327 -0.3684909 0.8653027 -0.69946456 -0.5419986 -0.26870456 0.27918825 -0.388134 -0.12681547 -0.2934998 -0.23625521 -0.10035142 -0.2795452 0.5097625 -0.5939076 -0.4001668 0.5618323 -0.2102628 -0.2250725 -0.21323405 -0.15622054 0.2827134 -0.38091263 0.15107025 0.09769667 0.43408707 0.2106506 0.49188057 -0.27597648 0.16445535 0.49561566 0.1279526 -0.17774111 -0.36927292 0.33919337 0.29640183 0.46840492 -0.29655164 -0.009195878 -0.7376487 -0.38729772 0.037871838 0.092099726 -0.01130017 -0.5366191 0.61890197 0.90684664 -0.37057465 -0.22366731 0.105315305 -0.23166195 -0.22880346 -0.25128073 -0.18760173 0.46715304 0.37711054 0.06869264 0.55330515
pepper -0.56338865 -0.007066353 -0.06312141 0.14409116 0.24717982 0.071918175 -1.0242215 0.7756119 0.32000268 -0.58707225 0.01354299 0.67265457 1.199683 0.09851747 -0.14813536 -0.20662214 0.28764504 0.40413645 -0.029257193 0.04237511 -0.056440752 -0.110600516 0.20080525 -0.58956665 0.12857868 -0.05525298 -0.63608426 -0.46273246 -0.53052914 0.3991414 0.53283805 -0.17454097 -0.44498459 0.18927276 0.085443884 -0.020737413 -0.025942035 0.18227693 -0.20088989 -0.5574242 -0.02692655 0.2048881 0.057858966 0.025350027 0.8384274 -0.394254 -0.46083128 0.28939813 0.6143344 -0.3461233 -0.2659007 -0.42065075 -0.038755354 0.20412491 -0.58888066 0.45306695 -0.47901782 0.46588582 0.022225255 -0.45557132 -0.80425036 -0.3191089 -0.2776865 0.6381428 0.12792422 -0.020192923 -0.4826242 -0.0674156 -0.055297542 0.113436796 -0.45462146 0.438608 0.26070014 -0.13290793 -0.51442206 0.02702332 0.27233478 0.121459864 0.6564682 -0.32107767 0.42092738 0.61193913 0.4552726 0.1752565 -0.09785027 0.27451953 -0.94376266 -0.73461944 -0.056714717 -0.10022532 -0.28975117 0.20356967 0.31625202 -0.364755 -0.35854203 -0.02995288 0.2909844 0.018034808 0.28625444 -0.040131107
fourseasons -0.14963037 -0.42063147 -0.35236752 0.49913085 0.1821132 0.07642739 -0.47355467 -0.21521667 0.21394844 0.11021793 -0.63050747 0.25750214 0.29715014 0.12948343 0.0025975383 -0.24236266 0.19163017 0.65785974 -0.20077658 -0.080276005 0.49903032 -0.6059639 0.16253558 -0.06672982 -0.012674476 0.36197734 0.0747012 -0.9656909 0.4992682 0.091868125 0.3923134 -0.5995024 -0.32129017 0.23492065 -0.19852625 -0.5276166 0.3618217 -0.29061037 0.016189246 -0.37038174 -0.060479984 -0.26049858 0.7288455 -0.4713296 1.0058469 -0.7300761 -0.0039041052 0.1881499 0.0221715 -0.6574439 0.26941648 -0.010189853 -0.5413974 0.31328657 -0.04044399 0.23896304 -0.17214885 -0.026485197 0.04782847 0.08525807 -0.27447897 -0.23931907 -0.06960275 0.2431482 -0.137111 0.25650644 -0.14501548 0.47541428 -0.15728067 -0.21320444 -0.32523742 0.14215164 -0.23008263 0.04711399 0.04065425 -1.1209841 0.64999586 0.59298223 0.5390469 -0.49610764 -0.036270272 -0.26705843 -0.39911067 -0.22995166 0.21496667 0.09818965 0.15323867 0.44946817 0.39340746 -0.3068392 0.0052190763 0.1713949 -0.057658046 -0.45099747 -0.21551389 -0.1318314 0.17552347 0.23518829 -0.106008805 0.22904156
fiorentina -0.19794898 -0.07200766 -0.73590094 0.27890962 -0.32748097 -0.26806438 -0.44229245 -0.356057 0.39570364 -0.21769817 -0.3787608 0.06907661 0.40102035 0.041310366 0.0103184655 0.18510272 -0.38664493 0.08260349 -0.08440713 0.23945309 0.042613734 -0.14452665 0.3108556 -0.13020791 0.38936603 0.5019208 0.40619773 -0.57804596 -0.01436753 0.19507499 0.043072306 0.14120148 0.19302203 0.07054497 0.2507214 -0.16253224 0.37517437 -0.42084727 0.40087062 -0.36489493 -0.093980946 0.19016589 0.5651017 -0.13758534 0.900598 -0.7024994 -0.53209686 0.77357435 0.3637957 -0.26308382 0.10478886 0.41574726 -0.26517496 -0.6239491 0.024576716 0.65888935 -0.78935736 -0.032582138 -0.1875523 0.20320933 -0.52253014 0.34781417 0.1490223 0.23758297 -0.57803905 0.09422377 0.14023976 0.20904976 0.48588768 -0.47785166 -0.21679536 -0.028619587 0.30539146 0.9162418 -0.055323344 -0.4909371 -0.33717686 0.58821553 0.25537875 -0.033567477 0.66684103 -0.16190082 0.23198794 0.10912343 0.33819652 0.16872752 -0.29244775 0.028904162 0.46351567 -0.089536384 -0.05418696 0.076333985 0.20096098 0.1793787 -0.26640642 0.15016611 -0.6326531 0.5935916 0.25621375 0.3395825
http://www.co-ode.org/ontologies/pizza/pizza.owl#VegetableTopping -0.35196197 -0.08971864 0.17148441 0.095580645 -0.28329548 -0.22560386 -0.52824944 -0.10579542 0.25475416 -0.02123586 -0.17968191 -0.00273714 -0.057219405 0.17549296 -0.20350993 -0.34131706 0.23394766 -0.3842813 -0.31613734 0.3007539 0.32377517 -0.5231513 0.105310276 -0.8539091 0.1680928 -0.19416349 0.21083122 -0.22707237 -0.47982398 -0.084481634 -0.2820122 -0.0576605 -0.043603655 -0.03758334 -0.3977604 -0.043948486 0.6033454 0.4485722 0.21854943 0.21772455 -0.07013087 -0.17566705 0.42938477 -0.30425465 0.16136436 -1.0321037 -0.9428572 0.22489192 0.16355233 -0.31322885 -0.14680055 -0.7449208 -0.4195371 -0.6884956 -0.012088764 1.0573893 0.1380617 0.13349748 0.37841848 -0.055886418 -0.06432537 -0.082907744 -0.02027586 0.5365217 0.21920356 0.10088273 -0.31356806 0.13666855 0.100299105 -0.15548548 -0.12903078 0.69874394 0.23204412 -0.40457568 0.15140864 0.07820046 0.45889232 0.32695112 -0.1427448 0.49857357 0.35149103 0.31708148 -0.30055526 0.24799454 0.25500044 0.724851 -0.5524521 0.007860611 0.6051938 0.13876127 -0.2751379 0.2627159 -0.2959019 -0.520557 -0.5015947 0.34548667 -0.2946268 0.20758028 0.9756794 -0.05106532
soho -0.488925 -0.20584509 -0.66191566 0.26711655 -0.3263619 -0.381897 -0.16065414 -0.34018338 0.19257893 -0.04267513 -0.45510277 0.05527893 0.1614475 -0.1645313 -0.06640127 -0.154058 -0.38575304 0.11531927 -0.28272387 0.28210807 0.11635584 -0.2087608 -0.07162144 -0.0625704 0.4313439 0.4290249 0.18172637 -0.64396465 -0.07620649 0.36205792 -0.11478824 0.08072134 -0.33518696 0.0065700253 0.4953689 -0.31694916 0.40991446 -0.21998487 0.23624772 0.08645186 -0.4526874 0.48478028 0.5934008 -0.18703647 0.9168765 -0.6319972 -0.62924176 0.27312374 0.41824707 -0.55767214 0.020777054 0.09248934 -0.2736975 -0.26988488 -0.22668947 0.89783823 -0.78712386 -0.24082763 -0.56196094 -0.13182503 -0.23514342 0.35208914 -0.13985704 0.19806255 -0.7431234 0.20012596 0.058338996 0.022909027 0.21917301 0.024715513 -0.34151813 -0.06925584 0.0939021 0.64878 -0.4112504 -0.66150284 -0.09225616 0.7294036 0.21827903 -0.18690267 0.36905736 -0.4508592 0.09674608 -0.45299622 0.43802676 0.16448982 -0.16613731 0.082615465 0.45489004 -0.088163115 0.21092927 0.4425246 0.35875583 -0.16580404 -0.07803226 0.07916441 -0.45882687 0.6501021 0.110453635 0.358601
spicy -0.6598277 0.2912892 -0.18616197 -0.029675366 0.6549242 -0.24980515 -0.5903782 0.20633481 0.030456044 -0.35658127 -0.012804426 0.17231281 0.28765154 0.39003217 0.39537305 0.15925117 -0.44743437 0.46994725 0.0025780597 -0.1541511 -0.16932702 -0.45204473 -0.4371916 -0.4400191 0.42554033 0.121311754 0.019803146 -0.18514311 -0.19582482 0.751359 0.061307903 -0.1671585 -0.17163499 -0.28324765 -0.12155104 -0.2592396 0.3376889 -0.27668086 -0.10062204 -0.8099598 -0.24210353 0.48708713 0.4156764 -0.528736 0.57844913 -0.53950965 -0.3081679 -0.29552808 0.04829886 -0.007465944 0.2107684 -0.51530474 -0.258511 0.06889124 -0.3935169 0.4657187 0.08212683 0.28757963 0.03329376 0.17410293 -0.12151146 0.048062354 -0.035942007 -0.092352845 -0.16610041 -0.011355616 0.05978004 0.4119826 0.2193303 -0.040398158 0.19678481 0.14595827 0.56942195 0.50998414 -0.31886533 0.06742064 -0.012361281 -0.002827169 0.19087277 -0.3910093 0.19059025 -0.0036616032 -0.45486814 -0.16146097 -0.2248729 -0.01251759 0.14432238 0.25911504 0.39459935 -0.42207095 -0.043373134 0.07576667 0.19899447 -0.64675075 0.053409427 0.5128551 0.35706255 0.28074685 0.04965486 0.15377755
pollo -0.7783232 0.37779483 -0.14170654 0.032981046 -0.048126895 -0.52197593 0.015324091 -0.27245444 0.034184553 -0.3759261 0.47122064 0.07956938 1.0258074 0.32464328 0.039562244 0.2701311 -0.111793324 0.4843445 0.19191122 -0.15958437 0.07606012 -0.56172895 -0.09814969 -0.5174442 0.33818647 0.40961343 0.41823727 -0.5638648 0.38246953 0.44983166 0.105704844 0.09736954 -0.57242364 -0.6667195 0.047147945 -0.34297386 0.01616595 -0.122279204 0.8243278 -0.22306046 -0.2631172 0.48851338 0.121400505 -0.02163442 0.70913154 -0.20807354 -0.3103437 -0.3212647 0.5387117 -0.4939276 0.2837757 0.26574832 -0.60661024 -0.4808462 0.08099392 0.89622176 -0.7732776 0.41974306 0.13043253 0.09419705 -0.43925437 0.29865324 0.44853735 0.5236115 0.021685438 -0.28994182 -0.13020444 -0.11769525 -0.4927657 0.08552351 -0.2821848 0.08059746 0.011098647 0.27505314 0.1393198 -0.18776986 -0.21901155 0.71851516 0.6516281 0.41546994 0.52216464 0.14990747 0.026551165 -0.2070979 -0.48654896 -0.13413753 -0.90982723 -0.09234896 0.3215034 -0.528276 0.5410503 -0.013800553 0.13778041 -0.7746762 -0.17325762 -0.43858635 -0.4382453 0.4641152 -0.008386931 0.27314878
ad -0.93254364 0.09645279 -0.33305073 -0.2978974 0.21443775 -0.8226355 -0.11654441 -0.078431204 0.57673055 -0.28424546 0.4887848 0.22314264 0.79674464 -0.10094692 0.20328228 -0.016563652 -0.0349045 0.13040678 0.17613469 -0.3064673 0.5029833 -0.2268136 0.18454973 -0.010345726 0.6989866 0.14399883 -0.17782748 -0.632831 -0.3081799 0.5807355 0.22089882 0.014283117 -0.6250512 -0.6196571 -0.08718273 -0.096444726 0.2656584 -0.26783758 0.4678802 -0.20106483 -0.6833557 -0.1161366 -0.08542894 0.1746424 0.9435053 -0.6142347 -0.65146124 -0.06535255 0.29228407 -0.5736866 0.615282 0.35395432 -0.45465288 -0.5576741 0.02803658 0.36162513 -0.7398768 0.30876264 -0.28094828 -0.22919 -0.61726373 -0.15848899 -0.05657484 0.44267595 -0.5404579 -0.68018264 0.18702619 0.0066631376 0.17637752 -0.115456305 -0.6046882 0.41846943 0.10303116 0.6002345 0.049084052 -0.059702687 0.004695771 0.30489618 -0.006969042 0.20470035 0.3672604 0.10717615 -0.047829613 -0.1520299 -0.2682225 -0.23800786 -0.9298039 0.39838937 -0.12664442 -0.8411916 0.30701944 -0.1857603 -0.43610775 -0.7070569 -0.49997425 -0.5508866 -0.16282369 0.63844347 -0.12541023 0.43791986
astra -0.6241578 0.39641342 -0.262477 -0.047421645 0.262917 -0.5925522 -0.19918688 -0.42076853 0.27692935 0.062331256 0.8141783 0.44187838 0.76102257 -0.28957924 0.2061682 0.02035552 -0.1471791 0.5605925 -0.41013932 -0.35508597 -0.13365075 -0.22962345 -0.019082913 -0.29033753 0.6259401 -0.06566331 -0.2610328 -0.79683536 0.026875818 0.657946 0.400232 0.31916863 -0.37779552 -0.752207 -0.13205533 0.093444034 0.37268528 -0.3047307 0.36282843 0.37075117 -0.094088584 0.33056727 -0.19459118 -0.3315304 0.59382826 -0.12824018 -0.4399976 0.029632807 0.3226268 -0.84959877 0.51930654 0.03411714 -0.55511755 -0.2299613 -0.33485708 0.6358461 -1.0306029 0.62949896 0.0014625685 0.27029297 -0.6524706 0.017110864 0.43838274 0.21134868 -0.11938533 -0.2590168 -0.21296403 0.14219439 -0.008827964 0.042646512 0.070356965 0.2577572 0.29756343 0.82207954 0.3849551 -0.5024507 -0.246461 0.92784166 0.48534888 0.28223145 0.4489213 -0.4360784 0.38180462 -0.14177486 -0.12766024 -0.14213203 -1.1538533 0.28147 0.042252146 -0.92494273 0.18078153 0.0012778211 -0.38784796 -0.55164456 -0.58524644 0.15599836 -0.35843968 0.037887752 -0.11750027 0.900763
napoletana -0.27552363 -0.18988846 -0.54206836 0.5470254 0.42605048 0.48572314 -0.6153839 -0.28457326 0.04253446 0.20814624 -0.36109307 0.29584494 0.23303226 0.16799115 -0.099142626 -0.056582794 -0.01566302 0.24700618 -0.09509665 0.13890085 0.051645968 -0.27375826 0.26305538 0.039981507 0.3697226 1.0011199 0.33689037 -0.3553571 0.3083232 0.13190916 0.47889858 -0.2999626 -0.26127476 -0.049156565 0.020237613 -0.83993226 0.34060568 0.050961774 0.31144875 -0.36286363 -0.020320907 -0.21032105 0.4934313 -0.32440668 0.851387 -0.79724723 -0.28500724 0.42516387 0.28505704 -0.5430713 0.41966516 -0.06387324 -0.4977815 0.106776685 0.053232137 0.36580887 -0.41027737 -0.07798312 0.32122424 -0.21489403 -0.48769516 -0.2606379 -0.13475986 0.035994466 -0.22815953 -0.024985706 0.11385015 0.28842002 0.0049761 -0.21906614 -0.85900116 -0.011166402 0.27077222 0.23491904 -0.08957536 -0.8990734 0.23663317 0.59144396 0.8220588 -0.027176306 -0.16025436 -0.27891746 -0.21513312 -0.13035685 0.21738014 -0.044255693 -0.33685768 0.73544395 0.42131808 0.051384848 -0.13243355 0.009395159 0.04481294 -0.4658114 -0.08762602 0.06748642 0.17706615 0.15352607 0.2961612 0.13736063
parmense -0.61867744 -0.25665233 -0.6740878 0.42890507 -0.3621722 -0.009397453 0.011580043 -0.04517881 -0.028805284 -0.008936672 -0.12266053 0.20413 0.7163238 0.35045367 -0.4195853 -0.16113491 -0.07939138 0.26635364 0.107550755 0.19283769 0.0981935 -0.41398886 0.4159633 -0.12636048 0.10990281 0.66447073 -0.057822835 -0.61281633 0.35589057 0.39478713 0.43819517 -0.30465457 -0.16090952 -0.18306701 0.49870154 0.06051347 0.64604723 -0.1893037 -0.11244141 -0.4333717 -0.22367854 0.83950603 0.49277672 -0.13974307 0.753218 -0.46457806 -0.7374938 0.7499185 0.031230077 -0.2517697 0.051886994 0.108049445 -0.7125486 -0.051219884 -0.32662255 0.64198273 -0.03037556 -0.45598406 -0.11323625 0.14730376 -0.21411976 0.7239699 0.47015223 -0.18098705 -0.4868197 0.08466175 -0.06640757 0.22579874 0.16673425 -0.22176842 -0.32421184 -0.36151013 -0.2060686 0.25943962 0.07862753 0.036235183 0.17769441 0.14237441 0.24481703 0.21132551 0.6506311 0.019999878 0.6123167 -0.043334946 -0.17232013 -0.3037776 0.16402628 0.7198255 -0.21615598 -0.03349205 0.037775468 0.48538303 0.47125718 -0.18020327 -0.44986215 -0.41422445 -0.193796 0.4870282 0.38737118 0.19710474
la -0.082043 -0.016018694 0.019758413 0.9827278 0.16430856 -0.19747718 -0.43637124 0.06733028 0.5478376 -0.22766641 -0.7533679 -0.045854602 0.79619867 0.23848471 -0.40968403 0.32076877 0.47578216 0.18972899 -0.010725932 -0.21554026 0.64107585 -0.53260887 0.24209097 -0.123437375 0.33980188 0.8265963 -0.030522076 -0.7896497 0.2234647 0.4148925 0.72211266 0.16215077 0.13927977 -0.42382127 -0.048202205 -0.22960156 0.7931031 -0.33268133 0.22613758 -0.44246644 -0.19286537 0.41491967 0.10353806 -0.12480183 0.6033453 -0.74472994 -0.3635231 0.21080706 0.15439178 -0.1160772 -0.39248437 0.43997946 -0.233182 0.10559201 -0.008434506 0.4198357 -0.6597456 0.19664803 -0.40531287 0.4474219 -0.07028008 0.042129975 0.2881307 -0.38333887 -0.55661535 -0.08047839 -0.136447 0.31837666 -0.24470985 -0.41856915 -0.20327447 0.4325214 0.25893104 0.009749804 0.18037666 -0.6828567 0.4405501 0.28680167 0.079889946 0.011910843 0.3395834 -0.35043058 -0.17381763 -0.12691262 -0.34171796 0.070784196 -0.1152179 0.6865141 0.0069397497 -0.16333576 0.3356229 -0.33077684 0.15960507 -0.43202114 -0.8539635 -0.35324806 -0.008848878 0.22981378 0.08656957 0.5106106
reine -0.5588643 -0.18209398 -0.3827766 0.99881095 -0.27051443 -0.112709105 -0.21983042 -0.43372872 0.048748236 -0.21348445 -0.9124832 0.24554552 0.88719803 0.038097218 -0.5127352 0.3380841 -0.04747524 0.43662012 0.22255443 0.2562563 0.038615994 -0.27135736 0.25361758 -0.42671633 0.2714596 0.6357944 0.21314761 -0.016858835 0.5703476 0.40476754 0.8184899 -0.54664546 0.22022636 0.11913067 0.19611113 -0.71195716 1.1575593 -0.14183626 0.36140025 -0.2861779 -0.19192253 0.45585418 0.051185854 -0.054021962 0.8667036 -0.8788269 -0.34369352 0.07784848 0.22902137 -0.34149253 0.09284784 0.08306075 -0.37269002 -0.16571479 -0.2147608 0.1999506 -0.11821577 -0.015045016 -0.19795099 0.47107443 -0.34347585 0.08292476 -0.065817654 0.09753499 -0.5403851 -0.1592873 -0.18861268 -0.28216013 0.299405 -0.8167942 -0.23851952 0.4697303 0.0970389 0.3183924 0.55047613 -0.41637474 0.6227999 0.40465745 0.07218026 -0.34510654 -0.04488844 0.003687674 0.089567736 0.26214418 0.20018344 0.29500583 -0.12743747 0.8738639 0.08464635 -0.46077526 0.20899864 0.12207117 0.14338142 -0.6015895 -0.6790936 -0.28250208 -0.167714 0.46044537 -0.11042106 0.6870422
americanhot -0.4658626 -0.21741019 -0.5643175 0.42824277 0.3583114 0.1565833 -0.33861476 -0.015303475 0.30709895 0.3187475 0.011857802 0.84673226 0.100772746 0.44986588 0.28095186 -0.11549332 0.15475896 0.78748494 0.28448403 0.042360183 0.19092517 -0.5203584 0.18873958 -0.5305663 -0.4297564 -0.24278955 -0.43874758 -0.6445796 -0.1674747 0.029031442 0.17635967 -0.5767909 -0.47213846 -0.3603966 0.06656796 -0.015597961 -0.29957366 -0.42730698 0.06865413 -0.7800155 -0.18775344 0.08154543 0.23517114 0.028376967 0.80394065 -0.546079 -0.31887686 0.45479503 0.14848907 -0.3799647 -0.06492116 -0.20054872 -0.16910303 0.29888004 0.002846023 -0.104014546 -0.3768165 -0.14548074 0.12075637 0.22583297 -0.10093306 0.19600977 -0.27190146 0.35626122 -0.36492285 0.39539853 -0.6397196 -0.015290289 -0.19880244 -0.49169332 -0.006049944 -0.25601003 0.024984684 0.59307706 -0.045571886 -0.49043712 0.04779795 0.7495453 0.6328844 -0.12200393 0.25131175 -0.33606073 -0.4847569 -0.3429798 -0.50343 -0.3271304 -0.3987081 0.24811228 -0.12877163 -0.24539237 -0.06214618 0.46221605 -0.32898387 -0.33777046 -0.46896976 -0.33098954 -0.25097752 0.5633881 -0.5273018 0.30911446
sloppy -1.2046093 -0.0028483996 -0.3810642 0.43111116 0.07791292 0.033595137 -0.31862298 -0.6540736 0.24807574 0.16815312 0.5511441 0.4368439 1.1597658 0.2902187 -0.15330341 0.21114506 0.07016689 -0.09048457 0.036390275 -0.5996316 -0.08632371 -0.3109652 -0.3143518 -0.6456906 0.2662661 0.15674283 -0.160427 -0.2200805 -0.5779575 0.15721413 0.19404608 -0.27716833 0.1542193 -0.29931957 0.0080851475 0.0047931154 0.124284685 -0.43775216 -0.1837822 -0.34788197 -0.44703767 -0.09386825 0.06342743 -0.0914184 0.505946 -0.38934255 0.026103312 0.48810592 0.38754776 -0.76307195 -0.4872278 -0.088321805 -0.34207785 0.25266194 0.109390885 0.5586972 -0.6095803 -0.44209352 0.7765469 -0.11996134 -0.043673046 -0.09043022 -0.33321616 0.13979986 -0.6350633 -0.23272109 -0.13488884 0.5449098 -0.13795277 0.20344834 0.3746434 -0.3286277 0.34617472 0.31488174 0.16415778 -0.36941114 -0.20062344 0.17962307 0.40731496 -0.15527527 0.61594856 -0.11731479 -0.25521144 -0.42797676 0.20976268 -0.09638634 -0.83467966 0.41152582 0.39512795 -0.7093569 -0.6108655 0.45661607 -0.20483908 -0.6288297 -0.09682224 -0.4809498 0.34173217 0.562192 0.3062634 0.3880355
giuseppe -1.2723852 0.06590879 -0.8219146 0.36696017 0.023316134 -0.2529227 0.1825692 -0.26064673 0.13477325 0.14153886 0.4785907 0.6301011 0.9692415 0.4302697 -0.338697 0.5332401 -0.13434371 0.53688186 -0.007925672 -0.59957266 -0.14415832 0.1224848 -0.19883472 -0.70709354 0.16084689 0.56801796 -0.054158267 -0.2608006 -0.50575304 0.055081036 0.16015372 0.10565481 0.28110954 0.05157862 -0.20324032 0.39191818 0.5808504 -0.17196687 -0.3110199 -0.16686527 -0.28301165 0.0064650453 0.15760659 -0.18905286 1.1303211 -0.6006443 -0.2692747 0.1266621 -0.16950446 -0.2819646 -0.32184702 -0.5306646 0.13015227 0.07841362 0.067432046 0.5556501 -0.76105964 -0.1785458 0.3022976 -0.29821017 -0.32209945 0.00548631 -0.20445397 -0.089165874 -0.28613466 0.34842175 -0.22823647 0.21929547 -0.43657133 -0.042445645 0.1584998 -0.19483043 -0.011092714 0.25492054 0.14024335 -0.08473952 0.054044865 0.43105906 0.24877107 -0.012222591 0.5250619 -0.5035181 -0.36913913 -0.83265686 -0.6156772 0.09718917 -0.94026595 0.070004396 -0.20848265 -0.81932724 -0.36888346 0.12645762 -0.04832513 -0.28647968 -0.23748384 -0.75428593 0.46196306 0.9970367 -0.0750661 0.7625967
cheese -0.70983946 -0.5167076 -0.498143 0.05361177 -0.23701833 -0.76306313 -0.3014154 0.43593386 -0.03940003 -0.15101661 0.19112726 -0.1888568 0.36064997 0.5109232 -0.07306337 -0.13043238 -0.2947847 -0.55548644 -0.7000967 -0.38182458 -0.08313529 -0.12179906 0.48278362 -0.31660733 0.28025317 0.13885146 -0.3989532 -0.37746102 0.16416173 -0.0346922 0.52266383 -0.24362132 -0.45629188 0.03512251 0.2950757 -0.17442818 -0.11299228 -0.32042834 -0.20645562 -0.6467058 0.108546905 0.29542658 0.21544105 -0.22609386 0.059733372 -0.38151488 -0.18618663 0.6976499 0.49664202 -0.005058698 -0.0006387551 -0.45034 -0.3377408 -0.31013688 -0.12057193 0.6122546 -0.31415117 -0.21625295 0.1949898 -0.05403091 -0.36005488 0.6533275 -0.09303155 0.5228496 -0.2966629 -0.12551855 -0.233991 0.49485433 0.45057872 -0.25325105 -0.27227524 -0.23172821 0.86579883 0.32685834 0.20288731 -0.17931648 0.061927885 -0.25985122 0.37584376 0.08820467 0.17040946 -0.04917566 -0.25293618 0.24568377 -0.20869313 0.1080656 -0.41106325 -0.17408472 0.21995604 -0.20842215 0.31912047 -0.1820578 -0.19715326 -0.5585118 0.026431886 0.38376644 0.32748824 -0.47755662 -0.029990245 -0.059952404
prince -0.80251604 0.061140895 -0.4492528 -0.27516893 -0.14378695 -0.42877477 0.28086716 0.027745953 0.30654234 0.24451788 0.3331454 0.4944812 0.10988379 0.5620411 0.35259327 0.02398739 -0.3837456 0.020456241 -0.16105852 0.02653706 -0.3722056 -0.41846728 0.54698074 -0.5377128 -0.025214136 0.6878971 0.19659698 -0.5300006 -0.17885898 0.120704755 0.3577916 -0.61326534 0.045895416 -0.41314372 0.3734988 -0.42312208 0.63459665 0.07417721 -0.12604772 -0.76771307 -0.39378792 0.29605773 -0.11026847 -0.10269961 1.0309119 -0.52023923 -0.3280967 0.3037474 -0.053393584 -0.5260204 0.023571322 0.0857086 0.039378647 0.18097666 -0.2940442 0.8989021 -0.8142782 0.26409018 -0.42077878 0.14705977 -0.047972865 0.62973696 0.26580206 0.30539283 -0.7297042 0.13771988 -0.46035427 0.11045587 0.13817392 -0.2736811 -0.15341622 -0.27300966 0.50391567 0.08539993 0.43191862 0.15592304 0.077703446 1.0011874 0.10483886 0.19268756 0.48555613 -0.0027559372 0.33622348 -0.26557264 -0.008531975 0.21583524 -0.08469445 0.40992197 0.2348203 -0.11193904 -0.07708507 0.1282337 0.14694303 0.18565914 -0.86450565 0.17881079 -0.00088656694 0.5953615 0.40195996 0.6896236
carlo -1.085176 -0.35057512 -0.6988873 0.11388474 0.4969215 -0.33911225 0.37443593 0.046951793 -0.102730215 -0.10457363 -0.19859147 0.6416114 0.5762257 0.27227676 0.14479119 -0.32068726 -0.28160685 0.59427416 -0.23830752 -0.0004446686 -0.116733685 -0.4389357 0.27784687 -0.72396773 0.4694888 0.56630653 -0.108224936 -0.73290896 0.20940949 -0.41486123 0.5079895 -0.3888355 -0.10838883 -0.13405539 0.7235285 0.0025132732 1.0812904 -0.673498 0.27884048 -0.50184375 -0.33626977 0.39997327 -0.22655721 -0.5045295 0.5390227 -0.4074778 -0.7866939 0.56248784 0.04125546 -0.5332277 -0.15087602 0.3354947 -0.18831393 -0.0995581 0.049799755 0.7306645 -0.69177675 0.17457393 -0.32265803 0.024821231 -0.23872207 0.32510468 -0.14589061 0.052516937 -0.64049596 0.23436953 -0.8027283 -0.31271863 -0.17566438 -0.54760355 0.057237525 -0.5496102 0.29959568 0.6594625 0.40526798 0.1796584 0.03887334 0.80033624 0.033929616 0.44483486 0.49958187 -0.27213547 0.32670665 -0.30877507 -0.16975407 0.19506575 -0.11576637 0.60514814 0.18225713 -0.10391909 -0.36963814 -0.23640367 0.23707454 0.36317727 -0.2822751 0.07152564 0.0065490347 0.5964775 0.035794403 -0.11651154
altlabel -0.99518317 -0.16182598 -0.27033985 1.0157336 -0.61763513 -0.19546069 -0.56551784 -0.06545217 0.6795551 -0.2313394 0.13579305 0.029765723 0.15682533 -0.29788035 -0.79742306 -0.60468143 -0.09254247 -0.15423644 -1.0665156 -0.83200264 -0.32537135 -1.1434002 0.489374 -0.7242038 0.8644836 0.22776306 -0.33253658 -0.70792747 0.1751743 -0.11063302 0.5443287 -0.44532582 -0.38735124 -0.14903516 -0.28406036 -0.4039399 0.23128943 -0.24927811 0.50999 0.08410222 -0.532018 -1.0338786 0.6894946 -0.28976882 0.3725294 -0.6995361 -0.28452176 -0.82026714 -0.2975082 -0.89538527 -0.14268707 0.3435292 -0.3368177 0.90687764 -0.0006645788 0.592101 -0.6142833 -0.43861705 -0.3284449 -0.542991 0.0031384167 0.13750626 0.70716405 0.36380044 -0.13968258 -0.1312801 -0.16032049 0.05509562 -0.1843918 -0.89231217 0.18977122 -0.19939221 -0.35165465 -0.2608851 0.17331761 -0.10845562 -0.07311175 0.7031183 0.6469073 0.1182339 0.5688314 -0.04196122 0.35357857 0.5418725 -0.22656864 0.776951 0.487011 -0.37295705 -0.58634144 0.16259904 -0.06598607 0.74362797 -0.2793352 -0.08986514 0.16113098 -0.44885677 -0.109268956 0.9229679 0.3136871 0.05496084
caprina -0.44623014 -0.67864376 -1.2044646 0.46570793 0.2416531 -0.7328375 -0.27097535 -0.29801893 -0.14035158 -0.18448122 0.46280682 0.1655917 0.31597096 0.1563696 0.13914582 0.14277437 -0.2917666 0.17056909 0.15539584 -0.2605422 -0.18451028 -0.21960735 0.35010305 -0.30561167 0.25135052 0.1529218 0.2514508 -0.19217409 0.13148637 0.5504407 0.76788455 -0.33922806 -0.2754306 -0.109487206 -0.2472753 -0.056398835 -0.11737874 -0.22760557 0.2873277 -0.4924881 0.04714724 0.35112607 0.478577 -0.38848978 0.9188455 -0.5154908 -0.19120038 0.60447294 -0.080484785 -0.29524064 -0.058862645 -0.012594499 -0.30582023 0.3456974 0.099807575 0.77988625 -0.815304 0.12495005 0.28961048 0.02466085 -0.1672465 0.48059323 -0.29790124 0.25782087 -0.3133366 0.07022328 -0.38569415 -0.3806046 -0.044854913 -0.19286142 -0.047173314 -0.33993727 0.153451 0.49877653 -0.002887618 -0.45900136 -0.05355825 0.53359634 0.19674438 -0.15774548 -0.15093625 0.17573583 -0.27502304 -0.29226413 -0.09963709 -0.3806052 -0.22113664 0.40905967 0.023348385 -0.80837226 -0.20538592 -0.3886837 -0.07867014 -0.26552096 -0.36352232 -0.33589354 0.09170933 0.13545832 0.14741096 0.20432921
http://www.co-ode.org/ontologies/pizza/pizza.owl#OliveTopping -0.25714 -0.5221295 -0.08506732 0.85776544 -0.31703216 -0.16239616 -0.2782447 0.16573095 -0.022686567 -0.45206806 -0.01956152 0.13753548 0.11895285 -0.59640676 0.1999171 -0.4181873 0.2880925 0.46156943 -0.5129634 0.08651655 -0.55710113 -0.6179568 0.1847418 -0.20759904 -0.2031436 0.44875464 -0.16654587 -0.4012017 0.26501843 -0.08737152 -0.3175375 0.24265464 0.38785955 -0.43308285 -0.1097158 0.11571108 -0.15424968 0.19561313 0.17089821 -0.1732571 -0.41733572 -0.21734641 0.3407938 0.19361877 0.16443421 -0.41781265 -0.7282102 0.04683609 -0.3424519 0.03190751 -0.16840996 -0.82552296 -0.002858504 -0.53131926 -0.009107827 0.6428434 -0.4442727 -0.43345305 -0.031356115 -0.32693192 -0.108248636 0.09585394 0.2702647 0.31553072 0.14635567 -0.31878063 -0.2824483 0.3095204 -5.3311167e-05 -0.8261128 -0.21575785 0.14159936 -0.28667215 -0.05741937 0.122559264 0.06876315 0.82038516 0.12538178 -0.11258546 0.01143548 0.50184137 -0.334796 -0.51426876 -0.083232045 0.35780665 0.28628084 -0.6250766 0.17545846 0.6052122 -0.5910473 -0.07468774 -0.2636086 -0.45245045 -1.0375336 -0.44930658 0.73211193 -0.21430577 -0.021978503 0.50666064 0.049119413
spice -0.30224398 -0.22491843 0.17859177 -0.103332795 0.84505254 -0.17195232 -0.7016759 0.40706015 0.16726202 -0.8418948 0.20754655 0.46966943 0.72547525 -0.31071618 -0.016558094 -0.25376168 -0.27846178 0.16022271 -0.12474929 0.28008 -0.034402866 -0.72412264 0.38745633 -0.37322074 0.7141744 -0.049348716 0.20273423 -0.40744758 -0.09578941 0.016457042 0.61480063 -0.68487 -0.5331291 0.3119618 0.56047106 -0.1706125 0.5296845 -0.039897695 -0.15003921 -0.978536 -0.07277385 0.26741934 0.38534376 0.18451546 0.7781113 -0.39667556 -0.26063767 -0.22997336 0.60338813 0.22240771 0.19824705 -0.18530297 -0.45390955 -0.040565927 -0.01406501 0.3153714 0.23909496 0.34017584 -0.08684046 -0.25549686 -0.64492214 -0.14692146 0.04832509 0.73549783 0.23850392 0.3757546 -0.054784603 0.3300158 0.2104435 -0.02343339 0.03185047 0.49762854 0.8260572 0.19975312 0.3859557 0.30173925 0.19263792 -0.0349849 0.71116894 0.3741106 0.7776762 0.30342963 0.44930622 0.28050596 -0.18717736 -0.31345212 -0.80530655 -0.30148566 0.43858606 -0.19042839 0.21734446 0.041619696 -0.026597816 -0.11184215 -0.6854032 -0.17026885 0.26710317 -0.25971803 -0.33883536 0.31926736
mild -0.5564447 -0.34791407 -0.37341124 -0.4532403 0.11495892 -0.1869406 -0.5966811 -0.116803095 -0.08158288 -0.4796411 0.25352848 0.27570134 1.0705262 0.49643317 0.063047156 -0.07184168 -0.4033396 -0.2448226 -0.3024461 0.28911048 -0.020442558 -0.14846604 0.13741852 -0.8386812 0.42799097 0.51203376 0.2410838 -0.65951204 -0.11190275 0.124618754 0.5890037 -0.41953558 0.28101617 -0.22558932 -0.09408469 -0.24169226 -0.14988515 -0.29855478 0.37702805 -0.37777552 0.060757983 0.45445275 -0.23323934 0.1632378 0.63476276 -0.5820402 -0.98653835 0.9362932 -0.14234196 0.11137705 0.35483253 -0.10003265 -0.423338 0.18060876 -0.17560853 0.5804827 0.1629344 0.3191429 -0.5298435 0.25890458 -0.057561267 -0.060834393 0.2104283 0.01767821 -0.10450944 0.38125578 -0.8871637 0.57435215 0.57319355 0.029961357 -0.18613605 -0.06975087 0.44983855 0.14076649 -0.06296281 -0.5100187 1.1850092 0.27454925 -0.052939344 0.024672287 0.042566855 -0.112398215 -0.2635213 0.09582073 0.5087392 0.026282787 -0.8466133 0.33804742 0.6841555 -0.33301 0.63931584 -0.5096806 -0.12792988 -0.13521098 -0.1296823 0.59867835 -0.3960948 0.0055692974 0.44153494 0.24895425
garlictopping -0.003954353 -0.13171439 -0.13930646 0.55022365 -0.24489263 -0.2054284 -0.7951676 0.5462392 0.31367582 -0.15480882 0.5910118 0.4212054 0.61691016 -0.3913786 0.19213775 0.14599422 -0.38664937 0.26276332 0.06804835 0.40926218 0.12604997 -0.5619884 0.14342646 -0.112733886 0.3987702 0.7245361 -0.3757964 -0.9463479 -0.19044363 0.39805627 0.06090857 -0.39166987 -0.4129366 0.16574848 0.31912014 0.28218457 0.44347894 -0.17952317 -0.34730047 -0.48801208 -0.24207586 0.048942983 0.5438341 0.26454523 0.4676526 -0.5419304 -0.75010085 -0.27096248 0.3311567 -0.046563115 -0.12566525 0.10513563 -0.60420793 0.061097525 -0.26311675 0.420424 -0.39061478 0.15376508 0.17477192 0.27587193 0.26160547 -0.3119061 0.40563437 0.6060726 -0.09378336 0.111062005 -0.25757125 0.09813533 0.10321764 -0.12309769 -0.6019286 0.3230767 0.026388837 -0.016816258 0.5066515 0.0124113895 0.2882726 0.013360386 0.5000119 -0.28032035 0.7118548 0.08758204 -0.11955773 -0.38279846 0.16166185 0.33101875 -0.8549811 -0.6157615 0.18126878 -0.5146001 -0.09448612 -0.087205976 0.005379667 -0.23620224 0.1218717 0.57646435 -0.19212528 -0.044934433 0.09361908 0.1372274
mushroom -0.3533265 -0.41190812 -0.1849598 0.70040905 0.037659742 -0.48138323 -0.17324871 -0.24204604 0.19113249 0.1928495 -0.21633449 -0.10021032 0.39211056 0.5478561 0.073051944 0.13539228 -0.031415295 0.54849887 0.20214643 -0.4518336 0.624858 -0.23737173 0.4497323 -0.73032284 0.12934367 0.33834633 0.0028841996 -0.6699248 0.040983774 0.1851693 0.7194013 -0.49018538 -0.26907903 0.27913988 -0.2139408 0.021134648 0.95251 -0.0835967 -0.15847644 -0.07082302 -0.029771376 0.23142667 0.07346362 -0.39296094 0.6970143 -0.53437495 -0.21235391 -0.014832085 -0.092708774 -0.6514593 -0.031814884 0.078310736 -0.61466056 -0.007668657 0.14360176 0.549536 -0.41316205 0.19449598 0.059926823 0.04081522 -0.23300967 0.263981 -0.24755017 -0.039400265 -0.25814003 0.038884405 -0.20740423 0.21756564 0.025146434 -0.4139617 -0.1864396 0.08555687 0.14927685 0.054792337 0.49620283 -0.4810873 0.4789925 0.40921512 0.4005809 -0.082586594 -0.042745713 -0.1503171 -0.29592493 -0.055466957 -0.053309396 -0.064686775 -0.029992472 0.6244798 0.24319004 -0.51338977 -0.2957029 -0.24775319 0.027269833 -0.17595764 -0.39060545 -0.13029462 -0.10604199 0.40623093 0.011784564 0.641793
food -0.54000443 0.05630866 -0.11932206 -0.1428526 -0.13759032 0.27768254 0.023119807 0.30583283 0.50418794 -0.46752286 0.027930219 0.28350914 0.38075027 0.13360988 0.5355313 0.22481583 0.066999026 0.18271267 -0.021320729 -0.4193268 0.0033640896 -0.13096945 0.14035994 -0.41732177 -0.0707524 0.45569798 0.022141043 0.061796192 0.29501048 0.62628305 0.14777967 -0.26623192 -0.13199928 -0.42999864 -0.15591152 -0.17532179 0.64228565 -0.24370766 0.109888874 -0.71096414 -0.2072486 -0.010198303 0.2420587 0.017047169 0.6834994 -0.28277522 -0.40735894 0.08116962 0.74717873 -0.09197212 -0.16587198 -0.40083113 -0.5780069 -0.66699386 -0.40458786 0.52058685 0.16138521 0.17657232 -0.18601826 -0.50918 -0.12386619 0.021641053 -0.19334665 0.2963112 0.10625465 0.7195164 -0.13982561 0.44606248 0.010633613 0.0051284856 0.17549646 0.17315477 0.5544209 0.5070108 -0.16424288 -0.23001534 -0.14360882 0.11783591 0.24947031 -0.26823378 0.031715404 0.25572392 0.4509855 -0.27037454 -0.1688213 0.067939624 0.04129044 -0.017706187 -0.46981522 -0.492749 -0.18203428 0.21821874 -0.55139 -0.45329425 -0.35310563 0.41827318 -0.037589327 -0.13083272 0.37155008 0.099068545
american -0.32325843 -0.35863307 -0.7409406 0.5917485 0.31175956 -0.34939927 0.031303953 -0.27914894 0.19841541 0.30090678 -0.09531173 0.3417176 -0.0776247 0.011142977 -0.14837508 -0.084185496 0.019432312 0.37939015 0.023392728 -0.12160704 0.3100927 -0.46254247 0.18085411 -0.15202543 -0.2707363 0.12722063 0.1903608 -0.54125327 0.08299729 0.120920494 0.59722024 -0.7693499 -0.42205444 -0.10729581 0.015788173 -0.11726013 0.1370498 -0.4567305 0.30816105 -0.7147467 -0.25429004 0.2754144 0.42137685 -0.28280902 1.0107045 -0.5320414 -0.091977715 0.2075308 -0.017218137 -0.41198504 -0.08789285 -0.022533964 -0.55826455 0.10785169 0.21737367 0.107360356 -0.35932887 0.009436536 -0.04649627 0.1736318 -0.15569007 0.1110623 0.0103034675 0.2514132 -0.44923562 0.5094402 -0.20622192 0.24330997 0.17183879 -0.46801803 -0.016429652 -0.3916607 -0.20112848 0.29079726 -0.037220653 -0.74598175 0.26319328 0.4442086 0.7809297 -0.097901545 0.21766737 -0.40761712 -0.24444793 -0.3649224 -0.08480667 -0.46456474 -0.17272161 0.26447526 0.2074041 -0.45758006 0.0062353425 0.35891244 -0.34305462 -0.09210741 -0.36171517 -0.43309855 0.05713028 0.31121024 -0.5515574 0.5127766
http://www.co-ode.org/ontologies/pizza/pizza.owl#Giardiniera -0.5557136 -0.1496967 0.11926939 0.47971657 0.37353274 -0.51650137 -0.16570263 0.12680574 0.39205775 0.14067031 -0.34506553 0.5946656 0.036877614 0.5330728 0.59144557 -0.20290981 0.13268206 0.87532985 0.1086235 0.06160892 0.017640963 -0.4481734 0.3178081 -0.6890336 0.4197423 0.27959815 0.46866137 -0.21057001 -0.078456365 0.21818705 0.46514472 -0.10852479 0.46391886 -0.17809944 0.29795343 -0.3601834 0.9056785 -0.11133288 0.23830163 -0.190385 -0.18173163 0.21997541 -0.046193145 -0.23173124 0.29094613 -0.50303495 -0.23967397 0.108719006 -0.20201157 -0.61109334 -0.36585513 0.14113691 -0.0780446 -0.32761264 -0.078522414 0.53188235 -0.7992978 -0.118390806 -0.09621046 -0.18439126 -0.176594 -0.08508233 -0.5839334 0.41740724 -0.07750807 0.1270831 -0.4952214 -0.16501284 -0.32729167 -0.6431411 -0.40047294 0.7112264 -0.02581378 -0.055470802 -0.22185214 -0.10110961 0.5141868 0.622096 -0.21428618 0.14946342 0.2272488 -0.084617786 -0.33295718 0.14245535 0.5990217 0.8278671 -0.016269522 0.97745943 0.42878187 -0.16794734 -0.1366018 -0.46747622 -0.27603775 0.19821714 -0.71407753 -0.14970942 0.30350062 0.25690365 0.7298563 0.116575286
rosa -0.18806835 -0.30132112 -0.80054516 0.56819874 0.113419585 -0.43753073 -0.2513706 0.010883242 -0.006346197 0.09601001 0.5065674 0.113854125 0.08718854 0.40872815 -0.1545551 0.22502412 0.1130376 0.13111898 0.00016222424 -0.3927135 0.11402792 0.17248279 0.64779526 -0.33679786 -0.06794396 0.27200243 -0.0990785 -0.68849105 -0.20022011 0.34042016 0.48327172 -0.4422129 -0.44265926 -0.47408593 0.34368378 -0.408405 0.49410078 -0.557323 0.27287412 -0.3359819 -0.23510626 0.32144392 -0.15782224 -0.123808004 0.75095665 -0.26688343 0.050450593 0.33306965 -0.16165541 -0.6164432 0.115464576 -0.21817297 -0.657221 -0.11686847 -0.27922523 0.5627349 -0.6393711 -0.46178278 0.05565837 0.34529608 -0.27613115 0.63971347 -0.11132041 0.31244633 -0.2588029 0.16127561 -0.5977453 0.1843659 0.06525842 -0.2150824 -0.59923476 -0.27471122 0.11548036 0.7193296 0.19559534 -0.40812182 0.1905679 0.33697665 0.30509767 0.1901512 0.15448277 -0.04966803 -0.08188953 -0.025807684 -0.25607195 -0.3188338 -0.3376202 0.18341364 0.29792368 -0.50657415 -0.13385329 -0.31008342 -0.110785246 -0.1487291 -0.41763365 0.064816765 -0.17152944 0.5520766 0.30824423 0.3425889
http://www.co-ode.org/ontologies/pizza/pizza.owl#Veneziana -0.1817246 -0.17652945 -0.92921543 0.4944309 0.122971304 0.48458222 0.0046358397 -0.10040034 0.15288639 0.13530381 -0.13768533 -0.014461801 0.13323985 -0.17887744 -0.05501024 0.33486265 0.0783891 0.41173077 -0.67256194 0.02968453 0.08006351 -0.6191923 0.019111866 -0.34468156 0.32580212 0.23645866 0.759094 0.19888704 0.1642453 0.08053004 0.0075100902 -0.024678787 -0.067883655 -0.016276803 -0.41310757 -0.17930385 0.50642985 -0.2825328 0.29155153 0.44226772 -0.14653896 0.061152935 0.4863444 -0.39319906 0.22138579 -0.538069 -0.36488616 -0.31898946 0.23497044 -0.35828036 -0.31790665 -0.5321969 -0.09193297 -0.0028880427 0.06096013 0.5960937 -0.8067295 -0.33360073 0.90119636 -0.20675224 -0.36198142 -0.009959954 -0.5272596 0.20221198 -0.39548466 0.13248989 0.058977056 0.3351675 -0.034326356 0.18246777 -0.50096434 0.4441062 0.16874255 0.012115176 -0.36238986 -0.4236377 0.26446068 0.06848091 -0.022028446 0.06263882 0.3976385 -0.9099725 -0.26265103 0.3152669 0.32113972 0.15207943 -0.7072069 0.66188496 0.7507635 -0.054317456 -0.37850443 0.20669723 -0.2165708 -0.21601461 -0.59862494 -0.37128067 0.35017714 0.20025472 0.15533051 0.34157547
http://www.co-ode.org/ontologies/pizza/pizza.owl#FourSeasons -0.06411551 -0.71207035 -0.3147386 0.69128215 0.19306472 0.10238023 -0.39760533 -0.12650299 0.38516438 0.21819985 -0.45243594 0.40258643 -0.44898313 0.1406274 0.15551658 -0.30185834 0.3350028 0.8979925 -0.19447629 0.25768235 0.24651942 -0.9372656 0.078769155 -0.06441353 0.016886922 0.024837255 0.20694198 -0.5709103 0.50511944 0.069489114 0.2975556 -0.47358757 -0.15499316 0.46715838 -0.12168258 -0.33779967 0.5975506 -0.2771575 0.06944546 -0.20034455 -0.02623924 0.07789089 0.5871968 -0.31575006 0.44399965 -0.62417686 0.23428033 0.49965203 -0.038521715 -0.4836294 0.20484257 -0.22067654 -0.41945994 0.0584024 0.11295765 0.46818507 -0.34555537 -0.15607975 0.42191926 0.1299235 -0.25255132 -0.112855434 -0.11242596 0.1821469 -0.22277038 0.39978558 -0.017174223 0.41361013 -0.25884512 -0.508808 -0.39792374 0.27179074 -0.30130026 0.050527412 -0.27695394 -0.8615479 0.6638809 0.2686331 0.20198992 0.1930556 0.1360597 -0.59180844 -0.7581625 -0.002713709 0.5612217 0.112270646 0.13859919 0.7242028 0.35699362 -0.08276883 -0.2522723 0.39722076 -0.26874843 -0.4528486 -0.5551456 -0.10027495 0.092742935 0.11381326 0.3148261 0.099370494
http://www.co-ode.org/ontologies/pizza/pizza.owl#Siciliana -0.32612455 -0.45274472 -0.02538508 0.38767213 -0.0042995336 -0.3819103 -0.48020238 -0.1532035 0.20962167 -0.0027109238 -0.14281629 0.23042046 0.05177941 -0.32770348 -0.2622693 -0.023352062 0.3017475 0.16240032 -0.15668572 0.067264505 -0.0509438 -0.94452554 0.010522266 0.6776679 0.38191837 0.5402159 0.5661152 -0.53688526 0.3880235 0.6028669 0.025172971 0.6487235 -0.21394056 0.19323352 0.0656853 -0.39855868 0.33659706 0.17599827 0.2261639 -0.32968545 -0.6450963 0.47491258 0.28212184 0.049025577 0.47059077 -0.31966278 -0.31409094 0.701271 0.29775655 -0.57725245 0.65679425 0.08094598 -0.4163819 -0.0006250683 -0.26212528 0.80782866 -0.5573065 0.022168394 0.30118302 0.3940548 -0.21070343 -0.34050316 0.16215475 -0.15797123 -0.21618122 -0.31626296 0.6289181 0.26089808 -0.10776478 -0.66153914 -0.5588512 0.3603559 -0.047803868 0.15942197 -0.1402167 -0.5426921 0.4121466 0.21830693 -0.044726547 0.65225077 0.41719246 -0.0904629 0.014792793 0.38334617 0.28687373 0.17198478 -0.09112315 0.3404069 0.23193826 -0.24865238 0.030328387 0.45852518 -0.26940942 -0.7398064 -0.49727306 -0.24311535 -0.2350332 0.17321964 0.5768368 0.13149995
caper -0.4911579 -0.40591127 -0.5187343 0.22405897 0.31867534 0.49856412 -0.11496646 0.40115672 -0.023272648 -0.6243181 -0.16847019 -0.017394975 0.848125 -0.10786923 -0.28923908 -0.7735167 0.34588987 0.3070154 -0.4772812 -0.07737623 0.28316703 -0.21864513 0.36762077 -0.77956885 -0.06551785 0.44988936 -0.30719385 -0.4607708 -0.014482671 -0.48767558 -0.30823353 0.24988231 0.20628148 -0.3357978 -0.05869045 0.08067654 0.051419884 0.19003011 0.4181959 -0.44140196 0.43553016 -0.44127813 0.44629675 -0.086307935 0.7667016 -0.25333604 -0.40209645 0.15035693 -0.26403645 -0.26665393 -0.034476344 -0.8224136 -0.28865743 -0.14458036 -0.07725678 0.61110723 -0.12031318 -0.057377413 -0.20518218 -0.18911198 -0.13000928 0.4858222 0.15182637 -0.036398895 -0.025628109 -0.080831915 0.25763273 0.36240855 0.2878911 -0.13152725 -0.4419855 0.11202476 0.17289777 0.082850866 -0.026487093 -0.030063495 0.7134201 0.5687337 0.38260424 -0.041799244 0.20371576 0.15202735 -0.31925604 -0.5147611 0.14806876 0.1003826 -0.67997426 0.4690496 0.40748638 -0.8371066 0.100906454 0.16145185 0.20822802 -0.73241967 -0.1466016 0.60275835 0.04056897 -0.32342917 0.34137365 -0.10227006
http://www.co-ode.org/ontologies/pizza/pizza.owl#Capricciosa -0.2961679 -0.23740311 -0.033088896 0.84138703 0.06386718 0.024460386 -0.50950164 0.107783206 0.27725372 0.22793102 -0.19897188 0.3023672 0.36765295 0.025794894 -0.09463614 0.10373277 0.36299577 0.74777627 -0.250909 -0.06640683 0.12895223 -0.6349968 0.17971043 0.014640659 0.10340869 0.62499166 0.49488944 0.03944849 0.48752534 0.24279884 0.23847415 0.17020194 -0.15860686 -0.198336 0.1069999 -0.53170216 0.16998444 0.031598374 0.029534139 -0.21758501 -0.45895538 0.45801905 0.20817156 0.04099086 0.5298332 -0.57175577 -0.24535817 0.4364044 -0.22883284 -0.46750754 0.054050162 -0.29086027 -0.431206 0.18030886 -0.35282925 0.39831847 -0.47123227 -0.52709484 0.5558369 -0.2835461 -0.47709578 -0.11250228 -0.23777702 -0.32153693 -0.016694413 0.06789751 0.2600011 0.28305346 -0.34716508 -0.3714649 -0.5795521 0.5812092 -0.16396451 -0.18230401 -0.6428775 -0.45716062 0.69543076 0.07433731 0.17219613 0.3114851 0.06476442 -0.1664982 -0.14296862 0.24622378 0.3869754 0.3530837 -0.06734718 1.0218613 0.024326338 0.11858447 -0.039743666 -0.1620261 -0.22822791 -0.78186005 -0.7531339 -0.42747355 0.43174255 -0.11685747 0.6532516 0.0057342267
margherita -0.5064064 -0.09571072 -0.39016423 0.4205332 0.25901607 -0.31262967 -0.011621183 -0.22996841 0.18869689 0.28820956 -0.091148734 0.24140081 0.45753446 0.03516209 0.0039794655 0.027195482 -0.12287642 0.3220863 0.084467426 -0.15461072 0.103943266 0.003062282 0.5699094 -0.34750962 -0.06339467 0.27345493 0.28458908 -0.5535612 -0.2601595 0.33089048 0.3724696 -0.24776231 -0.2841084 -0.29629582 0.0746135 -0.27609614 0.3921152 -0.22527681 0.40361252 -0.30452722 -0.17393868 0.32076278 0.3033694 -0.31717536 0.79973406 -0.6456291 -0.61125916 0.26772076 0.07919752 -0.6036554 -0.11480385 -0.019713147 -0.6861174 0.08059347 0.15203688 0.60767883 -0.5676843 -0.0035784347 0.068131536 0.11109877 -0.41385257 0.425182 -0.17727675 0.023220625 -0.4768517 0.08340069 -0.18139061 -0.022194302 0.29800057 -0.33012858 -0.24975376 -0.20172034 0.14201766 0.36029097 0.031915966 -0.29620144 -0.021453097 0.6901937 0.4594984 0.13780558 0.022650575 -0.31195948 0.07819814 -0.2061973 -0.085212 -0.20893589 -0.39860946 0.4454732 0.19601661 -0.4034229 -0.2413964 -0.23483074 -0.2029132 -0.26628104 -0.16407512 -0.49230552 -0.011343649 0.21935146 0.117654145 0.5609685
mushroomtopping -0.9072083 -0.42438453 -0.2095792 0.62710315 -0.061068986 -0.40405715 -0.10596547 0.05941509 0.37835428 -0.40175787 -0.9935768 -0.34024575 0.5618302 -0.033229284 0.2728624 -0.31208736 0.44978493 0.2463589 -0.38366187 -0.34215373 0.11487791 -0.36907426 0.43689474 -0.8917977 0.12294876 0.60618234 -0.26947105 -0.3761788 0.041314036 -0.14221306 -0.32128897 -0.32924488 -0.21991536 -0.16966757 -0.24843559 0.09930853 0.047439255 0.044681523 -0.031535216 -0.7349068 -0.28572524 0.015656153 -0.013145029 -0.21605538 0.58157706 -0.14882421 -0.19769974 0.0301701 0.017021466 -0.13397484 -0.18513885 -0.45377982 -0.09810574 0.07225417 -0.3979573 0.55884385 -0.40046504 0.2856118 -0.016142488 -0.3162633 -0.45518306 -0.07021806 0.1793628 0.3972353 0.12287659 -0.36810234 -0.28630716 0.26551118 0.332903 -0.033731613 0.4066235 -0.07268662 0.35637042 0.22657767 0.24278368 -0.44743863 0.918626 -0.42074117 0.15042065 -0.24450606 -0.07747295 0.10106912 -0.33248892 0.04548642 -0.24968354 -0.16204914 -0.66156024 0.24322836 0.45410624 -0.508539 0.27746618 0.27372876 0.55680984 -0.46160555 -0.28651172 0.9056313 -0.37156755 0.12353547 0.6750572 0.31324646
hamtopping -0.79176843 -0.29515645 -0.50238776 0.5143841 -0.08360148 0.36135608 -0.55132896 0.25720465 -0.20143469 -0.39325005 -0.40859205 0.13236615 0.48184097 -0.53625494 -0.24628535 -0.45640612 0.16724165 -0.006953095 -0.23174576 -0.24640314 0.1369179 -0.4721285 0.4949523 -0.13436686 0.19154753 0.14206938 -0.27260026 -0.12532894 -0.06584767 0.2384138 0.19179456 0.08923306 0.31180468 -0.5896993 0.546854 0.2769782 0.08284025 -0.46605235 -0.07437704 -0.9700332 -0.5121575 0.041368987 0.5901423 -0.13865107 -0.04161996 -0.5180943 -0.16753858 0.53920776 -0.42976463 0.21909536 -0.09893268 -0.42361203 -0.6222335 -0.25053573 0.20945098 0.3624457 -0.4925088 0.018006789 -0.26842138 0.23876262 0.04531043 0.015011024 0.8358256 0.52817434 0.15569389 0.03654542 -0.018189525 -0.0100015495 0.21956816 0.35702205 -0.014406788 0.19436462 0.7361452 0.06727802 0.22066933 -0.04238956 0.839353 0.11009484 0.37591317 -0.5099844 -0.15251182 -0.30155918 -0.09746826 0.30302277 -0.14493673 0.09842991 -0.31162795 0.14619213 -0.34383425 -1.0063097 0.5639417 0.5441281 -0.13562123 -0.8390021 -0.61022294 0.2572366 0.001039405 0.1884058 0.35519522 0.5150131
oniontopping -0.16649733 -0.05853777 -0.19107048 0.31876045 0.086710654 -0.03321538 -0.5883581 0.1773067 -0.035184883 -1.1408166 0.39705575 -0.027935907 0.881797 0.013798859 -0.7491221 0.012421204 0.26512393 0.053885464 0.035348997 0.02115352 0.40664017 -0.64497405 0.37119973 -0.5300893 0.19954516 0.46300235 -0.4707562 0.009670027 -0.36677536 -0.33137724 0.03504188 -0.3777522 -0.022753594 -0.027440695 0.03497491 0.35724562 0.3417994 -0.00688237 0.08677257 -0.4647053 0.45989746 -0.07429185 0.67301947 -0.22726563 0.29961532 0.08065123 -0.2506702 0.0019362586 0.11692076 -0.81878686 -0.5140083 -0.4871576 -0.040965453 0.16410242 -0.6106372 0.8390532 -0.25148645 0.039813813 -0.33042276 -0.28678066 -0.34629285 -0.1692193 0.079817146 0.558029 -0.11821563 0.14757949 -0.086896345 0.32568234 0.08495779 0.4128627 -0.63734984 0.64950055 0.19056533 0.38774464 0.037974592 -0.09676773 0.37082583 0.08439703 0.5518896 0.32901576 0.24216749 0.01045367 0.008870127 -0.39248806 0.16311216 0.055544265 -0.58234763 -0.18249151 0.6630842 -0.6545199 0.0993589 0.109084204 -0.16240996 -0.07957153 -0.46244985 0.0866426 0.06341836 0.25913936 0.19864942 0.23275512
parmezan -0.36100775 -0.29508486 -0.44194433 0.53582203 -0.7455841 -0.6254827 -0.7772684 0.34548396 -0.09373831 -0.52033615 0.51839507 0.36170956 0.38330656 -0.035676837 0.51971287 -0.37128544 -0.31074953 -0.060204018 -0.527464 0.24799524 -0.33206436 -0.56501514 0.0863235 -0.2510691 0.14429764 0.20938571 0.036357976 -0.6837237 0.1924246 -0.01047967 0.45789564 -0.38474798 -0.09301227 -0.44691306 0.53562677 -0.015459095 0.22764385 -0.17348719 -0.36124992 -0.69271964 -0.77675843 -0.28858778 0.3776765 -0.16208069 0.023792155 -0.30920923 -0.7351675 0.50354284 -0.37935847 0.024181273 -0.23017336 -0.56678075 -0.1687466 -0.6990482 -0.1058427 0.6240804 -0.12381309 -0.11350235 -0.1898274 -0.40296653 -0.0658733 -0.18463783 0.21540712 0.2384969 -0.05826985 0.4667411 -0.26694772 0.3165976 0.21208125 0.01752963 -0.4529769 -0.24446458 0.91542804 0.14014111 0.23412518 -0.11342009 0.19703165 0.16711554 0.11297005 -0.53700876 0.20948279 -0.35127416 0.33897692 -0.20350817 -0.096633494 0.032870807 -0.6987223 -0.092570774 0.24512497 0.115541376 0.09040266 -0.37455788 0.7846932 -0.72597325 -0.26228306 0.0047737486 0.33508793 0.20845146 -0.5048456 0.14435361
hot -0.47739208 0.060020596 -0.09372825 0.31108424 -0.1377489 0.13058688 -0.41513684 0.16005206 0.16689596 -0.7475005 0.5422597 0.67096394 0.9455151 0.6187985 -0.389889 -0.23346268 -0.0049435096 -0.05910442 0.04133974 0.17708872 -8.208179e-05 -0.2280562 -0.123905465 -0.6602998 0.25396347 0.27977976 -0.42096835 -0.1391263 -0.50045645 -0.42688444 0.21566725 -0.41774294 -0.45265245 0.22971094 -0.008604409 0.29286757 0.63054186 -0.5452238 0.76486766 -1.1267825 0.031233585 0.19235907 -0.23773225 -0.2883384 0.25527722 -0.38735735 -0.21095134 0.11034139 -0.10150498 0.13113567 -0.5637199 -0.41543147 -0.25588682 0.29982585 -0.0052549923 0.26366863 0.15027069 0.53618383 -0.22084719 -0.009921569 -0.1848375 -0.44993582 -0.013471547 0.26331347 -0.0064626182 0.42090365 -0.1480298 0.44437277 0.4885035 0.37965593 -0.08756011 -0.24398765 0.41575494 0.1741498 -0.4601593 -0.23622929 0.5827154 0.043969046 0.43337125 0.29426646 0.4479207 -0.12967697 -0.09913455 -0.7448294 0.7181771 -0.10162796 -0.94834226 -0.043462474 0.024669569 -0.8359036 0.19799048 0.4001252 0.8569298 -0.21756141 -0.25704983 0.0851803 0.45192292 0.35611492 -0.0068314984 0.32558647
base -0.33235067 -0.22255097 -0.17370312 0.019985905 0.22661024 0.29489183 -0.15748979 0.3164758 0.30928352 0.037930373 -0.151484 -0.24491748 -0.09609269 0.51399696 0.34748518 0.3694763 0.105201535 0.72041315 -0.16733186 -0.5238253 0.025231063 -0.05215097 -0.29256505 -0.3526289 -0.033599414 1.1804749 0.3191308 -0.08144518 0.29002136 0.15737045 0.61462206 -0.27161652 -0.7207258 -0.66402364 -0.056418028 -0.09651851 0.9818405 -0.52607703 0.21756668 -0.8410712 -0.4205421 0.52073616 0.1999126 -0.36933264 0.97279537 -0.31029093 -0.5215152 0.3618527 0.38197407 -0.36572233 0.37465516 -0.09564307 -0.52400655 -0.12214101 -0.053447522 0.07140316 -0.30146334 -0.10508266 -0.44483227 0.019667905 0.0034238582 0.13297714 -0.29428947 0.46132973 -0.29063213 0.15440024 -0.27539855 0.66675967 0.0040724333 -0.113045715 0.12897733 0.15019818 0.4279223 0.82525516 -0.10285355 -0.7746744 -0.17334534 0.72472495 0.2552166 0.011281418 0.6948773 -0.34781033 0.054228164 -0.15008928 0.40979663 0.11529837 0.26138896 0.019707326 -0.7251538 -0.75947946 -0.81867856 -0.14187282 -0.07687601 -0.5471966 -0.16689843 0.16872661 0.5023213 -0.16364267 0.3456699 0.4862852
http://www.co-ode.org/ontologies/pizza/pizza.owl#Soho -0.39341816 -0.3674159 -0.35139725 0.27029568 -0.26803398 -0.1539094 0.104179524 -0.12694834 0.10149371 -0.007154139 -0.02199563 0.2926765 -0.2377248 0.031180333 0.26596743 -0.2714456 -0.34162426 0.43501854 -0.2964308 0.52772206 -0.08621599 -0.3245427 -0.04219609 -0.09082688 0.4615819 0.05243256 0.5715489 -0.5098194 -0.11245512 0.33695394 -0.33696193 0.2291351 -0.34578043 0.033895805 0.22341017 -0.27813753 0.5227851 -0.107591756 0.031849544 0.31742778 -0.33121973 0.59750384 0.4886681 -0.19306499 0.59844124 -0.47011587 -0.50225806 0.43148142 0.40417442 -0.731014 0.18443473 -0.05393865 -0.258838 -0.40962678 0.0030655626 1.1144725 -1.0451827 -0.18515094 -0.31268594 0.046858527 -0.39557442 0.40049094 0.043111756 0.3300555 -0.5614902 -0.066713125 0.06570492 -0.19500732 -0.23461536 -0.46791548 -0.5547423 0.25830477 -0.22469772 0.44409645 -0.645522 -0.14841996 -0.07340026 0.4295677 -0.10490164 0.27428514 0.5387143 -0.5232742 0.035824403 -0.05550018 0.62168825 0.19125515 -0.057136085 0.20501764 0.45170635 -0.17912483 0.008678879 0.52093816 -0.14248557 -0.027451921 -0.09789182 0.00027359818 -0.64590144 0.44504607 0.63022333 0.25376287
http://www.co-ode.org/ontologies/pizza/pizza.owl#PolloAdAstra -0.53550816 -0.057627026 0.106539786 0.21271649 0.012636733 -0.84530705 -0.12476515 -0.061438028 0.30559227 -0.2323173 0.73007154 0.3338852 0.36836886 -0.048932686 0.078476086 -0.04536227 -0.026897399 0.3861674 0.011656689 -0.15000461 0.033889286 -0.38187695 -0.15274388 -0.15397564 0.31306195 -0.48136914 0.35762212 -0.39913708 -0.14824016 0.38145816 -0.3422553 0.4397027 -0.5224384 -0.8190251 -0.2815802 0.07574928 -0.12550874 0.009222342 0.43260095 0.27530545 -0.46647245 0.4834265 -0.29470482 0.05401516 0.19279449 0.07558283 -0.17382595 0.11774158 0.04958232 -0.4852473 0.25425693 0.07785858 -0.50296485 -0.5785915 0.18140672 0.6834408 -1.089365 0.39406413 0.18131112 -0.020321624 -0.63582337 -0.232315 0.009772738 0.24921523 -0.081113994 -0.44382465 0.08539428 -0.15906201 -0.24076585 -0.40065596 -0.21611473 0.21399856 -0.1803851 0.495113 -0.23944093 -0.26097915 0.00085914583 0.46851468 0.09775297 0.7066159 0.46446216 -0.36238983 -0.0850285 -0.09603947 0.13904235 -0.25028628 -0.8313185 0.5523779 0.20162699 -0.67676026 0.4305786 0.010647026 -0.35168985 -0.5120624 -0.43183464 -0.24332254 -0.2613368 0.18840823 0.28407753 0.5569015
http://www.co-ode.org/ontologies/pizza/pizza.owl#Fiorentina -0.11631941 -0.24178557 -0.43208835 0.2761337 -0.37241855 -0.18089958 -0.23679912 -0.066667825 0.16561033 -0.110374086 0.0034231897 0.14146726 -0.067916 -0.017033221 0.13165615 -0.16724187 -0.32601988 0.5428902 -0.17267959 0.40360045 0.3097533 -0.22665077 0.2929105 0.12197056 0.22148697 0.010654753 0.75240946 -0.57008207 -0.043425586 0.18462841 -0.180443 0.3132122 -0.1369546 0.2683482 -0.022649126 0.036015492 0.4422942 -0.29968575 0.3808477 0.1244578 -0.044317484 0.4779315 0.46129793 -0.2839778 0.7082611 -0.5288135 -0.42446467 0.7652151 0.21944103 -0.5882859 0.36240283 0.08336117 -0.4996042 -0.6745835 0.17594251 0.9545525 -0.97377086 -0.10350446 0.030414287 0.029983038 -0.51051396 0.3972223 0.20856825 0.3497421 -0.22776747 -0.065439835 0.29628372 -0.09856373 -0.024043493 -0.68898594 -0.4107146 0.24026103 -0.08052503 0.6194639 -0.2658606 -0.092542276 -0.05891281 0.5248169 -0.1464608 0.40990022 0.6330819 -0.22538303 0.2903419 0.298785 0.7879598 0.22773287 -0.087539904 0.100147195 0.5398642 0.14345384 -0.27198085 0.1816001 -0.19660012 -0.11114992 -0.4342351 0.07463399 -0.80478925 0.40347984 0.66675514 0.28521723
anchovies -0.7807279 -0.40893605 -0.39339566 0.17504285 0.0059428117 0.43531555 -0.46289402 0.3663761 0.09928013 -0.11928679 0.17199884 0.27232298 0.21678992 -0.19509427 -0.046610706 -0.8210483 -0.21419162 0.33140138 -0.3307324 -0.0155430045 0.25608975 -0.35774451 0.4175203 -0.34602678 0.029990401 0.65984595 -0.09305787 -0.22049844 0.0015971224 0.013389396 -0.13486221 0.5838332 0.19814129 -0.0748314 0.16473572 0.046492483 0.08729931 0.25928298 0.42962065 -0.86936027 -0.13937405 -0.35393274 0.61779076 0.25389594 0.6937609 -0.4823688 -0.11797398 0.041163724 -0.13947316 0.22585848 0.398036 -0.64155704 -0.72804976 -0.004811218 0.36288455 0.58562636 -0.51159316 -0.04246712 -0.03486193 -0.074959636 0.29876262 0.17612049 0.3315132 0.17343444 0.0029039248 0.08878199 0.17201173 0.31687668 -0.10518018 -0.21368274 -0.28127688 0.05669946 0.6773112 0.13170792 0.18682006 0.29583973 0.7189283 0.21890451 0.7032346 -0.52616024 0.20619203 -0.0028986705 -0.72034454 -0.38504112 0.06442868 0.1267439 -0.35905424 0.1634777 0.15195478 -0.9804393 0.41366893 0.04809309 -0.14056215 -0.58703715 -0.2345624 0.9414825 -0.04766536 -0.26485047 0.1298589 -0.21353099
frutti -0.5012173 -0.45579797 -0.715544 0.80390257 -0.21447654 -0.095029764 -0.8739424 -0.7059158 0.48915398 0.13374321 -0.18911396 -0.050804075 0.32784256 0.1595241 -0.29199576 -0.11787153 -0.0023152425 0.38136703 -0.085931346 0.0046512904 -0.24068958 -0.6909487 -0.07740383 -0.12815836 0.2064703 0.19887632 0.4305424 -0.48611787 0.17534204 0.57237417 -0.262655 0.03821388 -0.6051628 -0.219091 -0.04859439 0.14403902 1.0046706 -0.23729412 0.28654438 -0.35290742 -0.6328262 -0.1806328 0.25593394 0.09799292 1.120017 -0.43283314 -0.2990635 -0.10572301 0.4272243 -0.4720243 0.049639113 0.23995426 -0.96805143 0.3091742 -0.22539228 0.5614482 -0.5523137 0.2680658 0.1339852 0.05052977 -0.27294207 -0.064215995 0.10820451 -0.105500914 -0.665328 0.160543 -0.289756 0.011020223 0.20303144 -0.2710571 -0.37228066 -0.2683012 0.3285174 0.6789362 -0.116873585 0.37732464 -0.2371618 0.39389637 0.17216204 0.24584915 0.0675269 -0.24343236 0.4496959 -0.6169908 0.015599399 -0.5121174 -0.3635077 -0.27405486 -0.041385565 -0.829715 -0.42467213 0.30853215 0.18163684 -0.3078785 -0.34122735 -0.15207592 -0.118598 0.15432298 0.47920164 0.16904274
di -0.08650542 -0.35109612 -0.10665979 0.87585276 -0.33612233 0.046373125 -0.4080534 -0.62167794 0.23232456 0.15379927 0.21920766 0.47084132 0.36818716 0.08512619 -0.31511754 0.002653869 0.35674006 0.008942052 0.021775622 -0.074952856 0.061398394 -0.82186335 -0.26547962 -0.6167746 0.58884656 0.26004127 0.023193708 -0.7822502 -0.36234474 0.4039671 -0.11753059 -0.12856069 -0.9441054 -0.66326046 -0.20941536 -0.2969304 0.62804514 -0.47025567 0.28332546 -0.501286 -0.48042902 -0.0059668794 0.82511157 -0.093033254 0.788488 -0.13557702 -0.48409027 -0.06719701 0.47153035 -0.5777213 0.51860887 0.052766334 -0.87780863 -0.25644672 0.1712697 0.6323594 -1.054451 0.60014534 0.12699547 0.2996187 -0.26770464 -0.087887876 -0.32366273 -0.19324023 -0.7186445 0.39877748 0.19166614 0.094817005 0.07685021 -0.54837555 0.14847311 -0.16481346 0.36946127 0.9378657 0.26316088 0.073160216 0.18687756 0.48291212 0.035207342 -0.2695337 0.17567343 -0.082191974 -0.11139676 -0.645016 0.22042915 -0.19568823 -0.25706482 -0.11418129 -0.12747589 -0.34436646 -0.26161003 0.025714332 -0.13024746 -0.21096234 0.018122396 -0.25363535 -0.3396039 0.4045773 0.22806598 0.62259114
mare -0.22728689 -0.3430767 -0.8956724 0.5372468 0.095299825 0.029344533 -0.61956996 -0.37861547 0.2813186 0.04784518 0.30119908 0.13710684 0.15037236 0.023933422 -0.23040831 0.16734771 0.30360466 0.21401551 -0.032883886 -0.38453865 0.31071642 -0.3959708 -0.12235247 -0.38011262 0.56341606 0.3721916 0.6997294 -0.4671366 -0.6772891 0.288465 -0.24445464 0.2523647 -0.81126666 -0.41314757 -0.2436079 -0.06796461 0.89081323 -0.51722044 0.57384497 -0.5680564 -0.9436551 -0.23364507 0.32027483 -0.20669657 0.870905 -0.3200426 -0.76167166 0.21822575 0.45135543 0.025094196 0.01659722 0.22523052 -0.4038941 0.2535688 -0.11222059 0.8455371 -0.9864371 0.19840087 0.15416896 0.5505385 -0.08793276 -0.6511567 0.047530383 0.14134598 -0.47861123 0.10159143 0.20355216 -0.25558797 0.5984671 -0.046100333 -0.24443357 -0.051077 0.02759372 0.8209577 0.50281626 -0.3459552 -0.12934752 0.6611754 0.3563969 0.025068749 0.4445277 0.07357095 0.3779985 -0.6597031 0.266986 -0.66199046 -0.29094094 0.082830176 -0.011881533 -0.23244438 -0.41541174 0.088835955 0.20051019 -0.7074852 -0.43860257 0.13088076 -0.7154098 0.40901572 0.14791584 0.1279859
http://www.co-ode.org/ontologies/pizza/pizza.owl#Cajun -0.5884724 -0.34918815 0.005503946 0.8553402 0.03474106 -0.421397 -0.15990184 -0.21763657 0.27010873 0.021921437 0.49799654 0.3360545 0.38388374 0.31635547 0.016425608 0.19596554 0.049174983 1.0904665 -0.20212947 -0.42326397 -0.19438992 -0.32411218 0.05011885 -0.60279816 0.59005153 0.43708754 0.2997022 0.48060834 -0.19400331 -0.16558576 0.018564703 0.31175974 -0.12471395 -0.058385294 -0.007947388 0.24840453 0.34707767 -0.31330514 -0.039987933 -0.16579236 -0.45532867 0.32137373 -0.2636988 -0.37439117 0.46459925 -0.04006287 -0.18959962 -0.2612884 -0.46536148 -0.2827017 -0.16602366 -0.36357442 -0.6394575 -0.13706307 0.11809036 0.47850707 -0.96481913 -0.23990549 0.9289913 -0.87191623 -0.29318628 -0.27545333 -0.413999 0.28139552 -0.12571539 0.044284385 0.035939094 0.050465766 -0.48086384 -0.28877956 -0.10039432 0.30135632 0.43034822 0.1829193 -0.2686105 0.18117087 0.16507281 -0.07796417 0.06625645 0.58498585 0.1655398 -0.33956397 -0.44780394 -0.4116362 0.593185 0.26697284 -0.17997302 0.6184566 0.24827929 -0.38022858 -0.29671744 -0.48020777 -0.44573006 -0.17157316 -0.70812327 -0.7523416 0.33298013 -0.031910405 0.24484287 0.16394372
some -0.21009547 0.39547944 -0.57031226 0.09939136 0.1464036 -0.49418 0.117354944 -0.011754388 0.23628464 -0.37950358 -0.01934368 0.28908366 0.18271081 0.6253657 -0.13148941 0.3405861 -0.20082645 0.5103136 -0.78651685 0.14680903 -0.50405914 -0.4205672 -0.36683783 -0.51338446 0.53279734 0.12105183 -0.018397583 -0.23711401 -0.3019292 0.15462068 0.27052233 -0.18255097 0.05174241 0.12547842 0.08894151 0.13475293 -0.20129256 -0.67040986 0.20910136 -0.15438242 -0.2120743 -0.028929371 -0.12375067 0.1950814 0.73521197 -0.51276064 -0.7520726 0.43163854 -0.33109823 -0.25314036 0.20039883 0.123920485 -1.097738 0.50026906 0.088084206 0.4230575 0.27894086 0.22122952 -0.56391066 0.49048755 -0.48333213 -0.23646528 0.2809176 0.30539402 -0.39269033 0.48135078 -0.5463999 0.82751846 -0.4347693 -0.09987462 -0.20097445 0.49343845 0.32104626 0.34126836 -0.09890743 0.20094188 0.489203 -0.46712753 -0.19028506 0.55844593 -0.28183675 -0.119566835 -0.8452791 0.06205148 1.1811885 0.40507635 -0.93176734 0.08002196 0.28149256 0.02128008 0.2493545 0.1774245 0.30829802 -0.9265165 -0.47358882 0.24046922 -0.26424074 0.19777136 0.25405717 -0.08505812
http://www.co-ode.org/ontologies/pizza/pizza.owl#Napoletana -0.017346486 -0.57607234 -0.48945743 0.84450936 0.19326511 0.58806705 -0.5607085 -0.1709132 0.18720065 0.18833782 -0.25321966 0.12778024 -0.29293153 0.02295238 -0.00022973027 -0.18754794 0.10335818 0.55590457 -0.30082804 0.13339289 -0.04713333 -0.7086182 0.29730693 0.11791959 0.060159024 0.48373675 0.6144998 0.015842251 0.3765175 0.07387544 0.3065948 -0.1257256 -0.28700748 0.059861224 -0.046850633 -0.6162531 0.14180742 -0.062804386 0.533469 0.10435822 -0.19656157 0.31821445 0.48884445 -0.260409 0.5534493 -0.5312975 -0.20019428 0.57518464 0.1691838 -0.44996968 0.33635673 -0.34773806 -0.3258314 0.14631595 0.09441643 0.44806352 -0.74383515 -0.27522102 0.5963422 0.008782731 -0.43880042 -0.088803835 -0.38806835 0.15680087 -0.24277797 0.015676104 0.18262096 0.14615737 -0.022656525 -0.720394 -0.67536235 0.2336022 0.008285451 0.036940284 -0.47146678 -0.79395556 0.27335587 0.37064326 0.43236727 0.49459276 0.002907953 -0.4629455 -0.10592239 0.23408912 0.6251711 -0.0016770541 -0.12886156 0.7017694 0.54186755 0.25252163 -0.37741306 0.155824 -0.22105226 -0.39933413 -0.54060346 -0.05745862 -0.04725815 0.0046776724 0.39774477 0.1773586
http://www.co-ode.org/ontologies/pizza/pizza.owl#LaReine -0.099344686 -0.3759422 0.11292486 0.8752622 -0.20296326 -0.45462987 -0.15451097 -0.02390693 0.24254456 -0.041907016 -0.6784698 0.10108667 0.28875503 0.17966935 -0.19402197 0.24421673 0.2789151 0.54015034 0.068187244 0.18992394 0.36123616 -0.5953733 0.117619835 -0.07055656 0.18194595 0.26863226 0.49924165 -0.47544348 0.56595844 0.18822402 0.43277648 -0.017606702 0.032088105 0.19752614 -0.02555702 -0.46128464 1.0408919 -0.19611154 0.088837855 -0.029267931 -0.1965221 0.647365 0.23942566 -0.16953206 0.3981631 -0.87074786 -0.23130547 0.27367136 0.11227741 -0.30808222 -0.1543102 -0.007884534 -0.35352954 -0.36914474 -0.0951537 0.6495726 -0.3668576 -0.2392732 -0.039689805 0.26092204 -0.43724787 0.03663241 0.024064174 -0.22039443 -0.2688218 -0.091051444 0.027635459 0.030640343 -0.20642017 -0.7924426 -0.29978028 0.55352324 -0.38373637 -0.096410215 -0.078090236 -0.49626726 0.6851562 0.26610893 -0.220361 0.18358293 0.47334838 -0.3215812 -0.18295184 0.3179043 0.23123814 0.23033835 0.16569926 0.76414645 0.20407297 -0.06268275 0.039434917 -0.084457 -0.11292591 -0.39034027 -0.6882234 -0.3793817 0.00016975577 0.20369457 0.5103747 0.38201955
