749 100
of -0.45973998 0.0015443501 -0.0049230335 -0.19820762 0.19199556 0.18953438 -0.13773714 0.20410778 -0.16109568 -0.21506563 0.23067236 -0.23795006 -0.47372252 0.5254026 -0.10305794 0.2555031 -0.052514914 -0.12534462 0.4361374 0.09141105 0.0073417732 0.08805283 -0.38778618 -0.24928743 -0.04646831 -0.54089224 0.26968396 -0.27728122 -0.28855368 0.304626 -0.060134277 0.014554505 0.20500208 0.4015258 -0.22066556 0.13592367 -0.20251049 0.091959156 -0.073053256 0.39135435 -0.26461512 0.024525287 0.058713406 -0.040847667 0.3719977 -1.0628484 0.0635877 0.2704988 0.08629866 -0.12530325 -0.27815208 -0.04977447 -0.12643933 -0.12088359 -0.33251214 -0.38813093 0.009966267 0.016499074 -0.071026936 0.22507769 0.34600565 0.4272339 -0.045835048 -0.14682736 -0.5929423 -0.3562178 0.3939231 -0.075337045 0.4262779 -0.094675854 0.12342833 -0.05727798 -0.022207947 -0.016126914 -0.34341606 0.095099285 0.04533795 0.16259098 -0.5263692 0.25776652 0.82543683 -0.20852192 0.09104788 -0.12036005 -0.31137133 0.10451003 -0.035485808 0.37269548 0.3717458 0.028337432 0.09856567 -0.30634615 0.4214647 0.2217168 0.077592805 -0.008503963 -0.12036164 0.35942423 -0.63089526 -0.14405017
topping -0.59416556 0.06426782 -0.35571662 -0.2222488 -0.20342785 0.06393024 -0.37341663 -0.07073972 -0.2463711 -0.12296152 -0.080889575 -0.083313465 -0.45383102 0.4940399 -0.15362664 0.10398138 -0.013493193 -0.094172515 -0.03874951 -0.0073269685 0.2762198 0.526652 -0.42679378 -0.34444705 -0.29243436 -0.49174467 0.057714257 -0.42782432 0.17302561 -0.016949942 -0.1319539 0.45199755 0.15924308 0.086267084 -0.29291072 0.2613281 -0.045689166 -0.14584638 0.15244767 0.029796435 -0.23681574 0.45689675 0.08681534 0.12858707 0.38850453 -0.5862797 0.23165254 -0.36574194 0.32462686 -0.2134603 0.19958334 -0.406287 -0.3073102 0.21666597 -0.47104642 0.2050856 -0.17934471 0.15983663 0.282611 0.055184733 0.09465441 0.0072322055 0.30058596 -0.132051 -0.46866488 -0.38025478 0.43130103 -0.16984771 0.51955914 -0.041848473 0.38268957 -0.031203952 0.18639751 0.25901482 -0.6093651 -0.0042988732 -0.20069012 0.10386723 -0.34072256 -0.12300311 0.5478597 -0.03407278 -0.13654104 -0.318065 0.13033222 -0.40203336 -0.28104338 -0.12228378 0.32656667 -0.2589404 -0.12841901 -0.31315947 0.39520684 0.4590043 0.052906483 0.043260463 -0.025462745 -0.010374124 -0.43721935 -0.52955985
subclassof -0.42651215 0.28479442 0.11473805 -0.0542454 -0.21095584 -0.117413044 -0.35479614 0.72969043 -0.36304095 0.17405526 0.16866292 -0.09160212 -0.5232004 0.30665994 0.25073865 0.8357604 -0.1161947 -0.16809344 0.26532188 -0.3568109 0.33812365 0.29383412 -0.2743749 -0.35443884 -0.26755998 -0.3959384 0.012603889 -0.310286 -0.066809334 0.049527023 0.1334616 -0.08153607 0.043148767 0.07183777 -0.31699398 -0.015049494 -0.5225702 0.22197665 0.19719385 0.18244274 -0.3500113 0.145373 -0.28238863 -0.012096033 0.27431348 -0.7406338 0.16466309 0.033602953 0.62857497 0.35433024 -0.0036136152 0.29118976 -0.4977025 0.102783024 -0.22449218 -0.0460706 0.11443293 0.026142314 0.044983216 0.17603631 0.24017532 -0.0025668622 -0.15940548 -0.3523201 -0.74802715 -0.36906755 0.10945798 0.021073764 0.19609402 -0.47442457 -0.13468224 -0.1279515 0.11551161 0.21992625 -0.39536965 0.13330194 -0.12829825 0.5524372 -0.094597824 -0.18391311 0.27629253 -0.35774451 0.21486951 -0.3926827 -0.18580216 -0.28832707 -0.19182798 0.2005467 0.25358224 0.06802805 0.224906 -0.35033503 0.34030363 0.44331276 0.018439086 0.3203195 -0.27137458 0.38735858 -0.94231987 0.077152744
class -0.5725479 -0.13786523 -0.11090549 -0.06032966 -0.272819 0.0025141807 0.15237108 0.29798743 -0.07912303 -0.12323493 0.09593342 -0.20013039 -0.7379175 0.5813111 -0.08968386 1.0650215 0.10945971 0.096607745 0.14175384 -0.24578516 0.64062357 0.548497 -0.22753073 -0.13768905 0.011741877 -0.27943307 0.21364246 0.058831614 0.0072710724 0.07326724 -0.074276485 -0.42458457 -0.34697065 -0.010194355 -0.3539301 0.107614815 -0.36622167 0.44192317 0.08997544 0.15896624 0.010006099 0.19020735 -0.021536006 -0.09060089 0.31035972 -0.54318434 0.55497867 -0.22435577 0.32795107 -0.30719784 -0.09297572 0.07593901 -0.21093056 -0.03972246 -0.41879123 -0.41245434 -0.01541371 -0.08459309 0.05021422 0.29705107 0.43331093 0.044396233 -0.14112698 -0.1805917 -0.5760625 -0.4729229 0.26238057 0.047393434 0.26669538 -0.13649501 -0.09803746 -0.109783456 -0.21828192 0.55348843 -0.39335763 0.24942039 -0.12211165 0.44122738 -0.40170187 -0.10394807 0.29137114 -0.428451 0.15303278 -0.1885611 -0.22052923 -0.21263418 -0.05772009 0.4122829 0.3069639 -0.27420914 0.306492 -0.50439304 0.29303288 0.57563686 0.03236683 -0.189936 -0.07301868 0.49842393 -0.29087284 -0.14056195
super -0.6356184 -0.067620516 -0.31621826 -0.089736626 -0.379575 0.410279 -0.17262097 0.65620595 -0.2893684 -0.04372103 0.00597658 -0.26924518 -0.6485564 0.8575677 0.10764025 0.21738577 0.15243272 -0.13605605 0.33113223 -0.30142182 0.17444178 0.018118765 -0.375386 -0.015186947 0.19440962 -0.034026347 0.025684746 -0.28954113 -0.1830672 0.11802027 0.009286888 -0.0934245 0.021605875 -0.10261443 -0.32728672 0.28405485 -0.51006794 0.25260893 0.15919298 0.4043701 0.0031063738 0.14369564 -0.22339225 0.37290564 0.17279768 -0.63932943 0.3591198 -0.16185638 0.33691034 0.19817339 -0.15770406 -0.41658062 -0.40060315 0.049320947 -0.23200458 -0.30955768 0.22685081 0.3235887 0.05871896 0.5452304 0.3786772 -0.08758304 -0.2576184 -0.053529557 -0.5313526 -0.36284274 -0.06619738 0.2450419 0.37011737 -0.1638682 0.09727978 -0.32791662 0.059993908 -0.13094708 -0.5185852 0.26505017 0.022275142 0.3310906 -0.41409764 -0.150213 0.113206975 0.080713116 0.4397325 -0.37630525 -0.22896442 -0.14650936 0.09448232 0.3252551 0.37461212 -0.24509588 0.24344017 -0.55008894 0.28385568 0.50288963 0.06940922 -0.006714253 -0.4079159 0.41188186 -0.68301165 -0.07264861
http://www.semanticweb.org/owl2vec#superClassOf -0.51064205 -0.22660987 -0.401019 -0.23989183 -0.34635356 0.43111604 -0.009837613 0.67798334 -0.18540841 0.17173815 0.012807922 -0.04570691 -0.6445575 0.84142375 0.024464507 0.5821318 0.096271925 0.19149241 0.3116187 0.060894996 0.64676404 -0.066823915 0.090318166 0.24879575 0.0994671 -0.21022075 -0.018128414 0.22066998 -0.034579728 0.21642114 0.030003466 -0.32993498 -0.046118487 0.036674835 -0.24020423 0.6737358 -0.025470885 0.37726495 0.23490493 0.09712888 -0.16127537 0.21559666 -0.11713782 0.00050178386 0.46821687 -0.4319008 0.189232 0.2525798 0.20590904 -0.25634843 -0.15777245 -0.2958126 -0.3691239 0.18661216 -0.4071759 -0.6387828 0.049271964 0.57823086 -0.016570333 0.368948 0.6744521 0.10495623 -0.007956743 -0.054802693 -0.46386006 0.04829756 0.031567033 0.16258238 0.30500734 0.29501992 -0.12743044 -0.2554255 -0.22190864 0.03417743 0.0078774225 0.43657255 -0.04718994 0.5102391 -0.45312142 0.12741008 0.68761784 0.00054031267 0.39389965 0.030591642 -0.2834929 0.10044582 -0.0070736194 0.28281182 0.29267704 -0.1623661 0.18906829 -0.2552323 -0.032423105 0.14900686 0.037155718 0.0839707 0.0279744 0.2700381 -0.026935283 -0.070990816
pizza -0.56548476 0.26843452 -0.22087865 0.01141465 -0.5057563 0.33958253 -0.586772 0.44177595 0.02315682 -0.26619136 0.48648098 -0.101904735 -0.3341189 0.58134305 -0.25557715 0.18642019 -0.30911097 0.046264373 -0.24461661 -0.12457212 0.10434763 0.39971948 0.21656165 -0.07102247 0.40667072 -0.062105946 -0.046581857 -0.02198038 -0.23496282 -0.11288546 -0.6371008 -0.17430547 -0.118522994 0.23193544 0.011756702 0.10078529 -0.24057242 0.18262689 -0.17476171 0.6674 -0.4456396 0.04212801 -0.18428975 0.35278267 -0.09395668 -0.414348 -0.121378444 -0.24620916 -0.056166828 -0.16937648 -0.16086449 -0.16647968 -0.100824334 0.20804828 0.049016126 -0.04003334 0.07680956 -0.3717886 -0.22100057 0.17889231 0.14415437 0.21624114 0.0579624 -0.5928795 -0.632856 -0.48869088 0.4126121 -0.40242174 0.86419547 -0.44756743 0.41167855 0.06493843 -0.41685522 0.4571279 -0.4012203 0.10699258 -0.21329676 0.10982949 -0.15293552 -0.27377275 0.19456114 -0.06119445 0.15881361 -0.112339206 -0.28053406 0.03775847 0.1502271 0.18782857 0.41538075 -0.29668236 0.07369965 -0.37077138 0.6819492 0.51352495 0.35163552 0.29668167 -0.00727323 0.044435505 -0.81788623 0.2971886
http://www.w3.org/2000/01/rdf-schema#subClassOf -0.18581933 0.0269649 0.061101243 -0.17724845 -0.28442413 0.21612355 -0.31903535 0.8348949 -0.42953727 0.20351087 0.22411546 0.10709788 -0.56209195 0.40167093 0.32007232 0.9454502 0.044432055 0.009632524 0.1708937 -0.22751944 0.6187517 -0.05301955 -0.037382282 0.20386234 -0.12519455 -0.35792547 -0.29369497 0.0075755995 0.1896083 0.2854285 0.2676401 -0.43706593 -0.16602658 0.07289649 -0.27163857 0.43052173 -0.37623283 0.2620377 0.20207389 -0.20824969 -0.5500525 0.23498726 -0.33246827 -0.19599803 0.11957858 -0.2865145 -0.014583702 0.18754901 0.5192184 0.30760023 -0.038713273 0.27098486 -0.42188495 0.34872246 -0.24897414 -0.38941225 0.28579706 0.2591501 -0.009079081 0.18778229 0.4525282 0.05176939 0.24266076 -0.37438226 -0.81807077 0.16657454 0.038779236 0.001498158 -0.023014855 0.04965163 -0.22665527 -0.25074303 -0.08866023 -0.1496447 0.0626754 0.29590994 -0.07714812 0.6209736 -0.3515312 0.18266794 0.6868905 -0.14175776 0.286878 -0.26412702 -0.11720333 -0.19517988 -0.19644447 0.30993447 0.27802244 0.01943508 0.21440531 -0.103258826 0.09706592 0.529182 0.08900676 0.6273987 -0.0005327345 0.35359854 -0.64662004 0.25904065
has -0.31290698 0.07621007 0.19086401 -0.015191907 -0.06566868 -0.06078594 -0.07990167 0.24277018 -0.44397295 -0.09737047 -0.11089346 -0.20671752 -0.2047201 0.16677485 0.20894004 -0.07490395 -0.22384383 -0.14154412 0.30579752 0.53802806 0.07897717 0.33336598 -0.19274436 -0.09202804 -0.07483899 -0.08291563 -0.07023338 -0.08367446 0.07416526 -0.20712078 -0.01018685 0.37537616 0.031198232 0.53639627 -0.17957538 0.21068056 -0.55353326 -0.032041684 -0.10666072 -0.0044031763 -0.15708269 0.59884834 0.14116319 0.27536884 0.56852543 -0.5970256 0.11352594 -0.18271384 0.78502256 -0.11020826 0.05596201 -0.50071204 -0.29817745 0.10607379 -0.09536748 0.029796934 -0.13425063 0.41291928 0.08697198 0.06692429 0.06166464 0.025561536 -0.30589193 -0.26113874 -1.0382568 -0.6187259 0.5211187 -0.16051829 0.28857613 -0.20794958 0.15747783 -0.48221818 -0.23867507 0.4713118 -0.011676858 0.18887536 -0.050662618 0.3957824 -0.42076662 -0.08440277 0.41534388 -0.30270898 -0.22737004 -0.2496553 0.15306659 -0.5628108 -0.23406844 0.41639858 0.46628314 0.0652406 0.2726219 -0.4120074 0.4947041 0.4970949 -0.19211143 -0.07164357 -0.1656588 0.36914295 -0.60244733 -0.40585992
pizzatopping -0.53429365 -0.12280815 -0.40079674 -0.479732 -0.090015054 -0.25069544 -0.38663474 0.40723085 -0.11920879 0.33997405 0.35516542 -0.06660364 -0.8828151 0.5050989 0.24471301 0.111588486 0.2076573 -0.102174364 0.045552075 -0.09516035 0.2924916 0.4264166 -0.40512076 -0.59595907 0.18417303 -0.42588374 0.09392669 -0.32867327 -0.39139688 -0.048751403 0.32905334 -0.25354567 0.27569425 0.41032633 -0.3337091 -0.17783742 -0.4497575 0.07431971 0.08172228 0.13320577 -0.17139204 0.4631986 -0.052228034 -0.22248885 -0.09169931 -0.088645205 0.19627017 -0.43088534 0.08322338 -0.26272523 0.20486197 -0.09574254 0.19972822 0.035261586 -0.3239235 -0.16280247 0.32895708 0.007965919 0.3667224 0.37581125 0.14340822 -0.31570092 -0.21612425 0.111189425 -0.30576757 -0.35863364 0.6023473 0.39040226 0.45178813 -0.21546048 0.17095008 -0.44337967 -0.28309 -0.20632547 -0.21292509 0.50949323 -0.39648482 0.06561056 -0.5511475 0.028287647 0.39218417 -0.45158806 -0.23698078 -0.80208707 -0.195334 0.19251111 -0.53355163 0.33329076 -0.3887064 -0.38695806 0.26030672 -0.5004676 0.6952783 0.24727024 -0.08438487 0.05075081 0.030904796 0.13766856 -0.71314764 -0.10573682
is -0.18182817 0.15211445 -0.24428731 -0.16492245 -0.22187449 0.008584911 -0.36046687 0.23912567 -0.3986732 0.1309449 -0.40201834 -0.24586466 -0.6072063 0.4982063 0.39382288 0.12092933 -0.04787077 -0.059715535 0.07073621 0.07897198 0.2503831 0.46435672 -0.5520579 -0.13947117 0.0007819251 -0.13834374 -0.12645642 -0.34204498 -0.08703515 -0.2599876 -0.5811781 -0.16511978 0.02652817 0.23615305 -0.35154217 0.06997261 -0.13378868 -0.14719841 0.0005344684 0.3235394 -0.3825167 0.16252188 0.28361747 0.23749681 0.48333976 -0.55050784 0.06506775 -0.23920412 0.45387343 -0.2228884 0.09020175 -0.4962014 -0.12842906 0.038135163 -0.63300186 0.03513127 0.07909725 -0.48985136 0.40766263 0.5294017 0.05293345 0.18240047 0.17883864 -0.0164283 -0.24753402 -0.42480356 0.5970104 0.11511866 0.46334153 -0.16367976 0.33666435 -0.09756841 -0.4553725 0.64171076 -0.5668584 0.43728918 -0.36161035 0.08623041 -0.4487435 -0.17775618 -0.07637028 -0.16769369 -0.042988326 -0.41629377 -0.54074645 -0.20830227 0.6313479 0.06871884 0.110635854 -0.038471907 -0.22425829 -0.3335027 0.35004714 0.4760103 0.5450428 0.12388235 0.08683033 0.39411634 -0.16481167 -0.1456984
http://www.co-ode.org/ontologies/pizza/pizza.owl#PizzaTopping -0.56099963 -0.217812 -0.3774398 -0.62462467 -0.3516663 -0.06063012 -0.5725887 0.84297943 -0.018738486 0.82117444 0.32889962 0.08793044 -0.8337998 0.3395512 0.3196459 0.14809349 0.37258077 -0.0234433 -0.008784989 -0.01139314 0.46220893 0.22758971 -0.1266131 -0.04641874 0.087055326 -0.3975696 -0.27348298 0.048711292 -0.18118915 -0.14570767 0.34940413 -0.19693317 0.024231123 0.39221966 -0.37695357 0.15525107 -0.47801983 -0.04104823 0.18181607 -0.07503377 -0.38057765 0.41156116 0.062250834 -0.2004776 -0.15061744 0.1401921 0.10797669 -0.25402337 -0.017223394 -0.430665 0.29993463 0.08506483 -0.021477606 0.2256208 -0.19836025 -0.2519843 0.34933725 0.33333716 0.20694733 0.1269769 0.22890739 -0.33837768 0.18452221 0.047114693 -0.24114446 0.084248595 0.6363827 0.6039317 0.12559369 0.22693092 -0.13567859 -0.5252243 -0.47027245 -0.24227223 -0.022913314 0.9128227 -0.29370114 0.18439469 -0.44561806 0.1582867 0.4891494 -0.2726082 -0.11498134 -0.5482148 -0.09447395 0.1605041 -0.5197563 0.3144023 -0.33016136 -0.4575056 0.2939463 -0.2523798 0.42892468 0.07080135 0.05532255 0.34858063 0.36736926 0.08672072 -0.39559525 0.26798156
http://www.co-ode.org/ontologies/pizza/pizza.owl#isToppingOf -0.23783122 0.15017182 -0.38164273 -0.46122554 -0.2480612 0.16411929 -0.61373395 0.18276519 -0.39861342 0.41146153 -0.18845126 -0.048897896 -0.8744246 0.5598397 0.2358682 0.25726715 -0.04774283 -0.019537812 0.19216596 -0.14512832 0.63874763 0.085307755 -0.34351662 0.2366666 -0.02117275 -0.6185501 -0.2293359 -0.39849582 0.029013624 0.16637358 -0.08442848 0.058058083 0.07149554 0.38202295 -0.15325774 0.39129448 0.35262448 -0.3063743 0.13816918 0.045461107 -0.7629724 0.11784687 0.2994847 -0.08805196 0.3639269 -0.3942301 -0.071261555 0.34149915 0.3366772 -0.5165549 0.10909809 -0.13100128 -0.26007366 0.1393413 -0.71055746 -0.079312414 0.22963013 -0.04037708 0.29467955 0.2755316 0.12238995 0.37381056 0.69878954 -0.018150272 -0.21746328 -0.0797457 0.48113257 0.26435456 0.49255443 0.20738675 0.4909703 -0.16536663 -0.19813493 0.10572411 -0.23734367 0.5352942 -0.35092807 0.21161199 -0.49567613 0.16393153 0.65650046 0.06692392 -0.09179283 -0.064803615 -0.33205968 0.09322083 0.120114826 -0.24793716 0.052408013 0.019610742 -0.56224394 -0.113170184 0.2503717 -0.05771622 0.48145717 0.52748287 0.1551833 0.13236852 0.10644659 -0.14985539
http://www.co-ode.org/ontologies/pizza/pizza.owl#hasTopping -0.23511064 0.17550671 -0.27282268 -0.058779195 -0.4922802 -0.002350045 -0.43134278 0.38001993 -0.28569838 0.44733942 -0.16672245 0.15877359 -0.17238931 0.23687679 0.11569318 -0.019581346 -0.1319788 -0.007991417 0.114967704 0.36324307 0.8305876 0.17942253 0.16815652 0.14891486 -0.13141973 -0.19689688 -0.20419979 0.08252899 0.43318808 0.006315989 0.086004354 0.641414 0.02554946 0.5308794 -0.06690416 0.5039773 -0.13032624 0.07352439 0.16554461 -0.29296124 -0.58200115 0.6098713 0.14927553 0.219613 0.6574585 -0.03881893 0.15195201 -0.15950179 0.76335883 -0.44147834 0.01883869 -0.6359762 -0.46669212 0.4714921 -0.2269013 -0.10053544 0.06521297 0.70777404 0.33101052 0.015070181 0.21848781 -0.4049314 0.27474245 -0.50357294 -0.74762684 -0.08465061 0.3019835 -0.20988484 0.15984043 0.1486351 0.067000404 -0.23957522 -0.31041884 0.28425753 0.2991127 0.3921469 -0.24058847 0.22211364 -0.35277277 0.094832815 0.77108526 -0.14638813 -0.11292003 -0.15122312 0.1857707 -0.33785477 -0.47911382 0.22864343 0.45651978 -0.13863184 0.08257676 -0.298812 0.078672074 0.2746244 0.009000971 0.3656443 -0.061218075 0.1690205 -0.6554629 -0.414664
http://www.co-ode.org/ontologies/pizza/pizza.owl#Pizza -0.42741233 0.37577906 -0.5144412 0.07373031 -0.51732486 0.4940736 -1.0214185 0.3109975 0.105773844 0.19143274 0.312455 -0.04187589 -0.6141942 0.4797342 -0.28976625 0.38122287 -0.20661047 0.28326982 -0.30003068 0.060922373 0.69570774 0.3444324 0.39260748 0.4325478 0.4711231 0.028558668 -0.42300302 0.12816408 0.050769825 0.06932795 -0.4345381 -0.03957211 0.06651227 -0.067708544 0.20200999 0.38919866 -0.18584922 -0.1999672 -0.037399817 -0.10312763 -0.42039412 -0.003532547 -0.078729235 -0.06214316 0.13170998 -0.31523365 -0.027689165 -0.27930713 -0.13953857 -0.19871059 -0.22806183 -0.13724382 -0.07013298 0.55927545 -0.37045556 -0.24029157 0.27555266 -0.19310173 -0.23781942 0.14393896 0.00535853 0.10330913 0.20453048 -0.48713148 -0.6148955 0.27817386 0.120071605 -0.466357 0.5866346 0.047283597 0.22440346 0.16338487 -0.26263377 0.21072868 0.09973102 0.43493465 -0.16733211 0.16646232 -0.40489846 -0.43448678 0.7915133 -0.009932259 0.31422928 -0.031430162 -0.42740473 0.2832288 0.36788014 0.20140156 0.4955707 0.103689924 -0.25551844 0.0429614 0.18251817 0.5030682 0.50923926 0.42951947 0.2034971 0.033778846 -0.7809305 0.5207348
tomatotopping -0.19421868 0.21346042 -0.17491753 -0.29265454 -0.45420295 -0.2549242 -0.20736675 -0.3231279 0.043848068 -0.4689402 -0.45050344 -0.19670993 -0.3242509 0.77844304 0.09194326 -0.200709 0.060414996 0.24135862 0.10178129 0.18379936 0.031531423 0.80801404 -0.03547856 0.13206306 -0.15634377 -0.15412846 -0.13821314 -0.39886186 -0.26756045 0.0826561 0.27644154 0.4511856 0.24432997 0.05349279 -0.24855989 -0.006661331 -0.29320824 0.24811076 -0.009544404 0.027645012 -0.5398449 0.60843265 0.24335332 0.006277868 0.13920064 -0.55590856 -0.058943585 -0.20690426 0.13468039 0.022462588 0.13904099 -0.55953753 -0.37509882 0.56520486 -0.24733269 0.19112112 -0.3509837 -0.05888502 0.08213805 -0.3448648 0.12236851 0.31488878 0.48628676 0.18430553 -0.7481321 -0.0071365964 0.29690823 0.05841863 0.38229635 -0.5086091 0.25998375 -0.4413968 -0.30707395 0.37801838 -0.87343055 -0.112813056 -0.39386478 0.7249918 -0.10059302 0.003046663 0.5337898 0.24654555 -0.41072035 -0.39000884 -0.47201428 -0.75526565 -0.10884473 -0.0607072 0.33285454 -0.29965442 0.06887116 -0.5439206 0.31060636 0.4059967 0.0022262996 0.20313439 0.34092996 -0.14331605 -0.6321057 -0.055442452
mozzarella -0.23922893 0.07178542 0.072644 -0.18259682 -0.07188662 0.11516237 -0.07884546 -0.12380993 0.13054553 -0.37543795 -0.16455826 -0.25849363 -0.22553445 0.21733937 0.09418393 0.10571127 0.08377174 0.18604411 0.10206963 0.37191007 -0.05389144 0.5307367 -0.23298152 0.13077864 -0.1678262 -0.13610156 -0.12447717 -0.22291757 0.20263986 0.14317632 0.17944649 0.23910828 0.1960954 0.15786722 -0.12170663 -0.06770104 -0.044686045 0.17947109 0.12753479 0.1306997 -0.27467558 0.56303793 0.1577904 0.5308799 0.1304475 -0.6729511 -0.19788153 -0.0605834 0.417545 0.12298223 0.058707602 -0.841237 -0.34812132 0.7278901 -0.45643345 0.37611642 0.0046139746 0.02139947 0.118334375 0.38093582 0.4880862 0.20316523 0.4677957 -0.2003329 -0.31614852 -0.29394156 0.6224758 -0.102737345 0.4258836 -0.03851039 0.54269534 -0.33107677 0.09289953 0.9594749 -0.6521619 -0.42730123 0.11160481 0.21963213 -0.2981675 -0.3391473 0.46783707 0.09801655 -0.7301366 -0.16170266 -0.21521387 -0.21949391 -0.19940841 0.040182434 0.57485634 0.16232376 0.035975173 -0.29950333 0.65972435 0.63152707 0.010882788 0.16415061 0.21556865 0.009670209 -0.87437564 -0.29902717
named -0.46818027 0.22909072 -0.35271052 0.74779963 -0.47074085 -0.05181958 -0.37667754 -0.07698258 -0.35746467 -0.46291277 -0.26928803 -0.48169592 -0.2962549 1.0235503 0.055255484 -0.005953593 0.3130899 0.13810134 0.0058376957 -0.51867044 0.5098172 0.16407132 -0.14787568 -0.52061796 0.0016867633 -0.075153165 -0.31372714 -0.4273581 0.08219981 0.021943508 0.035991423 0.15087774 -0.028071564 0.15751761 0.082329094 0.12355374 -0.24037674 0.30487686 -0.20439957 0.38256416 -0.46360558 0.65490454 0.4876884 0.22895332 -0.23640214 -0.079333104 0.37413505 0.11441724 -0.121593036 -0.2550846 0.20759428 -0.02152235 -0.16489986 0.1764165 -0.45371383 0.037287522 0.10907061 -0.20442726 -0.12738907 0.21050707 0.06104007 0.6985776 0.19753756 -0.2774661 -0.59676087 -0.5757094 0.65225774 -0.41990417 0.49441165 0.03795984 0.581849 0.004193538 -0.27715763 0.04281646 -0.3673194 -0.16198082 -0.42643198 0.1702272 -0.48882207 -0.23026362 0.31772563 -0.036906626 -0.055750787 -0.27686948 -0.7330519 0.07259212 -0.45091757 0.571695 0.45508233 -0.34825033 -0.030865902 -0.48559156 0.7312453 0.22209372 0.07648182 0.46922702 0.2891832 -0.11272849 -0.66292715 0.10113452
http://www.co-ode.org/ontologies/pizza/pizza.owl#TomatoTopping -0.07837108 0.25257632 -0.3425071 -0.35480347 -0.61975616 -0.2999858 -0.36679703 -0.052825384 0.17371969 0.02324771 -0.53452665 -0.21960787 -0.2802444 0.7376185 0.2198072 -0.19132634 0.28655237 0.35559222 0.070012674 0.19972634 0.3929845 0.5578338 0.4020992 0.68480796 -0.14459404 -0.20381877 -0.26261425 -0.07912983 -0.11163829 -0.024315478 0.4373981 0.4506853 0.32081887 0.037909187 -0.13088344 0.25398228 -0.10845181 0.2337885 0.09440548 -0.41196662 -0.57660687 0.64698523 0.5310893 -0.18217903 0.41708052 -0.23579127 -0.22682728 -0.03162839 -0.018992845 -0.2446722 0.15029156 -0.46899614 -0.48070705 0.6113677 -0.2876055 0.20989576 -0.29493675 0.108846284 -0.14564255 -0.28689823 0.3246364 0.37991434 0.9628756 0.13214594 -0.73913956 0.4612346 0.32758155 0.23456545 0.22527295 -0.21951294 0.0043407497 -0.36913934 -0.39021036 0.32412383 -0.43496266 0.11042034 -0.397934 0.7175617 -0.1281282 -0.04635056 0.9367412 0.32717097 -0.39920834 -0.27669105 -0.39271498 -0.5008529 -0.18065783 0.045784228 0.2376925 -0.042607952 -0.1540725 -0.33722723 0.18390658 0.2801829 -0.18154 0.30188 0.57912976 -0.13331196 -0.29711476 0.094406724
http://www.co-ode.org/ontologies/pizza/pizza.owl#MozzarellaTopping -0.17051263 0.059721675 0.042151175 -0.24233584 -0.33522686 0.39022756 -0.34082553 0.09438981 0.17504376 0.011727467 -0.2432088 -0.10089579 -0.26550734 0.095844135 0.25573105 0.11190287 0.1483443 0.46109307 -0.043200668 0.43357593 0.24972507 0.22882092 0.19794548 0.53839856 -0.087309204 -0.12211748 -0.43407652 0.07077009 0.19486418 0.098030016 0.24785942 0.2577291 0.21335813 0.057017528 -0.08516901 0.30406758 0.30543694 0.1369557 0.2936444 -0.25661156 -0.40187505 0.7114692 0.27282482 0.41764772 0.20427635 -0.3575359 -0.34766322 0.098741636 0.30953765 -0.18070601 0.2747091 -0.94148403 -0.3163503 0.872582 -0.35922262 0.148987 0.18452054 0.309232 0.12977171 0.33167875 0.50794804 0.22017132 0.6072061 -0.10533424 -0.34531158 0.17159586 0.47862944 0.048063714 0.2770462 0.23345849 0.36148846 -0.5168881 -0.04645078 0.773816 -0.2566978 -0.22162342 0.10202565 0.17032385 -0.22350092 -0.34859213 0.76248336 0.27293977 -0.5309603 0.043239843 -0.21538562 0.03686564 -0.12420991 -0.016147131 0.6205522 0.0503447 -0.23863631 -0.033813756 0.38384563 0.3181632 0.07455409 0.3621379 0.6039076 -0.1350809 -0.55771726 -0.12893642
http://www.co-ode.org/ontologies/pizza/pizza.owl#NamedPizza -0.30999207 0.15206397 -0.3895453 0.07787741 -0.5575579 0.0027532321 -0.61674345 0.013308449 -0.220038 0.046503194 -0.19883996 -0.31545022 -0.37892437 0.73423004 0.03902826 -0.16093296 0.1465028 0.21331166 -0.03774578 -0.44462633 0.5558719 0.18402782 0.30068356 0.28658256 0.29868016 -0.007891591 -0.54115105 -0.3810382 0.2021486 -0.034474168 0.23542057 0.33715615 -0.16983078 0.37184852 0.083708644 0.59402335 0.09034258 0.33281755 -0.19180882 0.1411056 -0.65228695 0.56466657 0.42594168 -0.100796625 -0.15022591 0.07725194 0.11826173 0.31069714 -0.38719106 -0.57545966 0.25834113 -0.0010711364 -0.13861473 0.27138942 -0.0653666 0.080930024 0.25290918 -0.03555358 -0.13993263 0.24108052 0.08860222 0.4003968 0.39990675 -0.46186465 -0.4509658 0.11322901 0.6742284 -0.2841911 0.33653384 0.3385755 0.5249945 -0.09716062 -0.4678895 -0.0067593744 -0.16275854 0.13260445 -0.32968074 0.4043526 -0.49649942 -0.285662 0.71274024 0.065033376 -0.1445695 -0.0890663 -0.6515255 0.010891844 -0.3106268 0.33890256 0.5302484 -0.19018802 -0.24549139 -0.18991128 0.6044567 0.15758903 0.38143355 0.6285421 0.511329 0.09242874 -0.4118398 0.24460258
preflabel -0.639089 -0.19193514 -0.13509645 -0.7356174 -0.70036423 -0.2591449 -0.40630755 0.4368654 0.16662887 -0.06284534 -0.653096 -1.0718374 -0.79187405 0.06707374 0.15416284 -0.3556575 0.035551473 -0.07474222 0.11010219 0.017566118 -0.08116592 0.21300337 -0.038158756 -0.8861662 0.08975219 -0.3926027 0.6515306 -0.44039074 -0.17523755 -0.11396033 -0.6804224 -0.16561498 0.09291046 -0.19154845 -0.69500196 -0.2408647 -0.002571628 0.2578929 0.0132908905 0.2519552 -0.33792824 -0.6202731 0.011207752 0.08708955 0.15041117 -0.055752564 -0.11291461 0.42681625 0.11340161 -0.05748256 0.4764382 -0.033825755 -0.23537558 0.5478958 -0.09910196 -0.40639287 -0.32378387 -0.14829728 0.4498534 0.107176565 -0.5255599 0.36720622 -0.22497603 0.003200883 -0.5259589 -0.3830073 0.10426199 -0.50370383 -0.49706757 -0.21779728 -0.1316199 -0.64317954 -0.015850333 0.29883742 -0.26991603 -0.27092257 0.07443755 0.8050612 -0.7184666 -0.058099076 0.31047976 -0.10055739 0.040532395 -0.43695486 0.10913506 -0.13836333 0.16875798 0.34909502 0.32373008 -0.30782023 -0.43079618 0.049942482 1.0550687 0.016640542 -0.41355976 -0.078987375 -0.3179564 -0.043272533 0.39017734 -0.018017907
label -0.5327507 -0.04678707 -0.35810935 -0.1908215 -0.24808615 0.5592699 -0.45755267 -0.57310915 0.0086427815 -0.10314252 -0.7591511 -0.59447825 -0.9730611 -0.07530884 -0.12673861 0.0851517 -0.12800872 -0.017231874 0.09227258 -0.22576094 0.19407363 0.6510578 0.19409132 -0.335324 -0.20856346 0.12937795 0.71889424 0.2822375 0.38171458 -0.0031591903 0.13681862 0.013197689 0.42616725 -0.0088954605 -0.83940834 0.20095754 -0.48208204 -0.35570765 -0.31406838 0.48274484 0.15567835 -0.2692389 0.43057245 -0.122554556 0.86076206 -0.42296758 -0.17562835 -0.17859642 0.9286238 -0.18846522 0.4541901 0.22914842 0.26084965 -0.053244945 -0.38381547 -0.34180495 0.36296695 0.69155365 0.35446808 -0.19448455 -0.35251394 0.31501272 0.06661942 0.020843532 -0.63570946 -0.3743566 -0.12431527 -0.013497937 -0.24803585 0.19764481 -0.05036389 0.17515987 0.4897562 0.46162677 -0.65122974 -0.021944627 0.32267693 0.32575965 -0.3811725 0.30565318 -0.013041366 -0.10812411 -0.4174668 0.10556375 0.022108609 -0.4709257 -0.086214714 0.0880699 0.6657894 -0.12542246 -0.014024001 0.14527403 0.65590817 -0.064395264 -0.19656107 -0.09171594 -0.5108274 0.2653442 -0.51393 0.4796823
vegetable 0.080749474 0.072952166 -0.11230088 -0.22981784 0.16596286 0.14925042 0.18677486 -0.47711468 -0.23086272 0.040358428 0.04628093 0.019677825 -0.8520179 -0.008842354 -0.35589987 0.016846113 -0.26881367 -0.12858325 -0.063151695 -0.4141731 -0.41497213 0.33874592 0.063069016 -0.37589434 -0.17170992 -0.12943865 0.1050686 -0.22880664 0.6034307 -0.29463404 0.023824155 0.41492274 0.070626855 0.5626731 -0.31812406 0.6746128 -0.3726099 0.096023604 0.5247738 0.39506516 0.09133104 0.42167667 -0.23110399 -0.27089605 0.21860053 -0.39466834 -0.2008946 -0.08110525 -0.21565315 -0.3366931 0.43104115 -0.20114297 0.023183297 0.10383182 -0.42696413 0.010193039 -0.24495353 0.19000477 -0.0003852919 0.08559787 -0.19005606 0.036795933 0.5781013 0.12841107 -0.6901018 -0.21370354 0.48585892 -0.2505074 0.10169284 -0.12538311 0.11645188 -0.71125793 -0.39905992 0.24792454 -0.32424816 0.23492461 -0.060129937 -0.03482327 -0.5771977 0.21049851 -0.20754182 -0.17601721 -0.31784797 -0.9886399 -0.45284775 -0.10035154 0.066769995 0.060333654 0.49900493 -0.8409408 -0.2058662 -0.004791551 0.8713705 0.6343391 0.12873633 0.07004543 0.023297245 0.1032899 -1.3607523 -0.07664273
mushroom -0.12550513 0.041535553 -0.21055931 0.110469386 -0.525541 0.06664327 -0.09259446 0.027186576 0.07930177 -0.27614427 -0.18333991 0.011603942 -0.55954176 0.30441394 -0.4121597 0.07796034 0.31168294 -0.27494395 -0.19864883 -0.3537139 0.088787325 0.41465864 -0.21495666 -0.052558016 -0.3016287 -0.36851904 -0.06227028 -0.08444595 -0.25834453 -0.067769036 -0.25376832 0.3024375 -0.23828246 0.35636637 -0.16179296 -0.34398833 -0.4209285 0.11230653 -0.1583357 0.22362806 -0.432312 0.1815755 -0.26836523 0.025794996 0.51417536 -0.70579386 0.11436315 0.12518337 -0.07932276 0.08222187 0.30306348 -0.25933596 -0.581721 0.24447083 -0.7304125 0.0230611 -0.17993362 0.15726565 -0.19845486 0.22696008 0.058125146 -0.05909784 -0.0026895707 -0.054595284 -0.13229106 -0.0481662 0.3305588 0.20523523 0.36600015 -0.17397228 0.18671545 -0.25408304 -0.32930067 0.41805214 -0.23997718 -0.23871708 0.030985842 0.22529718 -0.037864763 -0.03394588 0.34220013 -0.025977517 -0.14987917 -0.6237291 -0.018266995 -0.43492696 0.1511202 0.15464385 0.06567948 0.05889418 0.4842065 -0.17138742 0.60151064 0.38850424 -0.0032554637 -0.16826935 -0.07693019 -0.044835202 -0.9115684 0.0908988
pepper -0.8834131 -0.13159564 -0.53511316 -0.35158363 0.022722589 0.5535974 -0.42899916 0.06679305 0.48622596 0.39585927 -0.15433648 -0.34962007 -1.023545 -0.003357023 -0.45956182 -0.056855742 0.1927216 0.4562494 -0.045545496 0.0845543 0.026510254 0.45623744 -0.006293915 -0.27627093 0.20857896 -0.11661856 0.07136115 -0.6983305 -0.31918588 0.14759645 -0.025049025 0.21401024 -0.09897025 -0.05814509 -0.7879362 -0.29130843 -0.19932255 -0.055178903 0.5733225 -0.12845491 0.044964835 0.14975555 0.50102526 -0.4638451 0.66285384 -0.24337779 -0.1386834 -0.3200649 -0.09214536 0.8645217 -0.083434895 -0.23974754 0.15618114 0.55978465 -0.30929482 -0.32474938 0.04859687 0.17580065 0.57747597 -0.092674725 0.6507293 0.18938959 -0.39476758 0.21851312 -0.26293096 -0.58535165 0.3023812 -0.18914741 0.4585236 -0.572401 0.42099947 -0.5705026 -0.4620738 0.49966726 0.060297705 0.03296367 0.037285067 0.025359733 0.21339154 -0.08635106 0.000901636 -0.10604494 -0.5394523 -0.74137765 -0.7182246 -0.19269486 -0.77523166 0.023914704 0.18630216 -0.37998074 -0.056626115 -0.29230592 0.25883383 0.309295 -0.34326947 0.20381343 0.5963226 0.34524015 -1.2982025 -0.3673709
four -0.40555853 0.22200875 -0.09472135 -0.15220761 -0.35288882 -0.066692054 -0.5961786 -0.15218028 0.100307666 0.036907993 -0.068398274 -0.44777244 -0.32415128 0.6383633 0.10350241 0.16838868 0.27984092 -0.13806272 0.070614375 -0.31622684 0.060254283 0.15999205 -0.006966284 -0.5613762 0.060778227 0.07758446 0.06723757 0.023806503 -0.23066923 0.40309992 -0.48443118 0.38440028 -0.30960402 -0.25744736 0.14151374 -0.5165757 -0.1143898 -0.023873435 -0.40006617 0.40520886 -0.3017493 0.21370038 0.08083069 0.24779662 0.23501499 -0.6419804 0.15995315 -0.14716256 -0.04159862 -0.09509413 0.18214116 -0.1990117 -0.71337295 0.118377835 -0.61700886 -0.4681594 -0.27761734 0.39676562 0.5221975 0.24125567 0.14056098 0.15590475 0.49330297 -0.38791707 -0.2318838 -0.23886876 0.46971393 0.24854097 0.51605475 -0.16078365 0.06547503 -0.28561574 0.045529533 0.31758016 0.088088416 -0.04931476 0.25075668 0.22487615 -0.30147734 -0.27902386 0.510183 -0.5832938 -0.65590215 -0.9341537 0.12666474 -0.4240926 0.24919 -0.054343157 0.32977122 -0.21489649 0.500106 -0.090243146 0.25776124 0.9517933 0.09103679 -0.17153683 -0.16069907 0.027610885 -0.8196051 0.39164412
cajun -0.8309003 -0.25840446 -0.01708154 0.13891967 -0.59948814 0.551912 -0.16228147 0.1028205 -0.4403743 -0.09875537 0.032148603 0.17266639 -0.40093789 0.5236999 0.28714967 0.45805663 -0.07643434 0.43104577 -0.037267964 -0.13524851 0.014062447 0.2655626 -0.17148544 -0.28388187 0.29720747 -0.49816105 -0.4324878 0.18067183 -0.27440834 0.59129065 -0.0034690532 0.27750322 -0.003649705 0.31755644 -0.6147591 -0.21046568 -0.2839081 -0.016496262 -0.18056305 0.17210093 -0.062898025 0.45892566 0.18803228 0.2153982 0.4101683 -0.43095425 -0.09343838 0.1759478 -0.10288232 0.36121678 0.19317725 -0.097131 0.079015054 -0.17838368 -0.7221987 -0.1461666 -0.21727136 -0.2533741 -0.069592506 -0.3272439 0.009564627 0.32154545 -0.29466712 -0.52103347 -0.20533098 -0.13311704 0.6081318 -0.0514825 0.59132993 -0.2795784 0.32274982 -0.20945887 -0.19912858 0.55060047 -0.16606906 0.1954556 0.16475622 -0.1461842 -0.025749326 -0.08350289 0.44909915 0.086871766 -0.134072 -1.0482775 -0.110508956 -0.42288885 0.15423678 -0.09024139 0.44637486 0.01004308 0.35847765 -0.6025795 0.49129513 -0.028031133 -0.02165623 0.057186916 -0.32717535 -0.11461287 -0.4912973 -0.2778225
vegetarian -0.12838037 0.3544433 -0.117034145 -0.24285528 -0.22487094 0.25182447 0.11608553 0.4063035 0.53590167 -0.1303635 0.17110275 0.09167194 -0.23644567 0.5166866 0.3224026 0.6718888 0.007750187 0.09691228 -0.19207266 0.2745885 -0.29403892 0.7393106 0.33695406 -0.47654673 0.2110711 -0.36543107 0.12322802 0.2330738 -0.21326402 0.48416424 -0.26146618 -0.18540542 0.19189215 0.43492067 -0.58651215 -0.12196396 -0.2614756 -0.07648639 -0.024925629 -0.058562156 -0.53983617 0.5654821 -0.11094444 0.061257437 0.017457511 -0.5774216 0.15747705 0.30928567 -0.018710785 -0.23140752 0.028775653 0.13975793 -0.1111466 0.26991105 -0.82050616 0.12064055 0.05603791 0.16161619 -0.011423065 0.031379838 -0.36203614 0.22727524 0.12683602 0.045371395 -0.3385767 -0.35327473 -0.1944081 0.02061898 0.5977695 -0.32723084 0.05706142 -0.11328582 0.16858447 0.11814952 -0.65029895 0.12617965 0.22889413 -0.46675956 -0.20177102 -0.2120188 -0.2144837 0.18431976 0.029855577 -1.0294412 -0.6894981 -0.15523914 0.03321746 0.49650177 0.33299014 -0.70160395 -0.30452594 -0.18526559 0.33902434 0.4665455 -0.2502478 -0.042634185 0.06196079 0.031132767 -0.72654426 0.3872119
spiciness -0.7215824 -0.2121988 0.13670602 -0.3937744 0.16763559 -0.2963031 -0.3674977 -0.41154143 -0.26794264 -0.38637617 -0.14310242 -0.55817103 -0.67708474 0.65876746 0.35160026 0.43191582 -0.24261619 -0.12631974 0.012047996 -0.25956777 0.38878787 0.1028175 0.028945211 -0.7291962 -0.025498422 -0.6662822 0.3177526 -0.41071093 -0.28059724 0.31571442 0.4311054 0.55205095 -0.06949135 0.4636717 0.0004107516 0.5037969 -0.8140507 -0.27472717 0.5371161 0.4147969 0.5141835 0.32457587 0.5514563 -0.10750294 0.63449824 0.011259145 0.22142103 0.14014295 0.048713055 0.35983008 0.19033651 -0.32894242 -0.29048952 0.05915979 -0.27277353 0.11092908 0.15746659 0.122838914 -0.1899336 0.51767683 0.380541 0.23541829 -0.0054198815 0.106146835 -0.4796127 -0.1857043 0.43160185 -0.1660905 0.27736855 -0.09364056 -0.12113603 -0.5890351 0.0018075122 0.7041294 0.02985134 -0.23855199 0.06092561 0.44700012 0.08328445 -0.6149624 0.41391322 -0.11476866 -0.10692839 -0.51626766 -0.11970651 -0.0329895 -0.42654276 -0.01782806 -0.12774894 -0.45896915 0.40780115 -0.79366344 0.67188144 0.50886655 0.07077635 0.123649195 0.26459154 -0.057725057 -0.62953895 0.1198019
olive -0.45230994 -0.13774128 -0.33352596 -0.18167931 -0.20885558 0.20633304 -0.36048615 -0.24401921 0.22819701 0.054954402 -0.3631284 0.20319097 0.10068131 0.47341526 -0.11333808 0.067732945 0.21155691 -0.18481672 0.43515423 -0.2725419 0.09211924 0.058421057 -0.5407683 -0.09576386 -0.47549093 -0.48605445 0.37429172 -0.061394196 -0.036838975 -0.28975248 -0.07219636 0.33101612 0.257775 0.22296824 -0.38760248 -0.04488127 -0.17219844 -0.18141323 0.019968359 -0.27647823 -0.4052118 0.26824942 -0.416372 0.07890084 0.15957642 -0.56437045 0.2719639 -0.14108054 -0.44127524 0.0134494705 0.39189482 -0.66899544 -0.22673759 0.17643033 -0.6679115 0.09569115 -0.25896627 0.09256912 -0.4507041 0.1124591 -0.1111379 0.12555587 0.08806209 0.100412846 -0.88333577 -0.10321727 0.44157347 0.1362947 0.43807918 -0.05309974 0.46508363 -1.0332664 0.13626277 0.95112115 -0.28991514 -0.08756643 -0.03155703 0.20446922 -0.477627 -0.12688938 0.028927062 -0.42093834 -0.85780156 -0.3455749 -0.25154096 -0.62049633 0.18233676 0.16841403 -0.37374917 -0.28271803 -0.086219095 -0.28990412 0.4655309 0.4169473 0.19950959 0.046440855 0.20725423 -0.3416644 -0.92043567 0.05764821
giardiniera 0.20218886 -0.12566547 -0.5886947 0.19303349 -0.43942675 0.08029019 -0.50256264 0.12521186 -0.7121324 -0.09875656 -0.08105986 0.44868523 -0.99798703 0.51894325 -0.47139892 -0.11030625 -0.21614723 0.033321198 -0.11724074 -0.34872702 -0.104426846 0.72285193 -0.22838666 0.35854807 0.026134785 -0.24102412 -0.25459152 -0.03365517 -0.37731728 0.05165189 -0.6388906 0.42826015 0.25722015 -0.0039167567 -0.065494426 0.074290685 -0.64568293 0.038366325 0.105554335 0.3354735 -0.25786668 0.37842223 0.26406953 -0.014954772 0.42996514 -1.0249254 0.3576052 0.13575913 -0.16167462 -0.0987885 0.16954593 -0.25787663 -0.6652685 0.07548828 0.027371634 -0.036533203 -0.027546015 -0.23437342 -0.23190922 -0.0040302747 -0.094554804 0.377938 0.5531427 -0.48489052 -0.5068601 -0.06470506 0.46384463 0.4262039 0.291839 0.113793865 0.046635687 -0.41604283 0.23222232 0.9776232 -0.029476194 -0.49282095 -0.40897322 -0.068461746 0.23404185 0.1995821 0.047537684 -0.24388228 0.13490029 -0.9311183 -0.31907272 -0.031302303 -0.2808692 0.6721671 0.35883355 -0.35102466 0.33222353 -0.6204802 0.37842914 0.059285995 -0.23967908 -0.14849773 0.0182639 -0.34766716 -0.6522823 -0.19097176
siciliana -0.55496746 0.11153304 0.020006191 -0.05073181 0.092110634 -0.15658581 -0.44609404 -0.08487713 -0.41362667 -0.15760249 0.30231366 -0.012182174 -0.15661977 0.54177684 -0.13377829 0.32980105 0.17895597 -0.24165578 -0.21653983 -0.34899965 -0.1392879 0.38855967 -0.35830358 -0.3774586 -0.47389662 -0.081317335 -0.0866907 -0.12893891 -0.23157783 -0.16108835 -0.3171676 -0.07047552 -0.20494278 -0.11149459 -0.23823254 0.11245472 -0.52539724 -0.5826097 -0.20730454 0.6462695 -0.40447345 0.8404911 0.4921095 -0.01666277 0.14890756 -0.16591378 0.3347727 0.1418648 0.03828598 -0.09712849 0.15372325 -1.0600055 -0.8914739 1.0407885 -0.21661797 -0.40434387 -0.43329364 0.041243363 0.154769 -0.20370433 -0.1468911 0.41319713 0.11978244 -0.47727293 -0.18175586 -0.02153375 0.7997131 -0.25626907 0.49429896 -0.043545544 0.23411891 -0.011837114 -0.43257448 0.54928106 -0.8152114 0.15254018 -0.40218854 0.07352363 -0.41181102 0.3434427 -0.07776363 -0.25642774 -0.10794845 -0.06235727 -0.26125914 -0.07978951 -0.20628704 0.66040385 0.3532355 0.16591813 -0.202608 -0.0297736 0.20216455 0.3290796 -0.090058886 -0.32566097 -0.49723586 -0.208241 -0.73688996 0.39732805
veneziana 0.41802168 0.03583157 -0.1232928 0.04786494 -0.21991229 -0.082259044 -0.31925905 0.3669764 -0.011984696 -0.6318371 0.37602484 0.40540168 -0.32411963 0.506154 -0.23194481 -0.26026613 -0.22002195 0.15364468 0.52145517 -0.35213894 0.63444245 0.23152189 -0.056114737 -0.3639922 -0.07806672 -0.1825173 -0.46776372 0.09486169 -0.21020332 -0.010839448 -0.14829977 0.16677597 0.32316172 0.105257526 -0.082406655 0.028915977 -0.50415766 -0.32368013 -0.16101786 0.34074908 -0.31283876 0.9955452 0.13693218 0.515663 0.23578228 -0.88205 -0.38867906 0.011201652 -0.096360855 -0.0489559 -0.02906627 -0.5970324 -0.36170396 -0.18028292 -0.6870914 -0.52073455 0.06523197 0.11443936 0.0011404172 -0.5769132 0.060224548 0.7284764 -0.099517636 -0.32155478 -0.35132328 -0.26998442 0.985548 -0.022520002 0.4883935 -0.08242326 -0.022736607 -0.6117613 -0.14276506 0.25009662 -0.37961146 -0.037382275 -0.046528623 -0.040639922 -0.02955148 -0.7447714 0.13495481 -0.45036605 0.1935842 -0.3915223 0.1137801 -0.15608399 -0.025280582 0.0006399521 0.35549173 -0.75056493 0.12839934 -0.19612852 0.74769485 0.4267961 0.3203312 -0.2656794 0.0032506827 -0.102382265 -0.23878673 -0.1652658
capricciosa -0.3494813 0.019416703 -0.13585013 0.56615317 -0.5134974 0.0065908814 -0.66400605 -0.35893574 -0.25357783 -0.03636779 -0.10946981 0.22415353 -0.24902977 0.44014448 -0.023595635 0.016711496 -0.14457233 0.11982959 -0.435373 -0.0047724512 0.2493853 0.45532134 -0.24755377 -0.23564506 0.19151315 -0.020881085 -0.40938044 -0.13137077 -0.3154361 0.06913364 -0.457044 -0.033737637 0.044520404 -0.25169092 -0.3100189 -0.21057953 -0.28421274 -0.8073436 -0.5811896 0.5086621 -0.54784787 0.5736977 0.55107373 -0.00032954555 -0.050579853 -0.70583194 -0.03767538 0.03876632 0.11998994 0.06365406 0.816753 -0.66866565 -0.47033754 0.20307288 -0.3119077 -0.736835 -0.1428762 -0.099902265 0.2511062 0.10475182 0.28050205 0.5558824 -0.018723944 -0.4076968 -0.48880637 0.07876945 0.8555413 -0.01850332 0.6439201 0.04775161 0.32473844 -0.51290715 0.24996464 0.50053257 -0.35564628 0.12558185 -0.2698277 -0.02503138 0.19960667 0.034087237 0.06646042 -0.27124563 0.1811979 -0.27930737 -0.20651646 -0.5112027 -0.19362956 0.41750804 0.34124723 -0.21470487 0.015531209 -0.30997267 0.35734707 0.1172538 -0.09565832 -0.1641891 0.07598235 -0.1636848 -1.0258347 -0.14263839
http://www.w3.org/2000/01/rdf-schema#label -0.33713233 0.1728681 -0.11665443 -0.29599416 -0.40590072 0.67102224 -0.6404984 -0.5780871 0.04334882 0.28474367 -0.6656518 -0.5254156 -0.9625805 0.010615886 -0.25272158 0.05121799 -0.21051073 0.50230145 0.08256134 0.28316575 0.83468705 0.41920447 0.42096174 -0.1332293 -0.35574532 -0.0122409165 0.38370192 0.96327 0.6115629 -0.22405386 0.18732081 -0.2045097 0.38212687 0.069778375 -0.7339067 0.43122813 -0.33843115 -0.5520518 -0.11325743 0.07082922 0.0876883 -0.4420586 0.21935543 -0.35271537 0.5731465 -0.017546725 -0.43498713 0.39260074 0.59505486 -0.059983626 0.70005924 0.2631365 0.1661862 0.058331743 -0.26298958 -0.63119525 0.3819659 0.75508124 -0.13389294 -0.047700938 -0.22685187 0.29103607 0.4195223 0.37025478 -0.5289266 -0.043806795 0.04410957 0.5072209 -0.6837308 0.49071053 -0.09827248 -0.0032858474 0.354395 0.49377128 -0.337649 0.28953537 0.19873352 0.7940855 -0.5571055 0.6524319 0.1633328 0.25458688 -0.63053435 0.30182514 -0.07970348 -0.5290969 0.037129525 0.39302105 0.6664869 0.09599414 -0.2737528 0.20898639 0.40048304 -0.18651852 -0.30935353 0.30013815 -0.26199722 0.4561422 0.26012883 0.7715209
http://www.w3.org/2004/02/skos/core#prefLabel -0.40448472 -0.053926907 -0.014869133 -0.46888483 -0.69761604 -0.0210228 -0.47567293 0.58054554 0.4670458 0.62640476 -0.5971368 -0.7979387 -0.6849703 -0.010080889 0.22077276 -0.2667319 -0.10698624 0.5558082 -0.22590192 0.1765438 0.21583222 -0.3670288 0.39158788 -0.47216368 0.13533026 -0.46319953 0.34299502 -0.09431004 0.19390126 0.052760076 -0.41177264 -0.17114198 0.22601797 -0.28529397 -0.4712952 0.11050239 -0.05472643 0.2885719 0.2182148 0.14586277 -0.78997153 -0.44303662 -0.30964798 0.18963213 0.29975832 0.17316087 -0.51019084 0.549842 0.24001157 -0.5087168 0.29281318 -0.14147106 -0.64956653 0.77113366 -0.19211829 -0.5970181 -0.22326645 0.07655901 0.51670855 0.103609435 -0.44803515 0.35377598 0.13252139 0.16624524 -0.5010355 0.2452964 -0.1862656 -0.45192057 -0.6598543 0.16277856 -0.2680863 -0.64157295 -0.25848314 0.38509658 0.4568257 -0.28722495 0.07456396 0.8115429 -0.7007218 0.22279462 0.451966 -0.08144244 0.12775768 -0.684217 0.4495773 0.120775305 0.3376615 0.43478426 0.26106754 0.22457129 -0.6351118 0.15460366 0.7550988 -0.044610623 -0.33305088 0.09722329 -0.20725375 -0.369421 0.50750184 0.25304493
seasons -0.09091084 0.41877785 -0.71893424 0.23899733 -0.30804414 0.14801271 -0.64473796 -0.30782035 0.23037279 -0.17460047 -0.064084545 -0.14723028 -0.4589569 0.6370611 -0.44749308 0.15918876 -0.050622087 0.07983479 -0.28562555 0.15435652 -0.0062955846 0.1943187 -0.28925925 -0.22345074 -0.54586524 0.24220558 -0.35615242 0.0048857476 -0.026052034 -0.39332545 -0.7017229 0.20699206 -0.28456748 0.10200576 -0.14881887 -0.37388542 -0.3830184 -0.610465 -0.5252755 0.93208134 -0.7742144 0.64749753 0.0039647273 0.051988397 -0.118007265 -0.90182596 0.22012526 0.023995914 0.36385876 0.2649294 0.36174092 -0.47040272 -0.44364294 0.18695924 -0.6916942 -0.37537995 0.03594836 0.37585366 0.23694566 0.22041145 0.17525332 0.3002854 -0.106168106 -0.09521698 -0.051066577 0.12349798 0.62969273 0.3402714 0.5860846 0.128534 0.07015417 -0.50499725 -0.36784235 0.16113694 -0.14190878 -0.5000652 -0.5919791 0.6474598 0.19482996 -0.49814525 0.5249914 -0.70400715 -0.53561383 -0.29385003 0.26088727 -0.19176221 -0.044483945 0.6123519 0.3079325 0.020046163 -0.26508123 -0.24896406 0.83067995 0.5713828 0.16312721 -0.17271471 0.1693675 -0.4051406 -0.6021404 0.26161614
tomato -0.2628619 -0.12432542 -0.020512346 -0.8185536 -0.9916278 -0.42586195 -0.21785001 -0.19923732 -0.20129237 -0.5910812 -0.19561887 0.2077076 -0.7988636 0.88696903 -0.15283045 -0.11774989 0.40439916 -0.27977172 0.68438745 0.11941245 0.4552716 0.64433515 -0.53768843 -0.07786588 0.0022633614 -0.17126265 -0.16889544 -0.45518818 -0.3514716 -0.18026814 0.08272041 0.57743067 0.10962798 0.26940426 0.1410372 -0.20144369 -0.058243975 0.28603342 0.08791571 0.1355305 0.085045464 0.051779363 0.21200515 -0.4012897 0.3251292 -0.36841148 0.031720754 -0.095183566 -0.018317882 0.06409916 0.3277548 -0.29675332 0.1621111 0.035665274 -0.41495028 -0.041115914 -0.096100576 0.44226086 -0.064451575 -0.03215479 0.1547972 0.19048285 0.20402189 -0.028440861 -0.47299382 -0.20621216 0.5562208 0.28416312 0.43495467 -0.6294871 -0.20132226 -0.4594201 0.08703496 0.30306995 -0.6661283 0.5715156 -0.56879854 0.34545782 -0.28397503 0.15577266 0.4157471 0.025874874 -0.5865493 -0.40873882 -0.41284686 -0.8041037 -0.25953406 0.16208799 0.056589972 -0.3141431 0.25055602 -0.12163499 0.37915918 0.19525763 0.21623477 0.20243874 -0.36725143 0.24043383 -1.3482339 -0.18947785
http://www.co-ode.org/ontologies/pizza/pizza.owl#VegetableTopping 0.16319588 0.108910546 -0.33293697 -0.4947381 -0.3066882 0.31235743 -0.09996759 -0.29256263 -0.13024245 0.292751 0.21839088 0.23833373 -1.0680494 0.11196119 -0.44211498 0.23975413 -0.14105068 0.17884006 -0.22835475 -0.53777325 0.16766547 0.06645551 0.37991136 -0.015825199 -0.21532097 -0.23407906 -0.15350263 -0.14522189 0.8184903 -0.32496157 0.20647186 0.43034896 0.08385082 0.19164512 -0.0857117 0.9435622 -0.09350091 -0.0083168885 0.88185364 -0.12175939 0.15542926 0.22206889 -0.4386824 -0.3084746 0.25129318 -0.014331477 -0.23886599 -0.13804445 -0.41619572 -0.3527638 0.27853203 -0.26082322 -0.14757447 0.44384167 -0.3681137 -0.2102796 -0.03989591 0.49894026 -0.12686262 0.088068604 -0.18258433 -0.06905195 0.68946683 0.1200184 -0.58843166 -0.006247477 0.3790472 -0.14819458 -0.13110557 0.2624986 0.0072222603 -0.8023818 -0.5760677 0.39175278 -0.008137931 0.5586648 -0.41652867 0.36314374 -0.49447173 0.2890055 0.111163385 -0.12046338 -0.22308308 -0.79220927 -0.2138284 0.2723997 -0.014283166 -0.09730586 0.4678432 -0.5646767 -0.24518956 0.22873178 0.73695207 0.5054269 0.34051743 0.3629962 0.3674798 -0.2750937 -1.0083916 0.14252548
soho -0.185719 -0.18297012 -0.30367053 -0.07080305 0.16237867 -0.36167404 -0.4219274 -0.16182253 -0.38399425 -0.010285847 0.7305945 -0.3840506 -0.2590613 0.73133045 -0.33901843 -0.09997801 -0.10052462 -0.024655871 -0.060122214 -0.12894963 0.088596106 0.60607475 -0.055916343 -0.31365228 -0.2957755 -0.39880082 -0.79329956 0.024508353 -0.20004316 -0.04127298 -0.5282949 0.36047304 0.077658154 0.21316816 0.0004805978 0.30153373 -0.061085414 -0.011255407 -0.0017712195 0.23031862 -0.4886893 0.34307253 0.37804005 0.46976286 0.15619257 -0.38838834 0.36691675 -0.10001861 0.31086332 0.43101948 -0.09305868 -0.6010371 -0.97821313 0.530428 0.05497355 0.17404693 -0.11855197 -0.08316183 -0.026199173 -0.35528642 -0.0052968655 0.4814647 0.36071593 -0.060660787 -0.34035107 -0.20723534 0.66294295 -0.4094158 0.7692643 -0.2485373 0.06333472 -0.18252261 -0.21063457 0.5873371 -0.3650357 -0.13957232 -0.048952904 0.24917865 -0.8365569 0.17858678 -0.4155327 -0.83855855 -0.11299818 -0.21362096 -0.10102818 0.265528 0.2419562 0.8828665 0.084431805 -0.70901364 0.3883328 -0.5099778 0.57510966 0.25228646 0.055950183 0.097602606 0.14538328 -0.12909631 -0.6324684 0.23409706
fiorentina -0.09742011 -0.096470155 -0.48393318 -0.028835358 0.21623173 0.098276846 -0.43191656 -0.10069391 -0.5054345 -0.28734446 0.45748353 -0.31218246 -0.22547103 0.61745465 -0.42616117 -0.026075369 -0.0010148784 0.13267273 0.1682337 -0.4587532 0.2185424 0.9096124 -0.15507197 -0.12321211 -0.2730576 -0.11749705 -0.33306423 -0.028969614 -0.5831516 0.0123073505 -0.23108174 0.27350128 0.16298567 0.2032319 0.192394 0.3193849 -0.06653585 -0.22632633 0.290702 0.67617434 -0.5865386 0.3415569 0.1898423 0.030932143 0.06950446 -0.46369788 0.64257914 0.17141178 0.3477168 0.3206373 -0.23364145 -0.30553204 -0.6281111 0.7516242 0.24468425 0.18704785 -0.011189531 0.44203907 0.08658088 -0.4708852 -0.22744061 0.43597877 0.1911614 -0.24060218 -0.07629887 -0.0079598185 0.58107233 -0.21576321 0.63623273 -0.35596552 0.2447541 -0.28420576 -0.10411705 0.5475829 -0.23967847 -0.09289111 -0.076580904 0.24904588 -0.68292016 -0.14546326 -0.3431666 -0.6290801 -0.4595816 -0.22835687 -0.31228685 -0.19997513 0.19843665 0.7493195 0.1841518 -0.5418103 0.35218823 -0.007659006 0.70770925 1.0606576 0.17651612 0.122084364 0.04213901 -0.20163995 -0.3044103 0.17762578
polloadastra -0.9898229 -0.043506425 -0.18909095 0.0014516184 -0.4613675 0.18205023 -0.33963624 0.010651985 -0.3800076 0.19447921 0.43957448 -0.18218298 -0.22659837 0.34512052 -0.23870109 0.19742706 0.22191022 -0.33292258 0.23668188 -0.24511021 -0.5099901 0.6310418 -0.0043742065 -0.42370716 0.30263168 -0.2964475 -0.3868589 0.20169228 -0.79036796 -0.06826252 0.13882111 0.048057713 -0.2789835 0.3195669 -0.8254763 0.18787451 -0.06299189 -0.08682083 0.2755409 0.43311676 -0.7011442 0.66568196 0.36572132 0.06888845 0.124612816 -0.0705908 0.05487543 -0.07157993 0.069293454 0.3164377 -0.27882907 -0.4070053 -0.07702758 0.45828363 -0.79157066 0.5485659 -0.3789413 -0.13440737 -0.11644404 -0.35262975 -0.31844178 0.40450624 0.047195118 -0.1958582 -0.17151095 0.0781389 0.46342015 -0.36303756 0.24458106 -0.04831357 0.6632406 0.651633 -0.7013345 0.8176255 -0.36853313 0.06326185 0.46357915 0.34492543 -0.35134414 0.115597144 0.22071448 0.19200815 -0.47702867 -0.7100765 -0.020112284 -0.23910825 -0.012868735 0.68076545 0.32653168 0.12063948 0.29894477 -0.67455024 0.49390426 0.30185854 0.270068 -0.11847531 -0.5664711 -0.18934566 -0.4088224 -0.2684644
napoletana 0.13859534 0.5059176 0.021693818 0.039278492 -0.1251972 0.08148288 -0.5046717 -0.38840508 -0.29247874 -0.26752427 0.10816462 0.19052476 -0.085656784 0.71705145 -0.43142125 -0.062665805 0.15645576 0.015909605 -0.38518023 -0.0022739551 0.3623747 0.13097794 -0.029020954 -0.11100718 -0.10067832 0.16101164 -0.07656257 0.01599051 -0.37645546 0.028560081 -0.41114572 0.21369126 -0.236195 -0.09637971 0.038857095 -0.17791878 -0.23908271 -0.78277963 -0.26521814 0.6513573 -0.58358437 0.8566704 0.2555397 0.17186578 -0.1011451 -0.91110885 0.08970035 0.1398872 -0.040945895 0.07428514 0.31104422 -0.67152685 -0.45962027 0.3705866 -0.16980422 -0.6794808 -0.12534645 0.055973608 0.2942809 -0.3842239 0.1422569 0.53710794 0.064242825 -0.37198693 -0.3687156 -0.34092256 1.022616 0.13991977 0.24266498 0.013067682 0.056644388 -0.34158972 -0.045814797 0.260212 -0.32774276 0.021573205 -0.23530489 0.34641626 -0.16560565 -0.568792 0.2033212 -0.4461141 -0.014251375 -0.441621 -0.09839253 -0.023820542 -0.06087279 0.6554363 0.4503501 0.061509363 -0.21055044 -0.13910289 0.4001388 0.64197385 0.12767746 -0.39802203 -0.15563768 -0.1029559 -0.837581 -0.120310664
parmense -0.42873022 -0.052051965 -0.14673036 0.06934809 -0.47875458 -0.504337 -0.46298033 -0.16674998 -0.15567063 -0.33827457 0.48262966 -0.59058845 -0.29281017 0.46343747 -0.27401188 0.28095946 -0.060779072 0.48259622 0.2099476 -0.3284975 0.38803566 1.0642948 0.17335047 -0.043567132 -0.25791878 -0.5230543 -0.71956223 -0.18825898 -0.55407864 0.051528595 -0.31615967 0.14618334 0.071059346 0.2574347 0.073400095 0.2425746 -0.5324275 0.028522873 -0.27392945 0.6094725 -0.5609966 0.07348616 0.38124013 0.13518938 0.08113222 -0.59306896 -0.026047869 0.28185084 -0.057048585 -0.34537673 0.40332782 -1.100363 -0.9081926 0.26340374 0.12118048 0.13488914 -0.064837724 -0.14294755 0.034799606 0.46053913 -0.2275739 -0.009937683 -0.12846367 0.0695858 -0.054197002 0.3183294 0.5913783 -0.55966914 0.19478865 -0.2814178 0.067222804 -0.2714856 0.24947111 0.22434062 -0.42600644 0.08636272 -0.103376545 -0.37305143 -0.21842273 0.21727166 -0.2384383 -0.06916202 0.0031982712 0.28740805 -0.39193383 -0.35352138 0.088672265 0.52568 0.04944151 -0.07170764 0.21113703 0.102054454 0.8052528 0.18858056 -0.17537966 -0.07197864 0.022854345 0.264334 -0.98260057 -0.25639236
americanhot -0.62231517 -0.13647394 -0.45420596 0.039039124 -0.41702902 -0.08987037 -0.30303967 -0.22103666 0.37262112 0.06794213 -0.37431663 -0.09849382 -0.57181555 0.71339285 -0.3732886 0.35323146 0.19835418 -0.64813226 0.18833125 0.14637624 0.106129035 0.30509466 -0.039061736 0.21164712 -0.0038477571 0.40861866 -0.3584652 0.063504286 -0.5740317 -0.026621161 -0.28915218 -0.08276598 0.20235325 1.0169766 0.062427443 -0.20337082 -0.17567879 0.025966665 -0.34947786 0.7552832 -0.5837301 0.6382225 0.45164272 -0.24041796 0.03225706 -0.6399789 0.017666856 -0.16201855 0.050632253 0.60191923 -0.3875675 -0.47201228 -0.16899243 0.13162848 -0.23019822 0.2354263 -0.06969763 0.1038317 0.04399648 0.17864475 0.171 0.7984451 0.007129807 -0.07717937 -0.10058219 -0.06134864 0.6438876 -0.38046286 0.0037726816 -0.20405291 0.35597238 0.19644016 -0.08297846 -0.08239642 0.110391095 -0.31026426 -0.18403375 0.27604517 -0.29689226 -0.8671774 0.097652785 -0.3680324 -0.27577263 -0.45487818 0.33715454 -0.32658768 -0.068519905 -0.043283135 0.13262936 0.21378669 0.40223077 -0.70481277 0.47707194 0.48693183 -0.02147029 0.1621406 -0.18546724 -0.06437973 -0.5142895 0.017147204
la -0.44708568 -0.3003191 -0.09450372 0.009155238 -0.29326168 0.019295746 -0.47285813 -0.1876784 -0.09074728 -0.058851566 -0.15431513 -0.21504216 -0.3395435 0.5489234 -0.3078254 -0.070684195 0.25481108 0.21720609 -0.052419595 -0.20563689 0.68854755 0.16464841 -0.24215843 0.22008659 0.028615726 -0.30362755 -0.4817045 -0.4228869 -0.4060921 -0.5183946 -0.42642832 0.44708467 0.20232838 0.23369667 -0.46302935 -0.23892446 -0.6958816 -0.36294833 -0.34729218 0.71819335 -0.5351022 0.4711942 0.2319097 -0.25014496 0.03135878 -0.73996186 0.04426383 0.2221003 0.19394436 -0.27141234 0.33562347 -0.32598943 -0.7482981 0.30921397 -0.7139183 -0.037813764 -0.35192826 0.27063552 -0.33498275 -0.11925606 -0.31208608 0.35446 0.487997 -0.7252119 -0.23402023 0.039226543 0.52198327 -0.35344824 0.9591236 0.19290987 0.030136302 -0.22427902 -0.3863178 0.5545772 -0.48580992 -0.30637467 -0.36110333 -0.28781435 0.3680491 0.14056508 -0.3540662 -0.13875844 -0.017040841 -0.19968066 0.05876576 -0.0032941562 0.19284977 0.4940038 0.11978524 0.08348863 0.50832945 -0.23120126 0.93526536 0.4873766 -0.28716713 -0.41721573 -0.014293964 -0.19101527 -0.6814574 0.3456873
reine -0.1455514 0.53220785 -0.19993389 0.32544735 0.14394544 0.033908796 -0.92683446 -0.36359805 -0.0970513 -0.22174437 0.18495147 0.2122851 -0.6650551 0.5451558 -0.21643834 -0.20509203 0.29404485 0.033054013 -0.16992638 -0.3098492 0.59875 0.4793338 0.09162403 0.37142515 -0.22944339 -0.05208386 -0.31374127 -0.12996316 -0.44184345 -0.013626992 -0.8687661 -0.27563566 -0.26202437 0.350795 -0.28048265 0.10101489 -0.28757477 -0.50615114 -0.30353373 0.75359195 -0.25509024 0.05912295 0.47086608 -0.08672327 0.17586151 -0.37005693 0.29582658 0.3783168 0.006151385 -0.024311058 0.59796643 -0.7352544 -0.8781856 0.06628786 -0.30609843 -0.15554322 -0.3479027 -0.15106316 -0.18101577 0.1657604 -0.43229032 0.13509825 0.39434946 -0.24747995 -0.4786772 0.4545695 0.8503227 -0.39004526 0.9649862 -0.057857417 0.5246404 -0.5479715 -0.42079684 0.17988902 -0.60659003 -0.70512223 -0.23174007 -0.13085052 -0.2377791 0.013431864 0.039049156 -0.2611717 -0.07842223 -0.37555853 0.15215631 -0.6963737 -0.07806631 0.7309542 -0.01695646 0.3196029 0.5591158 -0.44013655 0.71171206 0.331194 -0.37650886 -0.51059747 0.016112436 -0.2701264 -1.0960277 -0.07214803
sloppygiuseppe -0.24845196 0.11693145 -0.21417305 0.4624239 -1.1276432 0.07475701 -0.15098414 -0.20340812 0.327703 -0.17704976 0.2188344 0.05404753 -0.9587211 0.3356701 -0.5514367 -0.061037663 0.01903191 -0.29617685 0.18062277 -0.4777115 0.43566132 0.75215477 0.31348386 -0.20579904 -0.15171619 -0.42654902 -0.69169396 0.088587224 -0.3690199 0.16139573 0.2667352 0.11799598 0.3328642 0.46053585 -0.29107872 -0.2745254 -0.50797063 -0.16671915 0.3435721 0.45301345 -0.8714272 0.07221137 0.3902096 0.1829423 0.059783615 -0.3786557 -0.8024627 -0.30470616 -0.27179167 0.3615035 -0.45883814 -0.572893 -0.35843855 0.041855227 -0.528028 0.31901702 -0.08345793 -0.06913898 -0.2197553 0.2667572 0.14226913 0.69239247 -0.43386745 -0.19807212 -0.20900151 -0.30824783 0.46682277 -0.32666054 -0.113460936 -0.36077678 0.6633156 -0.3141287 -0.04197805 0.36245146 -0.050792616 0.01389413 0.16763838 0.14606129 -0.08446828 -0.13045113 0.3226174 -0.26024008 -0.14399679 -0.43514153 0.027989494 -0.28067073 0.18592332 -0.24662957 0.53958154 -0.50890124 0.29547024 -0.43067127 0.41621992 0.40366516 0.08086557 -0.25629607 -0.29466513 0.2117981 -0.23624124 -0.2631029
princecarlo -0.178447 -0.09244322 -0.603821 -0.10153574 -0.69948214 -0.08726148 -0.26600736 0.20377338 -0.84053284 -0.35297465 0.34204045 -0.18711111 -0.81939554 0.635965 -0.2474497 -0.0026292943 -0.3014217 0.45114353 0.09775285 -0.28073192 0.28573513 0.9913854 -0.11057493 -0.087347336 -0.0094548045 -0.77166146 -0.650221 0.38739663 -0.7121373 -0.03251616 -0.6672191 0.620216 0.3264037 0.17799002 0.26860788 0.27046114 -0.15211955 0.29991814 -0.3355449 0.42391503 -0.054053117 0.73326796 0.08304387 0.43726763 0.07870417 -0.69415534 0.13925084 0.35989207 -0.09274066 -0.025197573 -0.110693865 -0.23374242 -0.51498723 -0.25163308 0.52761346 0.3117922 0.11189757 -0.16116759 -0.124253415 -0.10086606 -0.46796587 -0.05976652 0.1353598 0.23290445 0.00014453687 -0.19266418 0.4932231 -0.28292722 0.059473764 -0.074200995 0.19587384 0.10628241 0.24078056 0.9559816 -0.3331608 -0.22272249 0.3939727 -0.19449589 -0.16727851 0.07672312 0.07781262 -0.00038088107 -0.66894776 -0.24448477 -0.56275487 -0.07503167 0.05689269 0.5201922 0.2458071 0.11468473 0.26324087 -0.3435692 0.85074705 0.2615884 -0.21433699 0.17951731 -0.16009364 0.10070282 -0.6528303 -0.0013486402
altlabel -0.56879646 -0.120449744 -0.7460119 0.06580499 -0.9676168 -0.35479605 -0.48707372 -0.09780869 -0.45135555 0.32611072 -0.5796045 -0.5237559 -0.7876201 -0.05364901 0.5506864 -0.4518597 -0.09621954 0.17803924 0.77589256 -0.5767723 0.13733265 0.74383795 -0.068273686 -0.22517678 0.28769305 0.10901861 -0.35179064 -0.6778431 0.16259408 -0.3424683 -0.2265584 0.24757174 0.76656586 -0.06321267 -0.59528446 -0.33379865 0.100758135 0.6719591 -0.53720963 0.37411305 -1.028776 0.17728938 0.3218878 -0.10244808 -0.66450983 -0.32043982 0.28385812 -0.41626915 -0.476553 -0.08009111 0.5992271 -0.7742843 -0.1866228 0.49417478 -0.3586373 -0.4371698 -0.2538521 -0.69446677 0.48106557 0.13852973 -0.18013075 0.47196043 0.33130094 -0.560262 -0.4591556 -0.6400106 0.34718168 -0.52303255 0.40014184 -0.002419107 0.9110688 -0.20958062 -0.038280006 -0.15201342 -0.6014164 0.2372607 -0.12998542 1.261221 -1.0085883 0.48778185 0.07394431 -0.609907 -0.85086685 -0.75988907 -0.32909915 -0.033783134 -0.64013815 0.011662008 0.16029893 -0.15236656 -0.3534535 -0.07544431 1.4728184 -0.16078275 0.13696861 0.7443844 0.12178736 0.04444659 0.16082557 0.4078087
cheesetopping -0.5196974 0.028983077 -0.49729416 -0.69392616 0.06836394 0.28096405 -0.14886205 -0.13723025 -0.0993309 -0.35275173 0.18415609 -0.41252252 -0.35886824 0.42457512 -0.13925864 0.27656913 0.6137907 0.095599495 -0.1522495 0.35882306 -0.0285087 0.26627967 0.18202072 -0.26424363 -0.52206993 -0.6304689 -0.09039752 -0.02289141 0.33196765 0.07301006 -0.4905268 0.24309997 0.11852608 0.16596518 -0.37083733 0.13429327 -0.7118958 -0.34782076 0.22351058 0.12137872 0.119790785 0.00027621613 -0.032773685 0.19042642 -0.49791822 -0.62797946 -0.2895451 0.13212395 0.19755869 -0.3991558 -0.1547908 -0.20807396 -0.35072765 0.039476756 -0.06895046 0.3605654 0.01612299 -0.06535701 0.5047443 0.18098165 0.080397956 -0.14942198 -0.5682997 -0.17406328 0.19833207 -0.15148163 0.22581767 -0.17928214 0.2971776 -0.17282428 -0.12734632 -0.28820702 0.16210826 0.31883627 0.13913497 0.26971322 0.38643628 -0.025229195 -0.32725424 -0.37889683 0.46597704 -0.03034433 -0.8793112 -0.5340363 -0.6743272 -0.2733794 -0.37253925 0.2801425 0.14000101 -0.5449626 0.08600794 0.07935143 0.47758058 0.48736903 0.23673992 0.26283833 0.07901762 0.27906844 -0.7799201 -0.024450038
http://www.co-ode.org/ontologies/pizza/pizza.owl#OliveTopping -0.31698507 -0.2537233 -0.43435082 -0.4465196 -0.31017196 0.2630635 -0.6552599 -0.013284793 0.20314471 0.4237812 -0.381934 0.5234821 0.04642689 0.30953783 -0.15295926 0.13196504 0.19407688 -0.06495079 0.3003496 -0.30497524 0.5151321 -0.46519437 -0.41586295 0.25721633 -0.41242206 -0.63535684 0.09622511 0.12215526 0.2038528 -0.077351265 0.033485603 0.3393371 0.051944118 0.07357322 -0.16990153 0.342027 0.05645874 -0.081759155 0.025242757 -0.513323 -0.56029224 0.67457294 -0.560492 0.030666038 0.0743061 -0.30908063 0.07054734 0.15620708 -0.5748615 -0.21963039 0.29809695 -0.69494474 -0.24372496 0.22888122 -0.42632988 0.07447696 -0.0077566383 0.42848134 -0.48697335 -0.04142007 -0.074126236 0.13003367 0.4100553 0.40871277 -0.71778274 0.32604712 0.3802443 0.11728675 -0.043490645 0.4527358 0.22380063 -1.1019722 -0.012350231 0.92969763 -0.121566996 -0.08919134 -0.059205685 0.4269493 -0.622746 0.021308381 0.39078817 -0.18381524 -0.8417603 -0.023548983 -0.36744812 -0.3202657 0.17690611 0.19061297 -0.36916623 -0.1338622 -0.16698174 -0.17885645 0.33946994 0.14818658 0.07120466 0.26928592 0.2637941 -0.28989026 -0.73604435 0.1388749
caprina -0.41902757 0.22635664 -0.36606652 -0.31015036 -0.9406159 -0.22407992 -0.27929088 -0.6309318 -0.31010193 -0.35669813 0.08453816 0.06471312 -0.83476734 0.845628 -0.16379212 0.2462832 0.5898272 0.28110644 0.5118826 0.32445326 0.1760322 0.5508419 -0.018271247 0.1277064 -0.19369738 0.051805057 -0.13662404 0.27778843 -0.90873456 0.12293448 -0.5542684 -0.123636514 0.110323444 0.20055133 -0.105420776 0.07889488 -0.6776941 -0.39708027 0.06655004 0.26715967 -0.3925479 0.3800537 0.47392395 0.20795856 -0.21804415 -0.7483967 -0.23931095 0.2567978 -0.049713593 0.2039975 -0.31386605 -0.426401 -0.7340165 0.19434732 -0.026805274 0.21536265 0.15533045 -0.23456112 -0.009779932 -0.0778892 0.043629244 0.4527784 0.020846665 -0.82952696 -0.21695212 0.028448056 0.28711075 -0.5463244 0.08930498 -0.21527007 -0.3620018 0.005778371 0.15496278 0.2283777 -0.019381296 0.12514788 -0.17994423 0.09249023 -0.03819342 -0.38042763 0.33826974 0.03752054 -0.65388054 -0.61329675 -0.35652742 -0.15689364 -0.066988654 0.3426505 0.01877026 -0.033503782 0.0067032864 -0.29695225 0.3181457 0.3074954 -0.034325626 -0.12945962 -0.42409056 -0.056301784 -0.67349523 -0.2039649
spice -0.33632404 0.23298088 -0.0734182 -0.5547078 -0.20391898 0.51437056 -0.25155485 0.4709767 0.1764247 0.052356444 0.37885845 -0.17144066 -1.1136128 0.55487734 0.16862714 0.552158 0.15463454 0.4120531 -0.27095938 -0.37783158 0.0738526 0.62914854 -0.40613484 -0.36563534 0.08222662 -0.44551596 0.20088549 -0.09429198 -0.7952304 0.22374094 -0.3373989 0.41795945 0.07127434 -0.07328255 -0.87307996 -0.18186393 -0.25440007 0.13008006 0.08856723 0.4809477 0.5997594 0.70833397 0.058352683 -0.1309613 0.029098993 0.0458717 0.25477716 0.5053964 0.384897 0.14381388 0.27760106 -0.37108278 0.62908274 0.33177063 -0.3760122 0.24096738 0.15865894 0.26217532 0.81511015 -0.5985013 0.45388648 0.07151127 -0.5265602 0.25106686 -0.21892822 0.2137673 0.60193396 0.06910207 0.62252754 -0.7073693 -0.1816047 -0.17256573 -0.35191303 0.08246944 0.04939563 0.0061105248 -0.016527269 -0.20781939 0.061638795 0.34092808 0.058018472 0.24364746 -0.77251714 -0.95729357 0.17541388 0.119842224 -0.37925127 0.4872129 0.3448754 -0.2574681 -0.060410053 -0.05877757 0.69353896 0.28617972 -0.4033179 0.30816182 0.20123605 0.09707462 -1.0807532 -0.3815778
garlictopping -0.64430207 -0.12257177 -0.53683937 -0.9394379 -0.15406655 0.51585025 -0.5208732 0.28667414 -0.005476212 0.32883838 0.13134299 -0.4476539 -0.32811442 0.2178104 -0.31589743 0.51473397 0.4547523 0.2383204 0.21371193 -0.38031954 -0.44345278 0.26163426 0.062798314 -0.37430778 -0.75278515 -0.35601154 -0.119139716 0.08247638 -0.3550431 -0.16868669 0.112376414 0.35914367 0.40894678 0.12411263 -0.119171925 -0.28830826 -0.5275308 -0.27756914 0.25455642 0.080194026 -0.023318168 0.51883006 -0.08702624 -0.029242134 0.5043488 -0.05919301 0.48383778 0.10835739 0.0089421375 0.06768432 0.13930297 -0.6003211 -0.07016321 0.42005607 -0.105581634 -0.3520716 -0.6481516 -0.12697169 -0.24088459 -0.45641688 -0.14250712 0.61746544 0.22244805 0.2350773 -0.73034894 -0.3363084 0.5318086 -0.076279074 0.3599742 -0.54008484 0.094001405 -0.48415908 -0.2321469 0.099446714 -0.16501647 -0.09390424 0.18531232 -0.05504426 -0.054812666 0.18371947 -0.11932577 -0.4477175 -0.5207645 -0.4599323 -0.61764026 -0.46086746 -0.0204218 -0.20186764 -0.049390566 -0.6902615 -0.2499729 -0.44764155 0.08892495 0.43643042 -0.24044183 0.036945604 0.2057199 0.13600698 -0.59293413 -0.25746766
mild -0.59667623 0.2348154 0.5406371 -0.6251 -0.2599522 -0.28656006 -0.22473952 -0.34819853 -0.554142 -0.40789875 0.21777356 -0.78474 -0.2827723 0.83696395 0.019325323 0.30167356 -0.04548332 0.07978734 -0.18603688 -0.1242428 0.19096252 0.024266837 -0.08533828 -0.5536368 -0.21929884 -0.7282079 0.43984866 -0.52949977 -0.87323797 0.08793413 0.31231108 0.44196746 -0.21624383 0.08831475 -0.03407125 0.44344476 -0.77459544 -0.6141085 0.6754119 0.45301068 0.1058182 0.25504285 0.37765813 0.006431442 0.5746671 -0.37448156 0.27241835 0.5645124 0.16224654 -0.077137955 0.21560115 -0.117541805 -0.6049405 -0.054497026 -0.15019108 -0.037504267 0.3667427 0.36402193 -0.097320035 0.23572756 -0.014704546 -0.4519901 0.5483602 0.09996527 -0.4993849 -0.054190263 0.70596224 0.10194987 0.035107702 0.04309055 -0.3498797 -0.5500935 -0.15730843 0.91940725 -0.21907768 0.14096083 -0.13142128 0.57172215 0.261875 -0.38530502 0.378164 0.1745263 -0.43760833 -0.46904773 -0.6218618 -0.44078133 -0.54910725 0.30094346 0.031079598 -0.39051732 0.4850184 -0.80718356 0.6350117 0.8459472 0.0048619076 0.31019944 0.41732228 -0.1325542 -1.0234143 -0.43934476
american -0.35275084 0.0067885118 -0.22812073 -0.112118706 -0.45841554 0.1320622 -0.47343126 -0.3334461 0.12155757 -0.35768858 0.010127439 -0.05669623 -0.46231875 0.7646164 -0.07654381 0.4950588 0.5115209 -0.29487342 0.28015468 -0.02719478 -0.07320442 0.39323366 0.009955848 0.04950369 -0.09751783 0.20542398 -0.6374681 0.17888352 -0.44541022 -0.16047625 -0.5619119 0.21181133 -0.042004194 0.68708295 0.17683607 0.02460611 -0.3931263 0.010166625 -0.5171347 0.9619488 -0.31218714 0.7698157 0.65043265 0.06698781 -0.29818055 -0.75118893 0.5598207 0.0856663 0.20716716 0.025735559 -0.3352534 -0.39177322 -0.2946969 -0.021211183 -0.36351347 0.31916243 0.099816166 0.20987676 0.111320145 -0.0038462311 -0.13521838 0.9657044 -0.10103847 -0.17518523 -0.19785027 0.19872098 0.5358722 -0.14410816 0.21421957 -0.16358583 0.32575503 0.023909448 -0.10123383 0.12368246 -0.12831342 -0.30394685 -0.27796146 0.36275548 -0.0666641 -0.45119786 0.5586897 -0.4971123 -0.3035201 -0.1488851 0.3335016 -0.3574049 0.06689441 0.27243364 0.22560392 0.09722465 0.3317403 -0.14714068 0.4538231 0.19206536 0.13273509 -0.11548039 -0.25729015 0.0986978 -0.72890514 0.0048702694
spicy -0.7574601 0.104053885 0.0123535935 0.12442835 -0.1304853 -0.03627936 -0.3534785 0.24648091 -0.3091969 0.34973767 0.28850788 -0.093145214 -0.37412056 0.8541919 -0.001202409 -0.0069191502 -0.22990596 0.086108536 0.010914867 0.062323738 0.4037066 0.19587241 -0.14395036 -0.5181619 0.22857359 -0.3869922 0.30082837 0.3499547 -0.06075174 0.3810597 -0.35085782 -0.084838495 0.38129708 0.33208176 -0.45856726 -0.053626858 -0.3805334 0.44409508 0.32483745 0.4733719 -0.29458076 0.48480153 -0.015782002 -0.17360324 0.21343125 -0.23108861 0.27198035 0.04628313 0.30115834 0.028030057 -0.0062775933 0.005924419 -0.046130247 0.49572575 -0.6246043 -0.061140407 -0.069661595 0.2496547 -0.15060467 0.14733665 -0.148173 0.26685435 -0.19649544 0.05765432 0.054261643 -0.41854054 0.26320973 0.3622385 -0.23596688 -0.90477115 -0.13602264 -0.50026476 0.20850244 0.22752906 -0.3264707 0.1733785 -0.37261432 -0.58519447 0.013643601 -0.029385902 0.25819337 -0.29420215 -0.11905269 -0.6985724 -0.3404176 -0.41404393 -0.22247122 0.5473895 0.24969447 -0.1768529 -0.074109614 -0.5421092 0.24535795 0.57514757 -0.22352286 -0.15078862 0.05454952 0.0012629202 -0.684619 0.4018361
food -0.3105557 0.3734433 -0.36142218 -0.31724963 -0.09935407 -0.110088 -0.35615715 0.5828893 0.024988053 -0.15636748 0.059854817 -0.30063334 -0.38797146 0.99875855 -0.42435387 0.14059864 0.15127511 0.10535784 -0.27737966 -0.10562979 0.23390394 0.63398993 -0.5074295 -0.3906087 0.23701943 -0.24773887 -0.044020817 -0.21753559 -0.14942773 0.06202805 0.12651938 -0.32869703 -0.020303525 0.34738964 -0.524988 -0.22248799 -0.58782274 0.2463986 0.13026024 0.4364165 0.22358972 0.34333593 -0.45159322 0.08239558 0.08057379 -0.54490036 -0.019183272 -0.045439284 0.16881225 0.2604053 0.23159407 0.22493635 0.43041193 0.41087207 -0.40642652 -0.33580297 0.09978525 -0.13316879 -0.09749283 0.18510216 0.39721587 0.5979705 -0.37516955 0.06395188 -0.5185441 -0.5116665 -0.2465173 -0.27901772 -0.034130927 0.31201476 0.22477019 -0.106017664 0.1299388 0.2931644 0.06821217 0.21080595 -0.46849152 -0.27765322 -0.4848347 -0.042789187 -0.035745434 -0.36941743 0.30381018 -0.40323016 -0.86632526 -0.44640833 0.31536686 0.5018965 0.39247155 0.17065625 0.4051548 -0.060050935 0.15702367 0.30741778 0.2658681 -0.04901028 -0.22740717 0.15606853 -0.8339832 -0.031040626
ham -0.7705511 -0.51840955 -0.14647481 -0.4170895 -0.23492076 -0.12398042 -0.124578044 -0.27043658 0.39854917 0.36945012 -0.12710485 0.31577426 -0.21059144 0.16446726 0.661898 0.21029519 -0.17655878 -0.13641262 -0.43370682 -0.67585135 0.112705514 -0.050176796 -0.3532025 -0.50711113 -0.3878439 -0.20400158 -0.12475997 -0.44494605 -0.52092206 -0.024027191 -0.06283431 -0.2516233 0.65987366 0.050766807 -0.6630867 -0.02870543 -0.367629 -0.19649458 -0.14337538 0.44906035 0.3046363 0.66270584 -0.44081226 -0.25028312 0.16730289 -0.12078056 -0.36982858 0.4131973 0.11298282 -0.46600193 0.15011096 -0.5747317 -0.07669011 0.09489556 -0.4723856 -0.1379047 0.34154916 -0.033432946 -0.2709541 -0.14109907 0.099977605 -0.008563982 0.28896788 0.17997856 -0.21004835 0.054059513 0.15570833 -0.31650808 0.42711884 -0.4383672 0.5992462 -0.61722016 0.23442128 0.5930053 -0.545786 0.084285036 -0.21986702 0.06472608 -0.5883952 -0.08910089 0.5130891 -0.48019457 -0.7571808 0.20244293 -0.32329842 -0.26244453 0.085982144 0.19813839 -0.2836785 -0.15296023 0.68923926 -0.17612702 0.76817 0.56693655 -0.25705966 -0.538336 0.18044893 -0.21490069 -1.5276185 -0.46064055
rosa -0.8724384 0.08564127 -0.31031042 0.0014059339 -0.24675894 -0.07755081 0.15821747 -0.25744897 -0.3122451 -0.18178456 -0.038824577 -0.4481094 -0.4511583 0.80212164 -0.52022237 0.18568988 0.13421644 0.09989714 0.24848787 -0.17089126 0.16966864 0.6409064 0.2986693 0.3137553 -0.3522799 -0.23164566 -0.61925924 0.117199674 -0.55491716 -0.34534845 -0.39408058 0.0037176854 -0.023141595 0.61775607 0.089293055 -0.051191617 -0.5020038 -0.0006577361 0.23084736 0.5458728 -0.51222163 0.33297068 0.09506365 0.2583623 -0.106333405 -0.7056498 -0.3139735 0.33667943 0.35785118 0.23537643 -0.06381225 -0.4127924 -0.6297095 -0.19050899 -0.27308396 0.1622094 0.10436079 -0.29358953 0.040142592 -0.10663431 -0.4058341 0.308484 -0.10476297 -0.3838556 -0.14963837 0.19592214 0.5929231 0.019027354 0.1835934 -0.022321068 0.05590325 0.24115592 0.02428769 0.55587316 0.0012381525 -0.22904328 -0.0081387395 0.14469962 -0.40245178 -0.5930712 0.40440458 0.35304895 -0.46849257 -0.41382283 -0.15052824 -0.09424314 -0.1619813 0.37873536 0.19010459 -0.22676401 0.36902136 0.088633746 0.35284042 0.31854302 -0.14670195 0.16581324 -0.28022647 -0.18349579 -0.8166398 -0.118494116
http://www.co-ode.org/ontologies/pizza/pizza.owl#Giardiniera 0.36563817 -0.14993487 -0.7144092 -0.10231938 -0.6479413 0.17933545 -0.6914361 -0.04476305 -0.77100295 0.3694401 -0.18164039 0.69068897 -1.0572807 0.35738495 -0.25566489 -0.12327978 -0.38307774 0.2749694 -0.44832805 -0.27313277 0.38899025 0.30958125 0.22395715 0.83228356 0.18265577 -0.20899379 -0.66576076 0.110784136 -0.23027109 0.2578904 -0.42181775 0.50599134 0.00049435813 -0.011991051 -0.07564411 0.38934106 -0.24112824 0.030960815 -0.18404391 0.099302925 -0.04703523 0.35585973 0.3113992 -0.062072232 0.64856887 -0.5433918 -0.11471852 0.44658828 -0.24622642 -0.07774516 0.16153286 -0.08479293 -0.8185832 0.12123843 0.043999773 -0.12700775 0.035377942 -0.011403913 -0.37136105 0.0031305205 -0.03421565 0.4991447 0.6092656 -0.58149827 -0.30987403 0.34456584 0.46534607 0.5386578 0.08182115 0.44701988 -0.11477264 -0.54433686 0.27833426 0.9857364 0.1358786 -0.23973739 -0.5016649 0.036074825 0.10679943 0.30115324 0.31794998 -0.13468887 0.210855 -0.68031704 -0.08760327 -0.14911047 -0.40103543 0.5174127 0.6585532 -0.1880736 0.12891693 -0.44806466 0.18619883 -0.06278678 -0.16294472 -0.019940244 0.2076817 -0.2880654 -0.53071994 0.2903566
capertopping -0.4538505 0.0011519758 -0.19479951 0.11581844 0.011969498 0.13653862 -0.2472112 -0.41834173 0.21676707 -0.041235838 -0.01867203 0.28138432 0.06559031 0.8029173 -0.24936718 0.25198603 0.1905298 -0.11728657 0.050712258 -0.5453928 0.16018067 0.2879977 -0.29647952 -0.37684226 -0.07655733 -0.6079997 0.6649453 -0.17451769 -0.15086171 -0.2412565 -0.0029122527 0.2604536 0.07163344 0.12373623 -0.6099014 0.22001886 -0.17400908 -0.14736001 -0.062117483 -0.34685203 -0.5033658 0.72585094 -0.14810151 0.12857848 -0.013343018 -0.88540345 -0.13431309 -0.40011722 -0.6238207 -0.1429971 0.31946683 -0.28119385 -0.20961305 0.06329766 -0.362353 0.081898585 -0.44060144 0.28994924 0.28128532 0.20489202 0.35859233 -0.18250413 -0.24615996 0.15171124 -0.4248639 0.2671076 0.43466777 0.60266685 0.0589928 -0.051387444 0.18587194 -0.8602489 0.24303517 0.6967798 0.05353699 0.0010596844 0.4480036 0.5910862 -0.5604464 -0.09293868 0.10489211 -0.28624305 -0.59089243 -0.31870133 -0.12382666 -0.4784121 0.09423284 0.19591358 -0.30067664 -0.49245894 -0.100585006 -0.23691434 0.6827314 0.21252827 0.10682656 -0.20195498 0.14050941 0.090697326 -1.3347833 -0.22535631
base -0.609147 0.11007005 -0.61750704 -0.3839747 -0.21838671 0.039075423 -0.9566397 0.49358582 -0.028918033 -0.7075511 0.3273012 -0.19192202 -0.70670456 1.5246692 -0.5985667 -0.0019205953 0.15056089 0.2816285 -0.4253495 0.0677992 0.19209822 1.282669 0.66796744 -0.48820895 0.005524709 0.34371462 -0.2535261 0.54994446 -0.34124857 -0.13298208 -0.1222818 0.22667336 0.24343047 0.3501927 -0.2355934 -0.6019901 -0.06175892 -0.04857175 -0.40719447 0.1543673 -0.37042105 -0.05550309 0.05059646 -0.057061456 -0.17530301 -0.59992605 -0.35885635 -0.2308868 -0.014395775 0.38633162 0.24286288 -0.52932405 -0.25459763 0.13761458 -0.38634327 0.5037547 0.24015291 -0.34090856 -0.26437366 0.0779582 -0.34689912 0.482354 -0.15571126 -0.46645907 -0.56308836 -0.74436146 -0.18739502 -0.2284813 0.14155325 -0.07266642 0.08385519 -0.11535519 0.04788397 0.893657 -0.0192239 -0.21319276 0.0050958106 -0.16272703 -0.025187189 -0.19077893 0.022157274 -0.29413885 0.25479764 -0.19421102 -0.3125463 -0.22391172 0.28479967 0.8441752 0.6095118 0.20254375 0.5432268 0.0700144 0.18167052 0.3024365 0.12100608 -0.12915483 -0.2970555 -0.6749974 -0.83291173 0.106531456
http://www.co-ode.org/ontologies/pizza/pizza.owl#Capricciosa -0.23515888 0.036832996 -0.3835339 0.48009908 -0.5738832 0.0007049852 -0.932118 -0.13410133 0.064554065 0.337515 -0.09020148 0.4782368 -0.38611206 0.27942938 -0.02132092 -0.16029441 -0.20992704 0.25764564 -0.5749481 0.053544145 0.8341521 0.13220093 0.0897304 -0.07998725 0.31543973 -0.17444119 -0.7180442 0.21112649 -0.03360935 0.3011243 -0.58418125 0.027856702 -0.17072259 -0.2875191 -0.11045238 0.21862525 -0.119466506 -0.89013946 -0.61156744 0.11606008 -0.8625248 0.59278184 0.38373107 -0.12176217 0.17586957 -0.46560198 -0.17380956 0.22124828 -0.24403618 0.035409138 0.7032942 -0.55250597 -0.6371805 0.32178283 -0.29391342 -0.96868587 -0.06814725 0.11481792 0.07540747 0.14691766 0.26273987 0.51790065 0.07988042 -0.095971934 -0.34832925 0.44032338 0.8608455 0.069017485 0.52102107 0.19558471 0.25023353 -0.55813456 0.03420227 0.2743483 -0.061523374 0.33517677 -0.21143675 0.17317007 0.042337287 -0.121186845 0.4404578 -0.054597862 0.43467888 -0.16324714 0.032392986 -0.3152077 -0.14187308 0.36847788 0.42189756 -0.15208936 -0.14803267 -0.14572157 0.0009212751 0.0728563 -0.10237403 -0.04027669 0.16206439 -0.062681444 -0.63365984 0.33351976
http://www.co-ode.org/ontologies/pizza/pizza.owl#Veneziana 0.7754534 0.060559783 -0.07948544 -0.039164446 -0.42090413 -0.19386138 -0.56102455 0.55407476 0.20371385 -0.31485415 0.49550378 0.5680556 -0.32378137 0.2853729 -0.20516536 -0.16676547 -0.29785553 0.066000834 0.35035852 -0.54013616 0.74313176 0.1938186 0.26064464 -0.035779558 0.18543065 -0.2553221 -0.8289707 0.14662878 -0.048846945 0.013219444 -0.036001 0.15059453 0.3301886 0.014712366 -0.089666486 0.4290219 -0.11400665 -0.16816726 0.022001449 -0.040649977 -0.47073427 0.69970924 0.15754206 0.54151815 0.5518666 -0.49745318 -0.55874586 0.48635983 -0.23026153 -0.068208836 0.3348505 -0.6327263 -0.30522826 0.3166624 -0.545519 -0.74761903 0.10083503 0.20007975 -0.06377766 -0.56054866 0.37590173 0.7992522 0.08145348 -0.2751971 -0.23891672 0.33153242 1.217944 0.16116285 0.2981588 0.2762353 -0.23751096 -0.4992684 -0.04052525 0.29963562 0.052611794 0.16215108 -0.07117279 0.14818941 -0.3729456 -0.7568867 0.51540923 -0.24593824 0.1272039 -0.25112337 0.31304938 0.034383975 0.13263337 0.08594115 0.41469544 -0.5700333 -0.13056995 0.07624742 0.49572217 0.22001138 0.40164196 0.007161556 0.016512651 0.073481366 -0.122880705 0.00786259
http://www.co-ode.org/ontologies/pizza/pizza.owl#FourSeasons 0.29941228 0.54160947 -0.62712145 -0.18910989 -0.4946431 0.18990491 -0.882812 -0.17352638 0.37926778 0.4129361 -0.18486132 -0.028144501 -0.42989498 0.549214 -0.18073644 0.25787264 0.16884571 0.034257494 -0.27447915 -0.15133576 0.5200176 -0.06833048 0.06903553 0.1979701 -0.2446398 0.318565 -0.5163215 0.106420115 0.13008031 -0.18245137 -0.6623612 0.39593595 -0.23566717 0.042699166 0.24328288 -0.1479733 0.15505439 -0.34497017 -0.5592494 0.568977 -0.5996095 0.7695267 0.23626158 0.022263627 0.024835818 -0.46731132 0.102738276 0.37791204 0.14681637 -0.052451693 0.4004381 -0.54774815 -0.626928 0.43862942 -0.48243758 -0.40918243 0.055765748 0.53319407 0.25944206 0.09569285 0.16371126 0.5420198 0.5324471 -0.25233752 -0.03863432 0.46035028 0.6729049 0.3569099 0.3057623 0.38734308 -0.050175533 -0.40935197 -0.11883838 -0.09368833 0.2173734 -0.20147868 -0.45289966 0.509122 -0.09094342 -0.52744746 0.80196124 -0.34296325 -0.20494667 -0.41793928 0.4434779 -0.063938946 0.005376775 0.24359797 0.3795466 -0.09660247 -0.08604544 0.14140444 0.116637565 0.5503211 0.11439061 0.029934056 0.21458253 -0.18702891 -0.51572734 0.3158519
margherita -0.15655251 0.12014906 -0.1296872 0.23165968 -0.6411085 0.097249344 -0.43070865 -0.18339273 -0.383723 -0.32071307 0.2497137 -0.11516188 -0.6062831 0.7530082 -0.53569293 -0.04413675 0.41856706 -0.055904757 -0.034728866 0.067181915 0.36573026 0.7545891 0.12397004 0.106266394 -0.107967325 -0.37627807 -0.47536203 -0.023831008 -0.5715615 0.016418282 -0.2730814 0.060276706 -0.11900846 0.49715507 0.1301405 -0.1827014 -0.28843087 0.048876222 0.06014478 0.56380135 -0.60808843 0.5461112 0.41656926 0.24130537 -0.12611476 -0.6488758 -0.037881475 0.0830672 0.1346538 0.009919049 -0.0051386254 -0.56337786 -0.55128753 0.35116163 -0.15436776 0.15521646 -0.028403044 -0.06968366 -0.11301463 -0.0788207 -0.15144539 0.5688963 -0.07572549 -0.49190414 -0.1602742 -0.020061616 0.66151196 -0.18910329 0.23799038 -0.24743971 0.26623353 0.060829937 -0.14630614 0.30535188 0.0056340224 -0.15711114 0.018732168 0.28583467 0.010144004 -0.494236 0.15682614 -0.15721533 -0.29055634 -0.30609667 -0.16652982 -0.16190444 0.26919472 0.25892544 0.3167313 -0.33704442 0.4651351 -0.2718407 0.5172701 0.3421598 0.054546196 -0.017196607 -0.057942048 -0.051646817 -0.884819 -0.114367664
http://www.co-ode.org/ontologies/pizza/pizza.owl#Siciliana -0.5656305 0.0046849586 0.07456004 -0.013357012 0.19758925 0.019582648 -0.6089016 0.0041051856 -0.17995419 0.5509136 0.2562516 -0.033371463 -0.102073655 0.417048 -0.018399818 0.19954774 0.04092926 0.15012732 -0.41775253 -0.3164449 0.49212497 0.2379096 -0.004086137 -0.062144745 -0.06894652 -0.24780948 -0.4328915 0.11659423 0.12029616 -0.23060845 -0.3756065 0.0054231603 -0.29225785 -0.21129693 -0.05395119 0.54620063 0.0031399645 -0.72924066 -0.2522492 0.39343223 -0.6704264 1.0179843 0.40728495 -0.30495104 0.28127715 -0.0017967615 0.12859531 0.44357854 -0.18237033 -0.24780788 0.2469507 -0.811741 -0.8737 1.0789808 -0.3947815 -0.41001943 -0.32349733 0.3557205 -0.092290565 -0.084084 -0.09285137 0.32684276 0.30345115 -0.2888896 -0.042865597 0.48555374 0.7570156 -0.27143535 0.42974442 0.16710472 0.32676724 0.07167836 -0.4645106 0.45877072 -0.3723018 0.46605524 -0.19398712 0.26123565 -0.42805955 0.28891543 0.22163574 -0.008376152 0.014316877 0.15774177 -0.060705487 -0.0550775 -0.103960775 0.63177365 0.50725204 0.39042556 -0.3174372 0.38379982 0.0008376476 0.44460648 -0.13816209 -0.19990513 -0.1946538 -0.16471875 -0.6555129 0.6681962
onion -0.23309533 0.15212506 -0.11547826 -0.34807247 0.51942486 0.31205443 -0.19414797 0.38089052 0.19458658 0.12710157 0.14928524 -0.44370306 -0.56819665 0.38550168 -0.46276975 0.28427225 0.39103597 0.7218188 0.2739429 -0.592132 0.1951486 0.28770515 -0.23549177 -0.40187663 -0.1898042 -0.65587574 0.23941514 -0.106046095 -0.057404246 -0.34316224 0.10870589 0.19431518 -0.07142272 0.20297019 -0.9116063 0.12963371 -0.7032176 0.16837437 -0.18461262 -0.03523314 -0.17580864 0.7271812 0.62702143 0.16686144 0.23102757 -0.55368185 -0.37105793 -0.5137789 -0.5452891 0.5520584 -0.32121292 -0.3286875 0.01709627 0.18280378 -0.401498 0.24821043 0.1789392 0.2802165 0.1702158 -0.33710262 0.18474765 0.21889289 0.10412308 0.15179624 -0.47034168 0.046380524 0.42138442 0.80197525 0.15554689 -0.5183493 0.08612537 -0.4158442 -0.21856828 0.437729 -0.20391665 0.0072078737 0.10352396 0.055035744 -0.23585998 0.19439663 0.19025376 -0.027975798 -0.22606103 -0.4463542 0.24763225 -0.20541963 -0.28720412 -0.12845206 0.29816872 -0.5898098 -0.13400175 -0.0474011 0.23640181 0.17706582 -0.27469364 -0.11729483 0.14826028 0.26599464 -1.0458732 -0.5366679
parmezan -0.29983214 -0.4236301 -0.7443741 -0.7507783 -0.32449973 -0.029467078 -0.33654505 0.07467304 -0.1956139 0.329908 0.060475077 -0.5102274 0.19390024 -0.21026918 -0.36879513 0.27320448 0.21339373 0.6443421 -0.09411955 0.19280234 -0.04373056 0.028241064 -0.19830325 -0.2619268 -0.4302579 -0.42533222 -0.31360227 0.17645037 0.046698447 0.1568457 0.32606977 -0.1003874 0.78393716 0.004971875 -0.25220963 -0.24267668 -0.3339027 0.1417822 0.30101383 0.8579851 0.07108171 0.18613389 -0.12548725 -0.2026052 -0.29270878 -0.2629205 -0.256568 0.20606032 -0.10141924 -0.19621821 0.2817743 -0.6029118 -0.35011104 0.16196114 -0.3160276 0.14001516 0.2323446 0.1324949 0.42917636 0.04673322 0.20535378 0.056427926 0.13491482 0.70333767 -0.07145507 -0.3363139 0.7625946 -0.11623803 0.6803616 -0.34876314 -0.010557867 -0.46865147 0.25692332 0.6861753 -0.34705094 0.029960714 0.079124615 -0.13293052 -0.3635996 -0.1297747 0.37700817 -0.6133499 -0.6960378 -0.49009484 -0.40002346 -0.43285814 -0.12630667 0.17698833 0.07509242 -0.47620755 0.13599066 -0.522536 0.17925178 0.6356548 0.117066674 0.345551 -0.23712985 -0.13130552 -0.9574896 -0.031912185
http://www.co-ode.org/ontologies/pizza/pizza.owl#PolloAdAstra -0.86926335 -0.20398475 -0.17402227 -0.03245204 -0.57093537 0.39154238 -0.3946301 0.29476824 -0.261529 0.5339149 0.5319373 0.223009 -0.19225411 0.29901937 -0.204851 0.36750838 0.029015554 -0.051425014 0.32329652 -0.01953874 -0.17931347 0.53880835 0.3192999 -0.01747316 0.45062694 -0.20140667 -0.509972 0.45368028 -0.8200847 0.07636662 0.45291343 0.049358625 -0.24315807 0.4172059 -0.72239155 0.57729894 0.17979999 -0.03088877 0.49534237 0.20209646 -1.1380806 0.80656314 0.3355481 -0.3386833 0.57057685 0.28379044 -0.36522186 0.27416363 -0.062415387 0.22237714 -0.36231527 -0.28004578 -0.03602878 0.5745217 -0.7175152 0.3708371 -0.037818447 0.21762206 -0.3776795 -0.4640095 -0.226378 0.31310734 0.454069 -0.2171781 0.022424646 0.71330714 0.49585748 -0.38904625 0.051829655 0.09244418 0.5674951 0.70646644 -0.67581415 0.7200754 -0.008991641 0.36845437 0.32849383 0.3547899 -0.53207815 0.21507373 0.28486666 0.39112958 -0.2565962 -0.15018766 -0.033324894 -0.116185196 -0.077520415 0.88532263 0.2909452 0.04965655 -0.00015401753 -0.57501006 0.17035529 0.14103483 0.07944862 0.2173752 -0.35357207 -0.272142 -0.20202981 -0.10287926
http://www.co-ode.org/ontologies/pizza/pizza.owl#Fiorentina 0.22900406 0.15972774 -0.5859009 -0.08173333 -0.08602954 0.09819743 -0.6789757 0.13946658 -0.31374437 0.20121826 0.45945457 -0.32822523 -0.3711213 0.71322775 -0.32070574 0.21838996 0.10313135 0.4018828 0.17497388 -0.3888515 0.54198676 0.5931828 0.18734767 0.11121795 -0.4590784 -0.22172815 -0.5582769 0.1250391 -0.20475683 -0.08985502 0.12568359 0.583459 0.32269546 -0.021466535 -0.03748824 0.56425005 0.13664132 -0.3149647 0.6001001 0.14276248 -0.654263 0.48498043 0.38478142 0.031068271 0.36273926 -0.18887882 0.48333254 0.35245815 0.156033 0.11393337 -0.010119204 -0.46128124 -0.75460994 1.0284945 0.20493615 0.06702612 0.22200564 0.701423 -0.10201091 -0.3198268 -0.11765452 0.41144648 0.36074027 -0.31655824 0.018460963 0.5465498 0.38988936 -0.3092812 0.3849904 0.33683282 0.32478008 -0.22568683 -0.18461 0.5045255 0.11216474 0.11640889 -0.103156455 0.16416875 -0.9356198 -0.024047952 -0.21442647 -0.6569675 -0.19004828 -0.13861914 -0.34121397 0.21297646 0.25299987 0.7373801 0.38357195 -0.21463436 0.21684226 0.30058417 0.35633823 0.73395187 0.26199338 0.2951331 0.14109308 -0.38712695 0.013081902 0.24407716
fruttidimare -0.63329846 0.114067934 0.021423193 0.10131246 -0.38162616 0.019866599 -0.39962193 -0.51280373 -0.090934664 -0.06383255 0.218706 -0.11615113 -0.36214668 0.88280404 -0.5069555 0.3568982 -0.08734489 0.14217648 0.08541187 -0.62053674 -0.0065577333 0.71104425 0.1883176 -0.52516884 -0.20613943 0.24643677 -0.36706597 0.22077693 -0.52806705 -0.517796 -0.023315849 0.16033028 0.08170827 0.41210786 0.27605808 0.22445492 -0.17615913 0.018400779 0.14018579 0.5790507 -0.87052983 0.6005259 0.22435305 -0.13491008 -0.023586044 -0.07444742 -0.12746899 -0.0005308996 0.17143382 0.59474564 -0.07835132 -0.44344807 -0.03682124 0.76929206 -0.17169537 -0.11894775 -0.28147015 -0.04102216 -0.063265026 -0.67706513 -0.34549737 0.22795713 0.22879171 0.07443932 -0.29980996 -0.3138196 0.3571469 -0.18782692 0.6647073 -0.6791124 -0.009129467 0.14246535 -0.48358944 0.33187953 -0.5767893 -0.038546816 -0.22585234 0.6386024 -0.5908494 0.060052827 -0.08063672 0.0003612068 -0.39917153 -0.10999599 -0.272117 0.12169298 0.5850221 0.61088395 0.24861723 -0.47666523 0.12181731 -0.18012117 0.21531266 0.45269498 0.086145885 -0.024587309 -0.79435825 -0.32021224 -0.58448005 0.4258693
http://www.co-ode.org/ontologies/pizza/pizza.owl#Soho 0.14033005 0.089500576 -0.12424148 -0.18882889 -0.07158481 -0.12069383 -0.5406795 0.21546362 -0.37108216 0.5921924 0.48148206 -0.45769393 -0.27970448 0.751662 -0.17188455 0.26495644 0.14030579 0.24263383 0.06790088 -0.39776963 0.49595582 0.28008845 0.46550363 0.09152707 -0.33358705 -0.560067 -0.91086406 0.18405339 -0.032482326 -0.045579035 -0.105039656 0.52846813 0.12212035 -0.031632584 -0.07183758 0.6600647 0.1795108 0.05678544 0.20647036 0.042949427 -0.6971603 0.51860964 0.36009854 0.44445226 0.40222058 -0.12569663 0.3082803 0.44535157 -0.049984448 0.01738801 0.19446658 -0.5913483 -0.9441629 0.9015219 0.08554755 0.109578304 0.08687428 0.3470941 -0.31257945 -0.3045889 -0.07664841 0.28488803 0.42624423 -0.15491425 -0.16522451 0.44638583 0.52725536 -0.30089298 0.4636938 0.008744161 0.18081762 0.12201736 -0.15125605 0.48896098 -0.09310407 0.1458368 0.13795167 0.11966245 -1.0925255 0.06659103 -0.3686355 -0.559831 -0.13175899 -0.2327836 -0.020924041 0.46644178 0.3623713 0.5961179 0.35657516 -0.39459527 0.24693967 0.028272819 0.37397033 0.33350456 0.055904623 0.311274 0.1844155 -0.18481748 -0.43891716 0.3848424
anchovies -1.0156862 0.19692674 -0.12852544 -0.108290784 -0.034139875 0.032909356 -0.4822803 -0.22714469 0.116920196 0.1961872 0.0077619604 0.3331426 -0.2894583 0.6982194 0.28199586 0.57107246 -0.19668432 -0.2465448 -0.45962366 -0.41166157 -0.38185903 0.20368165 -0.2960923 -0.3200055 -0.3970785 -0.17337164 0.50626636 0.21182163 -0.4643213 0.055514473 0.33640563 0.41920424 0.32738066 0.29911453 -0.32633767 -0.40688965 -0.4081913 -0.3474887 -0.12556396 -0.09417756 -0.1274456 0.8165142 -0.25656754 0.17509744 -0.058314264 -0.5075859 -0.21818736 -0.37991402 -0.22449777 -0.4205158 0.16093881 -0.5577967 0.17777483 0.20444411 -0.092152834 -0.14560808 -0.60865927 -0.1589642 0.011583326 0.25289157 0.45674816 0.039190628 -0.026161337 -0.055965427 -0.18418677 0.04015733 0.3852019 0.45896164 0.18320812 -0.16134071 0.18166763 -0.7830955 0.378291 0.54791564 -0.104141615 0.36846778 0.11227407 0.4019101 -0.88939005 -0.12563285 0.320723 -0.46910384 -0.8125806 -0.075065404 -0.63673365 -0.13217162 0.081907645 0.045458674 -0.22495684 -0.3541523 -0.30892104 -0.15369047 0.7158102 0.35751298 0.29083076 -0.3309942 0.24440596 -0.2159883 -1.0595254 0.101998195
http://www.co-ode.org/ontologies/pizza/pizza.owl#LaReine -0.15017271 0.17876986 -0.29062742 -0.101577684 -0.21737102 0.17123991 -0.8175585 -0.1252225 -0.09820956 0.40028706 -0.0017357044 -0.052587163 -0.4463765 0.4108007 -0.21513969 0.06250353 0.10989601 0.40156844 -0.23556738 -0.1789983 0.8016615 0.32633936 0.26842785 0.8326977 0.025127066 -0.18896453 -0.9042905 -0.20574607 -0.07721858 -0.2477406 -0.6039854 0.16711909 -0.14304756 0.26030412 0.024761807 0.10905794 -0.2234302 -0.49928272 -0.39965284 0.4813801 -0.6697745 0.21713059 0.33203447 -0.11200658 0.18850999 -0.36461323 0.17088836 0.45657602 -0.1323225 -0.30884662 0.52649707 -0.65842116 -0.942584 0.4502942 -0.2791369 -0.16849744 -0.21196322 0.26858366 -0.23377796 0.30577603 -0.37671965 0.16023168 0.5067254 -0.41847247 -0.07822874 0.68514305 0.54662454 -0.13271102 0.5108031 0.3871065 0.3054188 -0.38231438 -0.1748675 0.2627043 0.031192072 -0.1900338 -0.41122928 0.10608494 -0.13427748 0.3243209 -0.029815257 -0.0964107 0.14455546 -0.054990303 0.2674669 -0.24601384 0.009800275 0.33103067 0.38538828 0.15739961 0.13285734 0.062756784 0.40999493 0.24491338 -0.24043222 -0.10641347 0.23982395 -0.094088666 -0.96654904 0.39582902
some -0.3699743 -0.2349494 -0.35085472 -0.20315193 -0.25652087 -0.1142807 -0.43049362 0.12692708 -0.4306039 -0.23915492 -0.6634987 -0.72011733 -0.40035152 0.5713791 0.5957107 0.27287593 -0.36438152 -0.37659863 0.36937794 0.5127924 0.22251569 -0.025685884 -0.22646758 -0.5663753 -0.032388374 -0.5378197 0.18270326 0.17552659 -0.3236075 0.19239697 -0.33798575 0.43650746 -0.13991667 0.3346747 -0.22106797 0.46611118 -0.19611293 -0.6038722 0.23520985 0.1340491 0.02135889 0.0793161 0.6942271 0.14740206 1.0056087 0.09660431 -0.23886374 -0.022665594 0.5563248 -0.19201389 -0.38875353 -0.78634286 0.10616477 0.040078904 -0.13352524 -0.16813178 0.19492128 0.6479065 -0.00496587 0.56323576 0.28769022 -0.1651927 0.1938464 -0.06517789 -0.61056024 -0.16615656 0.89476025 -0.30077824 0.08240871 0.13349736 -0.15183151 -0.66588974 -0.86007804 0.7496887 -0.32029003 0.09653281 -0.08411628 0.24193984 -0.36445296 0.11862817 1.0626587 0.25437486 0.20533633 0.02051909 -0.16514625 -0.062545374 -0.15802053 0.108133584 0.5399596 -0.52835315 0.4238116 -0.6872855 0.31636834 0.7769172 0.17382738 0.028136758 0.63945997 0.104653 -0.4482248 0.46520263
http://www.co-ode.org/ontologies/pizza/pizza.owl#Cajun -0.77777284 -0.5292543 -0.3525282 0.63312775 -1.1438451 0.45214206 -0.4289241 0.29869273 -0.40319183 0.42751616 0.00645701 0.56268847 -0.62944955 0.2551766 0.06334448 0.084480226 -0.5014792 0.2581385 -0.2583866 0.2085252 0.46151957 0.17037973 0.34090182 -0.10644889 0.36381355 -0.40514237 -0.98816746 0.37169448 0.09680767 0.5222259 0.09492844 0.29954696 -0.0026244125 0.25246084 -0.49893558 0.33943778 -0.11182101 -0.18980767 -0.0037435428 -0.16996132 -0.547714 0.40847474 0.2795992 0.052118596 0.36968884 -0.2879053 -0.84104425 0.12406625 -0.5302465 0.3691421 0.1863121 -0.27585164 -0.2985385 -0.075512804 -0.59210557 -0.21697386 0.13089271 0.012902511 -0.41362435 -0.022045802 0.035986777 0.42128274 -0.18619779 -0.50730515 -0.11563677 0.41905323 0.7629499 0.30680212 0.023572093 -0.06597508 0.46728468 -0.4218545 -0.1723484 0.66216105 0.117209986 0.42435753 0.12655996 0.089896396 0.07511704 -0.23231587 0.6930344 0.09809769 0.047624208 -0.9191444 -0.057099734 -0.35789174 0.3849791 0.0149163855 0.91283196 -0.24109718 -0.033758 -0.30181763 0.10618699 0.020239493 -0.059812896 0.18032745 -0.15250282 -0.06642136 0.027975494 -0.07678918
http://www.co-ode.org/ontologies/pizza/pizza.owl#Napoletana 0.32039917 0.36288437 -0.41309902 -0.023895472 -0.44984686 -0.0062275943 -0.7770191 -0.18147409 0.0040454944 0.054559402 0.0234883 0.19287232 -0.2690468 0.70722187 -0.25212485 -0.04034709 0.12091244 0.2793737 -0.26008424 -0.0015893152 0.7981766 -0.01383161 0.2824935 0.14373295 -0.083237104 0.19197361 -0.4015934 0.17175128 0.18044285 -0.11377836 -0.43365613 0.3913996 -0.25139028 -0.14344133 0.16022868 0.21290265 0.10689493 -0.7568661 -0.38511974 0.31477955 -0.63576394 0.7669218 0.34189004 0.015109755 -0.048162922 -0.44446245 -0.16115463 0.5249924 -0.08214286 -0.12692395 0.6148388 -0.78240544 -0.59574693 0.46878633 -0.12473423 -0.75165135 0.11217488 0.1687273 0.17186621 -0.23756029 0.14705984 0.6230367 0.1902891 -0.28596357 -0.15348512 0.27136925 1.1691397 0.12974025 0.1009594 0.39090297 -0.11252123 -0.42552862 -0.16165714 0.010887486 0.083611995 0.24794404 -0.12249938 0.3129305 -0.30783093 -0.5537933 0.54124373 -0.28794736 0.023558984 -0.35520387 -0.097839646 -0.06458715 -0.01543384 0.53438145 0.42747003 0.10484556 -0.36361867 0.31076574 0.111476496 0.38405508 0.1845751 0.063135155 -0.03428227 -0.044903398 -0.41575852 0.13220172
http://www.co-ode.org/ontologies/pizza/pizza.owl#AmericanHot -0.50433874 -0.28026816 -0.6775252 -0.15560871 -0.8009075 0.17375441 -0.50921607 -0.10285254 0.5524282 0.58979225 -0.34888768 0.0015542749 -0.5868283 0.5858894 -0.31878844 0.34939566 -0.04863038 -0.50534385 0.19775201 0.16864508 0.12734395 0.24954885 0.18625538 0.7229456 0.13275647 0.54154253 -0.70325506 0.25776455 -0.17580472 0.16621886 0.1346492 0.026692744 -0.11006302 0.9434012 0.015473022 -0.13471888 0.42721403 0.06269037 -0.25334376 0.49970523 -0.7568778 0.482649 0.44520637 -0.2584727 0.44660953 -0.2878262 -0.27848816 0.224274 -0.031140089 0.4888603 -0.19828857 -0.47295848 -0.27024454 0.3057162 -0.33678025 0.105589055 0.17214586 0.48465732 0.032042976 0.12825014 0.38562205 0.8470509 0.13123816 -0.23080373 0.10209695 0.30853298 0.5931905 -0.1579057 -0.36768854 0.318089 0.35322848 0.1473364 -0.23059602 0.19150583 0.4025759 -0.22163971 -0.038957596 0.44519073 -0.3047617 -0.8266997 0.36129943 -0.36649957 -0.47094366 -0.220876 0.33683333 -0.24827798 -0.10606485 0.07332983 0.3656401 0.26778668 0.25030842 -0.25351647 0.1648716 0.32592338 0.27126917 0.30911872 0.011519505 0.10095166 -0.3615817 0.12214258
http://www.co-ode.org/ontologies/pizza/pizza.owl#PrinceCarlo 0.1247705 -0.009291694 -0.81839246 -0.3443186 -0.9472322 0.12464674 -0.46803075 0.36349303 -1.0685592 0.1430968 0.20888324 -0.033117723 -0.85749596 0.6415017 -0.10486331 0.16480218 -0.19277942 0.73250335 -0.073235 -0.24473572 0.25483906 0.7933877 0.1697463 0.31725946 0.05171867 -0.68148756 -0.9963381 0.4617085 -0.6394722 0.13544722 -0.1754364 0.43213922 0.1408338 0.13928744 -0.024513833 0.6224295 -0.029440315 0.4045959 -0.13407516 0.05159284 -0.3439271 0.696953 0.10796697 0.38283354 0.11081062 -0.3517027 -0.1530388 0.5603597 0.0048816768 -0.093621284 -0.19467661 -0.25533572 -0.6843506 0.08235056 0.4510408 0.17106105 0.5553766 0.21114156 -0.052746713 -0.17162138 -0.3037118 -0.017977817 0.41466576 0.10148741 -0.039816115 0.43823484 0.2741708 0.041175403 -0.27301785 0.23381367 0.114049405 0.163515 0.17096806 0.88918877 0.07574536 -0.0085847 0.19382584 -0.049227875 -0.18864799 0.20951179 0.34064317 0.16288848 -0.5160383 -0.19178046 -0.3038526 0.27113938 -0.09711669 0.46144798 0.40300247 0.0037541632 -0.08498326 -0.047670532 0.500424 0.055303454 0.01228048 0.2881035 0.10717879 -0.05719392 -0.50665563 0.034779504
http://www.w3.org/2004/02/skos/core#altLabel -0.39147386 -0.019518482 -0.7339819 0.04010544 -0.8388649 -0.014561532 -0.83068556 0.15338913 -0.26347798 1.0501617 -0.74109083 -0.13170305 -0.9920829 -0.24315749 0.28676358 -0.49297947 -0.1252574 0.52396744 0.2515942 -0.5279503 0.9301382 0.56171215 0.07922232 0.2601892 0.29237533 -0.22287793 -0.36019582 -0.67715424 0.11965576 -0.041180186 0.25105608 0.41154158 0.42967954 -0.014870625 -0.50945973 -0.06691087 -0.13593046 0.8295599 -0.34086397 0.05422572 -1.459275 0.4632547 0.30770844 -0.3963876 -0.62737495 0.037075996 -0.15024559 -0.1589302 -0.23308171 -0.6281115 0.81820863 -0.5189392 -0.40801093 0.35300323 0.042112462 -0.35335454 -0.018553266 -0.2815812 0.6591132 -0.15603143 -0.039514888 0.08696055 0.7398218 -0.49873936 -0.31290707 -0.20614186 0.14801344 -0.47535464 0.055861514 0.69220394 0.81394714 -0.051450044 -0.20246285 -0.28930464 -0.5096889 -0.042214513 -0.27385575 0.97225076 -1.1195837 0.39070138 0.35058036 -0.07535773 -0.970322 -0.6724425 -0.027514162 -0.034778256 -0.6438972 0.04348361 0.11582499 0.04670984 -0.46920958 0.032576453 1.131837 -0.07247846 0.076418914 0.83657736 0.24130878 0.12153868 0.8327278 0.39743683
peperonatatopping -0.75770277 -0.4374958 0.4725648 -0.094053484 -0.3949069 0.106127545 -0.065828234 -0.10144275 0.26671845 0.25569227 -0.32063115 -0.18290192 -0.78898096 0.40839002 -0.19545789 0.29683205 -0.26933652 -0.18734814 -0.309424 -0.6267837 -0.3847015 0.09445737 -0.40561286 -0.34485978 0.1699635 -0.33492878 0.50617284 -0.3318778 -0.40114197 -0.35489345 -0.15759915 0.16204965 0.52454764 -0.14174995 -0.5099008 -0.23976225 0.092946306 0.16156454 -0.02394445 -0.068606675 -0.05580002 0.25919458 0.35170302 0.09326504 0.15127192 -0.37336987 0.050100368 -0.068494685 -0.43236685 0.16229807 0.24222162 -0.74893063 0.27307555 0.325551 -0.15985212 0.23495002 0.62435 0.076414995 0.37355524 -0.24766679 0.47067615 0.098444335 -0.1524228 -0.28135663 -0.5653321 0.1509083 0.37032962 0.4216614 0.4917281 -0.48153734 -0.02448615 -0.74698883 0.08843159 1.0583694 0.16429627 0.16418108 -0.23662698 0.032007735 -0.56844956 0.13287501 0.23408633 -0.21339643 -0.5994245 -0.6173014 0.09109613 -0.018755782 -0.01719979 -0.0012809868 0.1295903 -0.4764803 0.12186641 -0.053807404 0.48041525 0.132295 -0.26693773 0.4149829 0.19272117 -0.45473683 -1.1748866 -0.49537933
